150 128
132 0.18159685 -0.06729325 -0.0747013 -0.2100836 -0.17578797 -0.060353145 0.08920635 -0.050664604 0.10996812 -0.10391328 0.10606856 -0.015077651 -0.12009447 -0.25334918 -0.057431746 -0.09525446 -0.20390923 0.15969938 -0.22778377 -0.02984929 -0.08375848 -0.2963759 0.18315388 0.01433733 0.19078241 -0.2362925 0.31590334 0.16131663 0.12667553 -0.2946316 -0.03670048 -0.09921253 0.030246217 -0.055635672 -0.323822 -0.40224305 -0.048405144 -0.001543845 0.26134363 -0.16834037 -0.01691225 -0.31803596 0.07405272 0.19021149 -0.11841675 0.07821578 0.25855154 0.18599607 0.2828984 -0.20557892 -0.05140523 -0.08856903 -0.07488469 -0.20556782 -0.1090987 -0.12181497 0.3078412 -0.060709048 -0.14331302 0.20767334 0.022168297 0.1763167 0.04651256 -0.1024331 0.0024279123 -0.034113985 -0.12199893 0.2309234 0.073124744 -0.010933266 -0.02364031 0.0703803 -0.15146114 0.021211412 -0.029193511 -0.037405882 -0.050491333 -0.08854769 0.255223 0.026758298 -0.17424111 -0.09209783 0.09902443 -0.16749424 -0.022679867 0.36663058 -0.16403866 0.15543157 0.3060945 -0.050175432 -0.23212145 0.17729285 0.1253636 -0.14699528 -0.12097619 -0.17535785 -0.10625831 -0.22178115 -0.34691322 0.062472124 0.26179296 0.12670818 0.08999368 0.1829523 -0.019193806 0.26121345 0.20940605 -0.0024963384 0.21454711 -0.03739029 -0.04196136 0.19224522 -0.29409087 0.0411396 -0.09415414 -0.018776676 0.32953066 0.246573 0.12490348 0.11985773 0.15085988 -0.13360608 0.037401356 -0.22705673 0.0020318856 0.11700943 0.13336253 -0.14458211
64 -0.17495215 0.057915244 0.12414759 0.20350681 -0.104850434 -0.21807629 -0.06803449 -0.08944634 -0.013435527 -0.022762101 -0.118444 -0.049993135 0.045822643 -0.0732194 0.045056224 -0.23402956 0.13996564 0.15741746 0.25268638 -0.2224778 -0.00501611 -0.15017015 0.21774347 -0.11262782 0.13391761 0.0044365753 -0.021983184 0.16342463 0.41762552 0.01273252 0.5433661 0.014524123 -0.02234457 0.21085817 -0.0121397395 -0.009661986 0.20517881 0.22096932 0.032013416 -0.1615045 -0.07810844 0.06980446 0.011939152 0.05769982 -0.2322774 -0.015445409 -0.007646035 -0.08265162 0.01655615 -0.03987511 -0.041767772 -0.0982916 0.0016932791 -0.08617198 0.1689254 -0.19488221 -0.13304904 0.12693545 -0.2518275 -0.14141233 0.119027235 0.022453552 -0.012958185 -0.071554065 -0.16034111 0.05675993 0.0070936615 -0.008536995 -0.034172617 -0.24359725 -0.12582903 -0.24197218 0.062418416 0.09050823 0.055835623 -0.18465045 -0.25835592 -0.025908064 0.25697154 0.20290338 0.22918151 -0.015487658 -0.07265743 0.07865014 -0.1336594 0.023243418 -0.19576588 0.33559626 0.05252656 -0.20599265 -0.02999072 0.16296673 0.21522614 -0.09787506 0.03363447 -0.061067212 0.026647672 0.19768718 -0.0025322041 0.106852576 0.17128699 0.31074774 0.31837925 0.06317962 0.3033526 -0.29577798 0.15049921 0.05034201 -0.3037868 -0.06580179 -0.095718764 0.1306834 0.010735304 0.082128845 0.13154916 0.0060670255 -0.08847835 0.2530481 -0.057786673 0.1453201 0.48463622 -0.01804066 -0.049436223 -0.16148664 0.15385972 0.1760178 0.304924 -0.17946072
47 -0.20183356 0.10586329 0.09491513 0.15748838 -0.10606647 -0.23941718 -0.093475856 -0.14569533 -0.0063340296 -0.03216671 -0.1118201 -0.08734771 -0.033537313 -0.13002771 0.0073818024 -0.2729414 0.13591091 0.13058576 0.25635222 -0.18591514 -0.011170988 -0.105914414 0.23393612 -0.1077536 0.1709817 0.0031823243 -0.010363026 0.16542636 0.47339672 -0.027786428 0.47322416 0.019838024 -0.025885988 0.23646763 -0.012873376 -0.02361067 0.17251411 0.21966633 0.02013567 -0.17944254 -0.098363936 0.04535207 0.0488588 0.0965116 -0.2276168 -0.016293736 -0.0052684555 -0.044743147 -0.027613403 -0.08671875 -0.078240804 -0.112369366 -0.008062513 -0.07448949 0.17303628 -0.22309792 -0.1775468 0.087330274 -0.21967992 -0.15878072 0.09633733 -0.04453575 -0.04774189 -0.092724696 -0.16822383 0.08932029 0.007153998 -0.02758808 -0.04561508 -0.23771797 -0.12821694 -0.27406484 0.0467519 0.14038062 0.11347095 -0.17559059 -0.32068366 -0.029642405 0.2517336 0.12273479 0.24651434 -0.015676206 -0.11222753 0.104950726 -0.094454244 -0.001429093 -0.23590523 0.34981903 0.06548447 -0.22324444 -0.015982214 0.13358463 0.20312014 -0.067175046 0.051314037 -0.07286226 0.020292064 0.18921557 0.043568294 0.11964123 0.17345342 0.3851808 0.30006337 0.032457177 0.26358888 -0.24835546 0.16527237 0.05861954 -0.258397 -0.09082045 -0.02228738 0.14221834 0.020341882 0.07250958 0.12352083 -0.0030737682 -0.032540992 0.2662311 -0.060888197 0.17258263 0.45550328 0.014098867 -0.052419357 -0.19757967 0.18720557 0.1171403 0.3055812 -0.12243161
77 0.14395948 -0.07783362 -0.047906987 -0.19388421 -0.10775647 -0.051286526 0.0888037 0.010765489 0.16138518 -0.12641476 0.054698896 0.018489316 -0.080371544 -0.25190115 -0.039474387 -0.13146937 -0.22966164 0.1737085 -0.19245143 -0.13810614 -0.0797143 -0.31162786 0.25764236 -0.04592344 0.16845338 -0.20455673 0.34140876 0.15753505 0.17280516 -0.31357306 0.06976289 -0.08576248 -0.031003036 -0.029622197 -0.3871287 -0.35996118 -0.009285083 -0.021825753 0.22394083 -0.10836222 0.05047576 -0.2285877 0.016760547 0.15375859 -0.08499509 0.07591637 0.21218246 0.18520679 0.2772722 -0.2415939 -0.034378543 -0.050908577 -0.060170252 -0.19373427 -0.076850854 -0.06823474 0.31118163 -0.04556865 -0.08998278 0.14109378 0.034337576 0.20418207 0.056980744 -0.08770183 -0.014508321 -0.0024164638 -0.07990108 0.22689682 0.111903824 -0.018761195 -0.019549618 0.08394002 -0.10760581 -0.014685795 -0.07707541 0.0014813251 -0.011843554 -0.06099591 0.22413738 0.1102558 -0.18362176 -0.06882 0.055157177 -0.17509368 -0.046187017 0.31542295 -0.13568653 0.13388978 0.28504845 -0.0016828027 -0.20671526 0.19053301 0.077986285 -0.097637296 -0.08364496 -0.17815328 -0.14091374 -0.19464494 -0.39928627 0.07588656 0.20322236 0.13709609 0.095800936 0.11134082 -0.006907395 0.23074506 0.20506598 -0.012699895 0.17652726 0.046664014 -0.10615359 0.22699358 -0.34329718 -0.004380925 -0.1096783 -0.027198311 0.2666683 0.23053616 0.13271187 0.030449798 0.12780522 -0.16014026 0.0695705 -0.15584432 0.011298367 0.11765607 0.16417645 -0.13141526
67 -0.38164923 0.120145224 -0.026644675 0.11672989 0.0124146445 -0.3771295 0.16161604 -0.22637944 0.05132713 0.04912132 -0.093079254 -0.07119043 0.12679215 -0.24039549 0.16638215 -0.13334201 -0.03615497 0.12720703 0.17086467 -0.4777731 0.0027157215 -0.18104844 0.18790045 -0.07807036 -0.019340446 0.11472195 0.057737365 0.09738579 0.13934316 -0.017547635 0.3541066 0.032034207 -0.080231376 0.06007438 0.15794545 -0.11072704 0.11490086 0.13255365 -0.15729882 -0.37368003 0.0049342387 -0.02092809 -0.14862716 0.3464021 -0.13463853 0.07701441 0.012893082 0.11739609 0.04262379 0.1741741 -0.06468272 -0.03963079 -0.05891399 -0.078172505 0.25930104 0.13359943 0.050495084 -0.0741351 -0.08737583 0.22324747 -0.028135737 -0.030057207 0.05089048 -0.14195573 0.11478544 0.32158458 0.09416041 0.3284967 0.1277247 -0.1839119 0.1384039 -0.33203706 0.1973484 -0.075194255 -0.06040284 0.013603077 -0.27497298 -0.25806695 0.06267305 0.3424574 -0.056055997 -0.09283817 -0.17814596 -0.017692419 -0.14907935 0.26412866 -0.20304646 0.013723483 0.179972 -0.11318341 0.1824598 0.15351601 0.22637482 -0.10779068 -0.04977818 -0.12896892 -0.09653881 0.14816989 0.062257282 0.05147604 -0.07753065 0.26068878 0.090102814 0.1807551 0.23165238 -0.03328837 0.0066183154 -0.08677137 -0.21710144 -0.17367415 -0.031044073 0.044818003 0.006888649 0.064819336 0.34424847 0.268108 0.0032398277 0.34658194 0.14153118 0.14979476 0.41623172 0.02170194 -0.11918267 -0.20749639 0.21407951 0.030848617 0.14986 -0.022389537
63 -0.31778857 0.079310104 0.024199411 0.15699293 -0.041068796 -0.4057914 0.08783754 -0.1967918 0.03591247 0.017998224 -0.12328401 0.019106809 0.1151584 -0.21557778 0.1931636 -0.14175472 -0.013126006 0.20963119 0.13946661 -0.40873045 -0.00249155 -0.2677764 0.2557112 -0.09467258 0.036834534 0.0032779677 0.0730298 0.14220777 0.21001267 -0.034439143 0.47082978 0.007195013 -0.09380332 -0.013116628 0.06301757 -0.10502409 0.11974345 0.081716016 -0.13867827 -0.31039107 -0.021418273 0.035861004 -0.12536009 0.3124125 -0.14321724 0.09819299 0.013364005 0.118851535 0.07798376 0.20124066 -0.030551124 -0.0142636085 -0.04969212 -0.14039347 0.22098178 0.08916686 0.0041589746 -0.04028941 -0.14124139 0.14659646 0.017641883 -0.027604867 0.026591593 -0.14213654 0.110332154 0.29024208 0.064516574 0.26400384 0.06427692 -0.13822655 0.0870944 -0.28766406 0.18768032 0.0029441146 -0.06515282 -0.008962112 -0.31127912 -0.25942537 0.12944189 0.3592168 -0.06530832 -0.11499561 -0.16305414 0.007998912 -0.14227757 0.23675935 -0.16680619 -0.01957168 0.08635236 -0.09068856 0.17021418 0.16467197 0.26515657 -0.10971411 -0.0052415365 -0.14232783 -0.039783068 0.115419954 0.049192782 0.09097199 -0.07419596 0.092817225 0.1350893 0.19864787 0.23755741 -0.09325786 0.014811395 -0.06598646 -0.23400244 -0.15762764 -0.051153272 0.028803417 0.017338865 0.102866456 0.32782236 0.24578291 -0.052098125 0.2950959 0.081042804 0.15244247 0.33136147 -0.017749233 -0.07300862 -0.16749313 0.17219879 0.064421915 0.14938205 -0.056593135
146 0.1326951 -0.03366907 -0.055142425 -0.20515968 -0.21051972 -0.12713781 0.09907581 -0.06845144 0.09560824 -0.10441298 0.09384393 -0.016928878 -0.05583849 -0.17058323 -0.12515604 -0.088011846 -0.14249879 0.16233571 -0.09998385 -0.03657236 -0.116690926 -0.2987162 0.17465834 0.035512023 0.109293774 -0.289473 0.3383614 0.23463203 0.26340282 -0.3056088 0.05431737 -0.09726278 0.031372134 -0.025056204 -0.280491 -0.3127878 -0.047714498 0.051766228 0.32450014 -0.046330966 0.02170757 -0.33799207 0.05056799 0.06407143 -0.15207039 0.047487855 0.2961485 0.04220398 0.17291154 -0.23557205 -0.0023831823 -0.07703578 -0.10978114 -0.15699415 -0.12058104 -0.15393826 0.2961145 -0.032683562 -0.1289487 0.12556928 0.043071266 0.23393917 0.054484293 -0.0052123824 -0.06889607 -0.06396773 -0.12014462 0.19830018 0.018402817 0.017327491 -0.10346016 0.11393634 -0.1815575 -0.030203268 0.028997585 -0.039674807 -0.052733265 -0.032914415 0.21095413 0.0043879612 -0.06625795 -0.01969826 0.13057981 -0.16373603 -0.003728782 0.20971675 -0.08059791 0.2339139 0.18212923 -0.04793044 -0.19586018 0.16924536 0.080538884 -0.07999494 -0.109442495 -0.11937505 0.02086667 -0.18147966 -0.3309304 0.047510657 0.26675937 0.14208265 0.035928402 0.17423455 0.031603582 0.18563911 0.15856579 -0.004423494 0.20031984 0.037426114 -0.13352127 0.15591785 -0.30670062 -0.00473388 -0.13696603 -0.051199425 0.22622393 0.20972478 0.11042422 0.04214463 0.21300526 -0.033778977 0.010091078 -0.23639633 -0.027582217 0.15175585 0.1244779 -0.15672721
75 0.13036625 0.0018332299 -0.021341294 -0.16130023 -0.042749893 -0.1817746 0.10377542 0.067561045 0.10644543 0.008071693 -0.02521198 0.112098 -0.023077346 -0.017059386 0.030667566 -0.025172438 -0.08132221 0.13427502 -0.110487506 -0.1655062 -0.084793195 -0.1622725 0.09372319 -0.0014578162 -0.036738 -0.14101426 0.18303552 0.21856073 0.12527734 -0.12545875 -0.0008554666 -0.064066865 -0.024663683 -0.116919994 -0.29137713 -0.06487109 0.06304362 -0.050731756 0.20568289 0.020222355 0.055689167 -0.26361454 -0.10539878 0.13136521 -0.16141185 -0.009143577 0.23828284 -0.1498468 0.16165905 -0.0058576846 -0.009525656 0.106558494 -0.103452876 -0.11029252 -0.09378128 0.026720699 0.15877187 -0.01106086 0.06329692 0.15605684 -0.080576904 -0.025682354 0.12962772 0.14199585 -0.0107130585 0.036398087 -0.18018349 0.36792046 -0.07517229 0.08576413 0.009844658 0.049143836 0.010859772 0.02487425 -0.048918813 0.06452991 -0.08261362 -0.062047746 0.21442151 0.05694662 -0.03928115 -0.078739025 -0.11668012 -0.23438919 -0.008102513 0.318963 -0.028865859 0.10158674 0.09044245 -0.12601233 -0.01691243 0.20819855 0.28304753 -0.03443548 -0.08022227 -0.08565419 0.025698898 -0.2786735 -0.30239066 -0.05622318 0.020913599 0.3130908 -0.08249343 0.19348022 -0.065790005 0.19753589 0.11607553 -0.038678244 0.28845525 -0.052821353 -0.2571692 0.07327208 -0.28251463 0.08020271 0.050116133 -0.08489987 0.21664321 0.14399287 0.17131084 0.103410795 0.33089483 -0.03029882 -0.11499193 -0.36225185 0.058726102 0.18916559 0.15658697 -0.27606085
82 0.04586235 0.21530673 -0.13762948 -0.2315528 -0.24426891 -0.063210525 0.15428136 -0.18079911 0.16352732 -0.06843683 0.22539791 -0.2161118 -0.14377362 -0.24594648 -0.09570803 -0.02582669 -0.1530748 0.1469016 -0.007208831 -0.040286124 0.090283215 -0.13418359 -0.029719956 -0.092377424 0.07613332 -0.23815793 0.29613036 0.28138658 0.17077644 -0.091305435 0.09610114 -0.02580804 0.1541078 -0.08088555 -0.112251535 -0.08036581 -0.3292725 -0.05112343 0.12896517 -0.0709329 -0.15804292 -0.28890225 -0.10921842 0.09869878 -0.17640938 -0.08614931 0.22651438 0.12433759 -0.040090706 0.0014776872 -0.117969394 -0.041951414 -0.16895919 -0.015174321 -0.1384263 -0.010957205 0.3200016 -0.19246976 -0.02502835 0.5030592 -0.13681163 0.16112883 0.16411051 -0.09593557 -0.091783494 -0.050331764 -0.10405211 0.22209877 0.06308664 0.050206464 0.11303764 0.059785143 -0.15572049 -0.24304824 0.11847529 0.105128475 0.12181536 0.2079086 0.022999203 -0.11932014 -0.081928834 -0.009639166 -0.0752895 0.046478227 -0.013973429 0.07370028 -0.07386726 0.06473289 0.22580265 -0.024695601 0.046434686 0.050274003 0.100975916 -0.2265688 -0.1326196 0.023495505 -0.07968676 -0.13213126 -0.14652489 -0.06117236 0.18973818 0.43923432 0.015983226 0.13701083 -0.07585429 0.24971136 0.111265615 0.10827714 0.2456039 -0.3221061 -0.17318355 0.0319499 -0.10127799 0.024102574 -0.090262115 -0.15235978 0.086028874 0.13394108 0.17466632 0.1897623 0.43000257 -0.0056697275 -0.035844263 -0.35606208 0.15117604 0.18918619 0.24038592 -0.09247692
87 0.041930195 0.12649722 0.03286837 -0.07394178 -0.12067577 -0.29346636 0.10582529 -0.013510083 0.15081473 -0.1500039 -0.02633067 0.0040432657 -0.12295241 -0.1752985 -0.16066453 -0.16691571 0.031691827 0.1522585 -0.14503421 -0.119946405 -0.056432776 -0.25862348 0.07859001 -0.08566688 -0.091802545 -0.26888287 0.25591078 0.3304379 0.16116323 0.015249119 0.034439094 -0.039097656 0.06136534 -0.1321247 -0.3198216 -0.1107993 -0.08365272 -0.06446823 0.19004081 0.027237529 -0.041181374 -0.31105736 -0.15371853 0.025730856 -0.1186507 0.03274579 0.15634607 -0.0020652437 0.16560756 0.10026873 0.058393333 0.17114834 -0.09969006 0.07252155 -0.084413536 -0.07934656 0.1362107 0.0422249 -0.07854186 0.11602571 -0.026807325 -0.036801957 0.15754166 0.010554508 0.12715131 -0.019341003 -0.24210943 0.24566673 -0.12355975 0.0062936204 -0.0041043805 0.10991369 -0.101682514 -0.026432779 -0.070103824 0.029809877 0.0032692386 0.09353295 0.25457883 -0.08338564 -0.021809885 -0.061535235 -0.15257229 -0.110523745 -0.08993435 0.22554682 0.013154676 0.19616064 0.06180483 -0.19657737 -0.03006137 0.08899592 0.19536838 -0.099532925 -0.056723986 0.04114102 0.06567731 -0.24849813 -0.24151629 -0.077697664 0.09593173 0.26447532 0.0028114913 0.14070413 -0.13938339 0.03766378 0.19155434 0.099351324 0.25103545 -0.1734404 -0.19508722 0.029860884 -0.1721588 0.09214773 -0.026124984 -0.1186631 0.21081491 -0.065642215 0.12257902 0.010581702 0.24256243 -0.22120924 -0.058863115 -0.24672443 0.14542957 0.33543658 0.16091762 -0.3332911
60 -0.19639254 0.13469917 -0.10378658 0.09493109 0.0065328204 -0.07152734 -0.10661098 -0.17022988 -0.006843402 -0.02222801 -0.053274363 -0.091438256 -0.040336493 -0.069153436 0.03476045 -0.04597131 0.088638894 0.0808417 0.39300707 -0.13765828 0.055454247 0.1077842 0.115463234 0.09180624 -0.12811698 0.08849795 -0.10745351 -0.06523558 0.22729543 0.021120403 0.32710952 0.18890324 -0.050118912 0.21313967 -0.09608677 0.006121522 -0.07611734 0.11111803 -0.04938559 -0.34871536 0.028322803 -0.017150901 -0.02291556 0.20995176 -0.15227622 0.004745285 0.047535658 0.09070911 -0.027059995 0.12494752 -0.13480195 -0.16172634 -0.1239119 -0.2011871 0.1023888 -0.05341805 0.034081753 -0.036239427 -0.06266887 0.30033696 0.025088873 0.026198989 0.09597099 0.0148885865 0.060962737 0.26358384 0.048416592 0.25218877 0.042649366 -0.2162526 0.010246238 -0.1739986 0.03774416 0.02925215 0.042988393 -0.19067053 -0.3270767 -0.081205696 0.08116615 0.128963 -0.046250787 -0.031243008 -0.26461247 0.21347839 -0.11067042 0.18383616 -0.18980318 0.12518926 -0.070352405 0.07626006 -0.0048276046 0.17186604 0.02089567 0.09033946 -0.043712504 -0.14218086 -0.06250159 -0.017730063 -0.047759652 0.17236556 0.0816528 0.33805183 0.20471366 0.3842291 0.26595956 0.15615274 0.02768968 0.043543115 -0.29217008 -0.4224079 0.0061925002 0.24198352 -0.07730782 -0.023005271 0.21259284 0.1416218 -0.22361712 0.37646845 0.09299439 0.1659938 0.5690324 0.20769688 -0.04337716 -0.4809178 0.32233995 0.0046364754 0.31297043 0.033136293
69 0.11486704 0.03167598 0.019423442 -0.022454845 -0.011387438 -0.057350494 -0.21216257 -0.087696716 -0.08228461 0.016272599 -0.12234027 0.09111145 0.036505625 -0.11492521 -0.022614054 -0.22784756 0.17886515 0.17553972 0.3510691 -0.085707575 0.026779534 -0.03838279 0.10802907 0.16275705 0.053422626 0.066343695 0.05548617 -0.069864064 0.38733786 -0.05914654 0.38075107 -0.01592103 -0.15350986 -0.008708433 0.064577304 0.13264534 0.10836536 0.04877635 0.05350898 -0.35869095 -0.14687169 -0.028755035 0.08553845 0.272111 -0.37492484 -0.08153163 0.04492536 -0.18718527 0.06787116 0.22790802 -0.14960486 -0.24968714 -0.013655312 -0.26678574 0.005859961 -0.104367875 -0.06310261 -0.012169623 -0.10898544 0.2520436 0.05715462 0.103357494 -0.023210945 -0.1798462 -0.11041613 0.066494405 0.1491599 0.0042023165 -0.042614326 0.00092470634 -0.032073073 -0.23570731 0.106731646 0.17803863 0.09520562 -0.23060265 -0.39963785 -0.21026863 0.122691154 -0.09623379 0.1872774 -0.23984514 -0.15411343 0.09303667 0.013950393 0.11869253 -0.30348563 0.04714208 -0.049650554 0.019430099 0.02731581 0.28133976 0.297622 0.04575941 -0.09247084 -0.07100595 -0.17668179 0.016583048 0.066577256 0.12588361 0.108289465 0.22935532 0.11494316 0.27084288 0.05689519 0.17531599 0.034648508 0.0424926 -0.20564866 -0.35226765 0.13614276 0.081357256 0.17541702 0.17235136 0.32101995 -0.08642058 -0.08144809 0.5201573 0.026277266 0.39356107 0.5045329 0.26484734 -0.09917624 -0.5370689 0.27940616 0.02301205 0.22577214 -0.07305858
126 0.077578224 0.09471384 0.014445538 -0.08967935 -0.21242228 0.025428168 -0.19753738 0.012233595 0.1996722 -0.24581821 0.08153463 -0.0432904 -0.16563635 -0.33204526 -0.18305221 -0.16509761 -0.04081115 0.29598632 -0.32736915 0.19272503 0.240596 -0.42522824 0.23118076 -0.38435054 0.15215409 -0.41216767 0.48627034 0.24648505 0.08168788 -0.057197258 0.20505077 -0.03308393 -0.0109085115 -0.037329156 -0.5679861 -0.08067781 -0.27052444 -0.29489973 0.1126197 0.04946651 -0.04436142 -0.062390056 -0.19348665 0.24465191 -0.28043225 -0.06863597 0.036533237 0.3414229 0.20831667 0.2863186 -0.01471311 0.14578164 0.0868205 -0.043303553 -0.16027346 -0.124535374 0.11079034 0.09829317 -0.123682894 0.35618916 -0.021604883 -0.0040722233 0.26882994 -0.22514172 0.17154822 0.05180042 -0.17373942 0.13779685 -0.15881245 -0.04700456 -0.02397382 0.11404637 -0.14768338 0.017327767 -0.05720247 0.058493603 0.08617038 0.2036532 0.3870609 -0.006397385 0.026380643 -0.16077372 -0.30424333 0.101595275 -0.20084271 0.3561188 -0.076696634 0.05052064 0.014997855 -0.0071658795 -0.23460194 0.15706515 0.14724958 0.04220702 -0.23867522 -0.040016856 -0.17497995 -0.17739011 -0.36762416 -0.08036471 0.20444395 0.18855946 0.43144423 0.22340058 -0.11173965 0.06560696 0.19400369 0.3395226 0.009787931 -0.23712619 -0.16800842 0.23322582 -0.10359128 -0.07080298 -0.053377256 -0.14763145 0.039869294 -0.21306631 -0.077508755 0.095581494 0.087902755 -0.32875356 0.03564851 -0.33071917 0.29664367 0.28990608 0.3833221 -0.23813316
105 0.047050465 0.11806542 -0.0687488 -0.16368617 -0.16261116 -0.09719467 0.102090605 -0.08389964 0.14611013 -0.09924389 0.11767232 -0.10468136 -0.09048741 -0.15891147 -0.12803854 -0.044540007 -0.10001383 0.13306393 -0.07959344 -0.03887247 -0.0016470726 -0.14678532 0.046399098 -0.05663978 0.018386232 -0.23884623 0.2599257 0.2590791 0.15898213 -0.11800184 0.025775323 -0.021587795 0.06758407 -0.020943698 -0.2266009 -0.13457464 -0.15359737 -0.021950787 0.21568942 -0.019915551 -0.03267625 -0.30485767 -0.08117211 0.07020697 -0.14260459 -0.002691017 0.22164674 0.029442042 0.06300153 -0.10529224 -0.029825347 0.014337022 -0.12743324 -0.038890284 -0.09894623 -0.0693608 0.23840183 -0.046514783 -0.04312815 0.28456196 -0.045590106 0.12703633 0.1428262 -0.0099085905 -0.035820745 -0.044782437 -0.17446703 0.23586619 -0.015957218 0.003643049 0.008558785 0.08227979 -0.14010443 -0.10814632 0.047375765 0.041153163 0.055825405 0.1142872 0.1504246 -0.049535993 -0.041761518 0.0006923737 -0.026090512 -0.071320824 -0.024758827 0.16536798 -0.048231725 0.20574342 0.1856152 -0.08119841 -0.1025487 0.11131567 0.09584682 -0.122865796 -0.13578203 -0.029244626 -0.020149305 -0.17640826 -0.2526583 -0.040665086 0.18926431 0.35174555 0.013268513 0.1311484 -0.025759751 0.18190682 0.16167782 0.05603 0.22178312 -0.12998267 -0.20762911 0.1127491 -0.20713542 -0.013937269 -0.11973304 -0.1507543 0.19916044 0.09256092 0.14292872 0.063918345 0.33865413 -0.08233159 -0.032681145 -0.2907748 0.10760371 0.21838373 0.21988198 -0.19635117
5 -0.15298194 -0.0027949233 0.06165166 0.1075028 0.013333762 -0.17253636 0.004227946 -0.14050278 0.053926006 0.026141526 -0.12788965 0.06496493 0.18794236 -0.16669267 0.123082526 -0.22468562 0.028336197 0.14503282 0.28268144 -0.35948202 -0.055731583 -0.13646065 0.14761047 0.033556167 0.04285604 0.09079629 0.018893382 0.08838912 0.33479083 -0.11845657 0.50676584 -0.022395 -0.09779509 0.0033543336 0.12789614 0.08253911 0.19221205 0.14421766 -0.008858516 -0.28630227 -0.081194475 0.026423879 -0.05401891 0.20960422 -0.2855249 0.01635208 0.006657045 -0.100784265 0.08039166 0.07190434 -0.13970998 -0.13519956 -0.016876126 -0.2467987 0.1542899 0.01614821 0.032846723 -0.05465845 -0.12811464 0.19490698 0.039479103 0.17195912 -0.040332906 -0.19672742 -0.092208385 0.1271731 0.12959771 0.17508544 0.06880366 -0.077206664 0.05262739 -0.28171676 0.22505035 0.00204307 -0.029885396 -0.124909505 -0.27131593 -0.2365944 0.09218433 0.22113828 0.07419871 -0.09799863 -0.12640347 0.004326956 -0.039331988 0.08989868 -0.27987644 0.089706324 0.118731916 -0.039802402 0.058445558 0.26370364 0.22154686 -0.076837905 -0.023278106 -0.12905459 -0.16105658 0.14112319 -0.0034396437 0.09752879 -0.009883886 0.22994739 0.1409595 0.06619158 0.22755668 -0.005833469 0.050397936 -0.14531282 -0.22200535 -0.13142276 -0.05962971 0.07205748 0.06839074 0.16470586 0.24128747 -0.0022436948 -0.113020815 0.45713785 0.10438333 0.23884736 0.5534087 0.16193736 -0.055327863 -0.26031244 0.17954834 0.01974564 0.19127303 -0.060045097
13 0.01338784 0.04828522 0.060613398 0.08915302 0.054915067 -0.10474098 -0.08194207 0.03640437 0.06862214 0.006777717 -0.12552722 -0.0564495 0.11489466 -0.083764605 0.049489416 -0.2923167 0.11811718 0.15926766 0.21686769 -0.38661823 0.040562686 -0.0224359 0.19169842 -0.101555705 0.093920514 0.122419156 0.0072922143 0.12301712 0.41337848 -0.0077184965 0.5066297 0.016101576 -0.03690002 0.17392956 0.034980934 0.08282087 0.22896533 0.14158125 0.018928522 -0.11893526 -0.03700783 0.11506154 -0.0022891252 0.015682539 -0.18391521 -0.08384509 -0.010658579 -0.11192887 0.010248416 -0.11646932 -0.058207244 -0.07821327 0.01644191 -0.08406779 0.1363418 -0.04437901 -0.11675091 0.09765224 -0.01989407 -0.044379495 0.065355994 0.07352061 0.036124848 -0.08182679 -0.26847056 -0.035613723 0.06438746 0.115321726 0.08002996 -0.19665605 0.009184958 -0.22091039 0.08709543 0.04186028 0.012526926 -0.15172046 -0.06638219 0.047673095 0.1447144 0.14228909 0.18944465 -0.015900511 -0.08652971 -0.0025827952 -0.086036116 0.01402361 -0.24201046 0.24646878 0.19194965 -0.119101934 -0.08821127 0.12950946 0.15054056 -0.17944117 0.07559133 -0.05078381 -0.200786 0.037006155 -0.07558445 0.09839749 0.10280015 0.48152676 0.17589392 -0.09038826 0.14870493 -0.066126004 0.16834426 -0.011626356 -0.1651109 -0.08870542 -0.07907414 0.14693388 -0.045897603 0.12815696 0.055913053 -0.19611771 0.086652115 0.2773059 0.053156953 0.1536706 0.4690971 -0.06340688 -0.09592069 -0.12649475 0.13527635 0.14615494 0.28715536 -0.12850213
121 -0.09581429 0.19408672 0.027036421 -0.014864296 -0.12840793 -0.40054268 0.059213206 -0.08926794 0.08329016 -0.10945678 -0.05310742 -0.10100007 -0.06501173 -0.17916276 -0.12518218 -0.24000302 0.1361191 0.15621328 -0.029942637 -0.25534347 -0.028452536 -0.1823024 0.08807472 -0.10486524 -0.09830608 -0.15225072 0.18259871 0.33 0.21807854 0.08007306 0.13196479 -0.0038614192 0.031305086 0.0056373053 -0.08707071 -0.06417353 -0.114611514 0.03357089 0.060441382 -0.057896823 -0.057458162 -0.21998152 -0.18528983 0.036674656 -0.13545418 0.038141686 0.09942486 0.06396123 0.020641169 0.1280258 0.03178339 0.1557862 -0.06472703 0.12449654 0.0563259 -0.03604095 -0.018338397 0.023244133 -0.1136918 0.09028634 -0.018466482 -0.0798935 0.15227829 -0.08581037 0.05795333 0.012207598 -0.19906817 0.16414462 -0.06868348 -0.089677416 -0.015877848 -0.0662798 -0.1105329 -0.002881397 0.011551698 0.0019421212 -0.010111453 0.06488151 0.13529363 -0.01510542 0.0660727 -0.016166523 -0.15006007 -0.04916574 -0.12288912 0.10302967 -0.03483034 0.14946717 0.10883498 -0.24291144 -0.026166627 0.059039056 0.11588088 -0.12453324 -0.015364178 0.04196226 0.038378615 -0.11333733 -0.06051887 -0.05828048 0.049483635 0.36217567 0.011414426 0.12383873 -0.030174263 -0.053725068 0.14589915 0.046307668 0.07785146 -0.1607851 -0.07928282 0.029065922 -0.053936806 0.08371841 0.052545942 -0.06728816 0.22271949 -0.0117939515 0.09341149 0.031614516 0.2778956 -0.24000587 -0.0737407 -0.18457495 0.15460935 0.2909267 0.19308135 -0.2915338
18 -0.19789378 0.09484433 0.02890422 0.08799415 -0.06612686 -0.3627867 0.09555257 -0.09451173 0.08119046 -0.04201097 -0.10683398 -0.112598784 -0.03664415 -0.1877722 0.02365955 -0.292978 0.060019154 0.12391511 0.070149176 -0.40986055 -0.0217133 -0.15122186 0.19467968 -0.14211726 0.015100498 0.015062667 0.076183274 0.23499046 0.30321133 0.03961551 0.28582594 -0.016984671 -0.00380091 0.14066745 -0.041430697 -0.11329319 0.12106987 0.12959817 -0.006329154 -0.16418844 -0.009291114 -0.06958101 -0.09154928 0.07525147 -0.08246315 0.029840682 0.04210882 0.053423036 0.03546908 -0.030597592 -0.010460123 0.038435888 -0.06696377 0.062025975 0.18049718 -0.035508633 -0.046808463 0.019104578 -0.1411544 -0.054996733 0.01571556 -0.10668845 0.05759859 -0.07125266 -0.058775835 0.09930774 -0.053009756 0.17306323 0.08697386 -0.2231568 0.0425061 -0.20272115 0.03013221 0.0118469875 0.0033731274 -0.049989093 -0.08398793 -0.0019590585 0.14259075 0.16513807 0.06371748 0.0011922616 -0.089659505 -0.046087436 -0.118614435 0.08281759 -0.13507986 0.18597719 0.16647552 -0.23511332 0.0727863 0.0473649 0.12849352 -0.18318674 0.0561844 -0.032990705 -0.027243322 0.001249766 0.02343382 0.055972993 0.06295711 0.38918203 0.07637297 0.010489907 0.120993175 -0.13475598 0.18314424 -0.019273618 -0.058658693 -0.11957489 -0.034678817 0.04201309 -0.062032387 0.10531113 0.124068014 0.035406772 0.15524252 0.1700876 0.09345291 0.039584048 0.34436068 -0.14973715 -0.07799224 -0.07202697 0.13076401 0.19410048 0.20540918 -0.2002041
68 -0.065526724 0.15044816 -0.04703417 -0.03899778 -0.18121904 -0.030117065 -0.0101899905 -0.18177813 0.047526743 -0.0030311893 0.03759096 -0.06255008 -0.102484375 -0.16307716 -0.05405146 -0.09762896 0.05151849 0.07825555 0.1777351 0.07356561 -0.020395532 -0.10335537 -0.025666084 -0.0007418575 0.02220671 -0.097151466 0.037063994 0.20507714 0.24095222 -0.052545644 0.19389343 -0.017530361 0.087469526 -0.05496159 -0.063801385 0.056014176 -0.11715116 0.021879468 0.08799315 -0.0913248 -0.12426979 -0.26151514 0.007113368 0.14088613 -0.28490213 0.0054046456 0.025240803 0.03191606 -0.07177317 0.0702811 -0.12742785 -0.019140271 -0.06986341 -0.05097133 -0.05424004 -0.19461165 0.08733425 -0.13716394 -0.14679766 0.16295886 -0.04955952 0.068150826 0.02986093 -0.11927641 -0.092939995 0.020952934 -0.09205792 0.113703705 -0.10034449 0.0040737432 -0.038724057 0.026739843 -0.016515814 -0.08180431 0.108695656 -0.015071296 -0.12894522 0.036965992 0.09786473 -0.07910233 0.054068416 -0.011660611 -0.09508172 0.11212388 -0.010263725 -0.025240337 -0.13799967 0.14369598 -0.011065961 -0.1009249 0.046399847 0.0012277089 0.08154868 -0.041723683 -0.0364764 0.018095901 0.03746928 -0.011059362 -0.061103847 0.024192179 0.15886661 0.33343303 0.12021338 0.15009032 0.06937199 0.031778164 0.08170275 0.10125015 -0.025901569 -0.26147723 -0.083942 0.06310712 -0.024277112 0.06351596 0.004390155 -0.10190739 -0.02684977 0.17755966 0.040339325 0.16304138 0.40160996 0.1236397 -0.03236683 -0.3237568 0.18431637 0.15206586 0.22816914 -0.103937015
124 0.01601331 0.09895748 0.062517285 -0.004482492 -0.14557979 -0.17358813 -0.09283699 -0.039383996 0.1791041 -0.23610528 -0.015280099 -0.00082136615 -0.18640028 -0.30198362 -0.18867998 -0.19343497 0.045621116 0.19181578 -0.18258503 0.08920709 0.06644586 -0.32720345 0.15918572 -0.15502241 -0.013026943 -0.32335332 0.31568062 0.20664704 0.050009374 0.031695858 0.09652121 -0.02339937 -0.01401867 -0.09422304 -0.41319364 -0.08690928 -0.15808408 -0.1883008 0.11279445 -0.03518181 -0.038562953 -0.14808506 -0.15696163 0.18825972 -0.13309006 0.035980895 0.03089897 0.1764081 0.24540916 0.3295127 0.011760891 0.14524488 0.0067370636 0.0073488997 -0.11888739 -0.12512556 0.038577322 0.09212126 -0.14486507 0.1927371 0.032123137 -0.08501916 0.16842122 -0.12174284 0.30486467 0.091239884 -0.17361414 0.09202402 -0.18310745 -0.039544202 -0.021998199 0.09221172 -0.093772866 0.08393094 -0.09626936 -0.03291966 -0.076156475 0.06591097 0.30990383 -0.10832135 -0.036865156 -0.14360465 -0.2659041 0.0926878 -0.13404731 0.33179194 -0.014837049 0.063692786 -0.08508308 -0.11292242 -0.13856724 0.14182572 0.16168572 0.0823253 -0.10858265 0.009489365 -0.035876114 -0.16842693 -0.20486112 -0.06733608 0.11214834 0.06912033 0.2350074 0.28521195 -0.13898201 0.058743685 0.16781384 0.22713558 0.040077038 -0.2719202 -0.047940273 0.1296838 -0.018044699 0.049452666 0.074764155 -0.04478043 0.023978751 -0.13205878 -0.0061340528 0.064081736 0.082639754 -0.22646524 0.026154915 -0.2862107 0.26550448 0.25589642 0.22537185 -0.26980633
106 0.2651353 -0.11280398 -0.023266962 -0.20879906 -0.12995644 -0.0036592633 -0.117040575 0.034994733 0.030148767 -0.11320952 0.022905713 0.031858545 -0.064371616 -0.075724624 -0.06380042 -0.1387729 -0.1352239 0.198201 -0.12647684 -0.031290505 0.05985588 -0.18171324 0.22629695 -0.009734811 0.1634665 -0.12265661 0.2882099 0.0013395965 0.20635663 -0.21958368 0.09078685 -0.064411655 -0.13994394 0.14381118 -0.32626152 -0.18798387 0.008511436 -0.038611792 0.19687466 -0.13398683 0.074849196 -0.087368675 0.08171252 0.16255133 -0.14987577 -0.081364244 0.1979753 0.033775046 0.20245072 -0.13372569 -0.08459996 -0.17338659 -0.016152836 -0.2112344 -0.11597579 -0.06207497 0.1286112 0.055496845 -0.032830823 0.21120909 0.038564954 0.09714995 0.07262822 -0.038753245 -0.090701856 -0.031603854 -0.013938095 0.09537094 0.07279332 -0.013748378 -0.05573201 -0.004094212 -0.15456697 0.15269886 0.051497184 -0.12809654 -0.042967018 -0.026171261 0.22873217 0.033519607 -0.005181457 -0.13644984 0.0039162254 -0.12705916 0.012575556 0.31755912 -0.14511152 0.06918762 0.15500294 0.07622822 -0.18105167 0.29187998 0.13172753 -0.008716656 -0.15626518 -0.18817277 -0.1849987 -0.20552617 -0.22626996 0.08978465 0.20491064 0.17273656 0.096471004 0.21905074 0.0039096554 0.31346548 0.13077286 0.04355903 0.123614915 -0.100446135 0.0091556925 0.20952237 -0.18287496 0.009157066 0.012106569 -0.040647976 0.1613038 0.2827457 0.049699478 0.14998348 0.17712724 0.0071486416 -0.030913478 -0.3771801 0.054343764 -0.0066881003 0.20755628 -0.16267715
74 -0.30772528 0.06899513 -0.021183701 0.14193402 0.044931903 -0.2540108 0.06246938 -0.14717807 0.013949658 0.03953264 -0.098685056 0.009314853 0.10003177 -0.10965888 0.13892683 -0.06198394 0.022059163 0.13067663 0.2691968 -0.35326508 -0.011694448 -0.13713808 0.19042376 -0.008646467 -0.07330116 0.087828495 -0.00044782175 0.04437339 0.16424641 -0.011142572 0.3833372 0.052783556 -0.106148906 0.068278 -0.028899448 -0.051616985 0.09625529 0.0817751 -0.081352904 -0.292805 0.051364098 -0.030603483 -0.112495534 0.29105404 -0.13163173 0.07494373 0.027386319 0.025089439 0.07882572 0.17343642 -0.039182022 -0.047859024 -0.06823672 -0.1524559 0.1666559 0.06294021 0.04416131 -0.031355377 -0.09166954 0.16223681 0.0082468195 -0.025925405 0.068592146 -0.052668072 0.0999519 0.30995476 0.06921002 0.32442564 0.06459403 -0.14711386 0.06927508 -0.23121867 0.14727767 -0.029830122 -0.060585637 -0.040377893 -0.33015817 -0.21957017 0.12067449 0.29274884 -0.081279695 -0.08902823 -0.17643294 0.024830649 -0.1408087 0.2724373 -0.16593204 0.078579895 0.038683265 -0.058679603 0.09645942 0.17522833 0.2058753 0.0068944143 -0.06931765 -0.12691453 -0.03190997 0.05847828 -0.04959163 0.08370329 -0.04042777 0.20316651 0.12032259 0.28880507 0.23230658 0.0015977232 -0.00032594628 -0.035226 -0.24740179 -0.20996931 -0.095749035 0.111440465 -0.07272688 0.025899576 0.28694233 0.22911225 -0.10046668 0.33546185 0.11285388 0.11175746 0.4018236 0.086438656 -0.08636819 -0.287779 0.2251953 0.051096283 0.21864334 -0.039534673
144 -0.06374552 0.021697905 -0.025172811 -0.08233354 -0.22633614 -0.22129862 0.11769409 -0.1927211 0.036735523 -0.094959915 0.02717673 -0.037101768 -0.027852641 -0.14893268 -0.12788337 -0.13065346 -0.082711734 0.14593272 -0.05368986 -0.02670393 -0.08316937 -0.24266458 0.063572384 -0.004582196 0.0071880855 -0.21827216 0.24201612 0.26784667 0.26505476 -0.16158944 0.11073556 -0.049268465 0.06568468 -0.0024830834 -0.17363423 -0.14839157 -0.08445996 0.030453037 0.20361637 -0.10236974 0.0018593872 -0.3788273 0.02585811 0.075209476 -0.22246611 0.114071555 0.17936936 0.0147370035 0.11980508 -0.18830493 -0.041688345 -0.0044647646 -0.12378439 -0.055376206 -0.058617752 -0.15985322 0.24323367 -0.07805784 -0.23635915 0.15507682 0.0048475866 0.16233125 0.07597969 -0.034962103 -0.059643 -0.052900597 -0.12632622 0.1931704 -0.03463105 -0.006631675 -0.067677885 0.11542353 -0.12575792 -0.10838925 0.009649227 -0.020633353 -0.04522631 -0.035992976 0.12814224 0.05651502 -0.034156326 0.008647135 0.15071104 -0.11499571 -0.015796976 0.10140333 -0.036838036 0.20983976 0.12961036 -0.06460316 -0.049511224 0.027746469 0.04031845 -0.05918658 -0.12535079 -0.043330412 0.097102694 -0.13899006 -0.18701984 0.024605462 0.21899198 0.16552207 0.012312792 0.09995266 0.11113535 0.10219763 0.1835251 -0.0033095037 0.18938525 -0.002918699 -0.15143028 0.06460447 -0.21733645 -0.025105117 -0.101721875 -0.01736917 0.15947317 0.17085095 0.11209376 0.0036602127 0.29889092 -0.014278909 0.0031507215 -0.21237506 0.03120945 0.24407846 0.18075913 -0.21745051
137 0.0020333256 0.07976191 0.053235933 -0.019062214 -0.19913864 -0.2740059 0.049116705 -0.07691481 0.09864182 -0.13244489 -0.06718504 0.055898685 -0.046683054 -0.17457643 -0.101091824 -0.1246772 -0.0013745899 0.18708564 0.008167282 -0.070833676 -0.14040856 -0.2758801 0.078954585 0.062101733 0.0072679534 -0.3013143 0.2164693 0.32380205 0.18358344 -0.06594307 0.15712819 -0.05875655 0.027277736 -0.21307816 -0.41365686 -0.12542456 -0.028961886 -0.07510549 0.24805759 -0.010306045 -0.020934466 -0.4440836 6.059266e-05 0.11244357 -0.1937775 0.13240519 0.12520103 -0.01511455 0.23074251 0.06343947 0.04256316 0.12200864 -0.09701622 -0.0748166 -0.1543441 -0.187272 0.15781058 -0.010714831 -0.21134087 0.0025849028 0.008188729 0.02350755 0.06800937 0.027144052 0.10298414 -0.02573824 -0.2804208 0.234646 -0.17170958 0.06275652 -0.08931993 0.20488212 -0.05640495 0.027993876 -0.03678352 -0.0046679545 -0.16548958 -0.019521428 0.27754802 -0.01172738 -0.10862573 -0.044896718 -0.009147307 -0.092197955 -0.06085951 0.14627719 0.0271588 0.17968194 -0.025026264 -0.18815084 -0.052973293 0.079379104 0.18648456 -0.07365707 -0.020668153 -0.006116006 0.1693276 -0.19685397 -0.24811536 0.023441462 0.12394777 0.046918415 -0.02789008 0.25935873 -0.07286359 0.03102021 0.10808981 0.10037669 0.18634298 -0.11637167 -0.15591414 0.040317606 -0.19944385 0.02869503 -0.07299777 -0.10018904 0.20267373 -0.0054947822 0.03180206 0.035541177 0.14458415 -0.08810693 -0.02246902 -0.17831293 0.042987164 0.31496093 0.130454 -0.3315694
139 0.011666246 0.06132872 -0.0374739 -0.09632514 -0.19383693 -0.11618806 0.06104453 -0.13027261 0.07766633 -0.1182761 0.052144192 -0.06207221 -0.11409963 -0.18784027 -0.15318877 -0.109305516 -0.03707485 0.11207282 -0.017751718 0.04760437 -0.063958555 -0.20718801 0.05951252 0.015144258 0.019244839 -0.22545964 0.2075129 0.21784692 0.20686845 -0.13034464 0.07155776 -0.031087067 0.06634543 -0.038604937 -0.26108688 -0.17645656 -0.12397418 0.0117703 0.22640912 -0.095418505 -0.024671223 -0.35891676 0.032907844 0.097535364 -0.17904273 0.08323841 0.1438863 0.074581705 0.12800549 -0.08502611 -0.018881248 -0.001832466 -0.09852598 -0.07414981 -0.110065 -0.20755015 0.20457727 -0.06500617 -0.2030117 0.13961557 0.014495822 0.1503974 0.09270334 -0.06544592 -0.0018058677 -0.031422164 -0.15754223 0.18287817 -0.05831408 -0.027691796 -0.08062418 0.13954337 -0.16432306 -0.06515281 0.028450102 -0.037652604 -0.09079484 0.017572174 0.19557014 -0.05119962 -0.06978904 -0.008530671 0.051318288 -0.031742077 -0.042943858 0.14852816 -0.073391914 0.2278058 0.08533487 -0.089133 -0.12108346 0.036983572 0.03279059 -0.05913449 -0.07828839 -0.039031506 0.057497516 -0.15024886 -0.22528304 0.048925567 0.24575058 0.18594602 0.064864725 0.18831827 0.030799298 0.12456958 0.1727344 0.089644715 0.1360866 -0.11360463 -0.09353806 0.1303255 -0.1999337 0.0037666073 -0.11830656 -0.067155585 0.16123265 0.12328964 0.09275714 0.030443702 0.23410788 -0.045404103 0.023389848 -0.23272683 0.08214374 0.22596666 0.197279 -0.17799056
15 -0.17016736 -0.09093635 0.14816535 0.19019595 -0.020453682 -0.09540423 0.03429329 -0.13400845 -0.048688054 0.051091418 -0.051413067 0.21499392 0.24746019 0.016466392 0.1142771 -0.024544552 -0.013592827 0.1329969 0.29549602 -0.08778604 -0.08259527 -0.20073809 0.079218745 0.048002973 -0.0006274432 -0.05759851 0.039389804 0.039559145 0.25541446 -0.12940277 0.46818176 -0.058482844 -0.09994336 -0.08925386 0.012163166 0.20493792 0.10323469 0.17923619 0.09196159 -0.18129288 -0.08270506 -0.020698635 -0.13182653 0.24467605 -0.4503368 -0.013743825 0.12906668 -0.28655922 0.08801786 0.11852242 -0.124294885 -0.14208226 -0.028280608 -0.33143967 0.021525474 -0.047146395 0.23626262 -0.04759445 -0.15621795 0.27743024 0.033367734 0.32739207 -0.058785964 -0.110979944 -0.07749332 0.11101804 0.11875565 0.14192826 -0.055903085 0.10028713 -0.05470999 -0.1906283 0.26411068 -0.048743352 -0.024165772 -0.08705157 -0.33726138 -0.26600316 0.087069 0.25304088 0.11798774 -0.07994996 -0.111593686 -0.010025945 0.007719644 0.062352948 -0.12631512 0.10459934 -0.09031752 0.089496754 0.12724401 0.3636819 0.27761295 0.075051256 -0.14283061 -0.16175805 0.030672241 0.16317844 -0.07885485 0.049801983 0.0054172557 0.016969586 0.11589804 0.20809525 0.29123566 -0.02214316 -0.051099457 -0.12704472 -0.18021938 -0.015467454 -0.33330604 0.05473806 0.04404788 0.10612241 0.19436415 0.04919971 -0.34790567 0.41499928 0.062199164 0.21779111 0.606025 0.32975182 -0.022388285 -0.4212654 0.14651778 0.062206738 0.24931261 -0.08601386
141 0.09366503 -0.025906457 -0.026308184 -0.11014799 -0.1218878 -0.05928348 0.058648776 0.010649927 0.112066366 -0.06370424 0.043279886 0.039238192 -0.0062926165 -0.16742606 0.082829535 -0.08825146 -0.1719168 0.18619539 -0.15754801 -0.13823284 -0.0023925784 -0.24124369 0.19159323 -0.12608543 0.14543866 -0.15570562 0.20357238 0.15675826 0.086516604 -0.17266023 0.16207415 -0.042734817 -0.011367887 -0.08649002 -0.2837528 -0.1640717 -0.040938362 -0.06363054 0.08885338 -0.07565243 0.024139907 -0.12703043 -0.051432792 0.14639863 -0.15817663 0.03162921 0.13727601 0.15842651 0.1814476 -0.082273036 -0.054187655 0.015919609 -0.022255678 -0.17455088 -0.0364681 -0.008998865 0.22384602 -0.049159404 -0.06246183 0.18879913 -0.04081476 0.10927894 0.07927815 -0.055938456 -0.054352358 -0.007922107 -0.123206064 0.28398016 0.049603146 0.00669044 0.014263086 0.04790179 -0.015398222 -0.051785756 -0.05776525 0.05733782 0.015493937 -0.031263545 0.18660061 0.19514127 -0.12152363 -0.049808018 -0.050262924 -0.111109205 -0.08786354 0.23972104 -0.122987695 0.046192423 0.21871771 -0.009473018 -0.106306344 0.15201755 0.15111613 -0.14661203 -0.07569902 -0.1395675 -0.121718876 -0.15090843 -0.29573938 0.039976478 0.11525472 0.17608306 0.11586256 0.102533415 0.031040577 0.15394922 0.13388377 0.0064839474 0.13926306 -0.0015398049 -0.1901065 0.15296589 -0.22929412 0.016632505 -0.05137875 -0.060419448 0.17314714 0.120000936 0.059391264 0.09181117 0.19985397 -0.13541417 0.0129430005 -0.15368073 0.043881617 0.16413261 0.19102685 -0.16298011
66 -0.11238938 -0.03612367 0.12049292 0.10562578 -0.0960562 -0.27157518 0.059541 -0.16844046 -0.054451518 0.05201152 -0.0955851 0.20142117 0.19980565 -0.046858646 0.0577823 -0.091928616 0.043104474 0.16751225 0.2514039 -0.14025049 -0.13847996 -0.25805882 0.06872992 0.13047412 -0.017999567 -0.09451063 0.10653504 0.13680816 0.27835077 -0.100560024 0.36649022 -0.10277681 -0.09257046 -0.19183202 0.06463779 0.1345156 0.13248923 0.11292997 0.10271223 -0.19834098 -0.07885932 -0.19029093 -0.0509854 0.24668008 -0.39409983 0.05982705 0.12172584 -0.32245088 0.11013631 0.20422013 -0.0755656 -0.082067296 -0.05329616 -0.2439205 -0.0014826136 -0.05293317 0.13425802 -0.06849848 -0.18212305 0.16621998 0.01574272 0.18194413 -0.05777133 -0.07868104 -0.026434155 0.098904185 0.054907266 0.15907827 -0.120995566 0.14203829 -0.066412926 -0.1249358 0.2003587 0.013409173 -0.0025553359 -0.07153321 -0.39430454 -0.32488298 0.08934786 0.13456196 0.07981344 -0.13507184 -0.033267364 -0.08333253 0.045650408 0.10711058 -0.11482926 0.0630743 -0.08859945 -0.04297456 0.15061946 0.2984246 0.3529787 0.06255026 -0.10340802 -0.06400577 0.100927465 0.06719423 -0.019514404 0.029956793 -0.005810542 0.015896432 -0.02550467 0.29469627 0.17497033 0.025632685 -0.04125973 -0.10515736 -0.07112474 -0.054550234 -0.17928794 -0.04555616 0.04247903 0.13194646 0.25344047 0.045769714 -0.14962156 0.40918547 0.07966487 0.23579851 0.4814463 0.2993067 -0.07872283 -0.42306548 0.11482861 0.119414836 0.1254853 -0.19354908
53 -0.19261973 -0.069988675 0.13924895 0.18698467 -0.05057049 -0.13824253 0.061186757 -0.14708947 -0.020211775 0.042595647 -0.05149003 0.16717046 0.22096889 0.0059330612 0.099741764 -0.030408325 -0.037033778 0.14591716 0.2601892 -0.120710224 -0.080567166 -0.24917755 0.11876531 -0.0147609385 0.0021916493 -0.076644465 0.062784314 0.098110795 0.2606612 -0.11573345 0.47347 -0.06591249 -0.08741159 -0.07715063 -0.019090611 0.16212726 0.14025393 0.14453956 0.092247926 -0.11349426 -0.04042838 -0.04676921 -0.10902831 0.218335 -0.37690914 0.023734985 0.083443195 -0.27487293 0.09891543 0.09293724 -0.08373168 -0.087117545 -0.03260418 -0.26826409 0.01700483 -0.06101564 0.19271742 -0.036170144 -0.17642422 0.19168453 0.029363248 0.2507361 -0.05123942 -0.09844618 -0.057480205 0.13811967 0.08381481 0.16025783 -0.08012883 0.073897325 -0.052948263 -0.16044444 0.24046817 -0.04889401 -0.021650715 -0.058936022 -0.32680684 -0.2513525 0.12178798 0.27563104 0.087949544 -0.047246024 -0.07278576 -0.017252496 0.008581201 0.071193725 -0.11836957 0.12200897 -0.080019645 0.012020143 0.13245665 0.31117043 0.2610321 0.07674591 -0.10647385 -0.13133463 0.060929727 0.15266193 -0.08498343 0.033588897 0.011889456 0.019546961 0.11031135 0.20075835 0.2817873 -0.06026512 -0.028677704 -0.094776854 -0.17011979 0.0082157785 -0.32292855 0.031536944 0.009543681 0.08550889 0.17768031 0.05017125 -0.3002748 0.34418544 0.04419478 0.16012612 0.5323976 0.26676023 -0.02800949 -0.34648457 0.11873912 0.10229401 0.23375551 -0.12239095
16 -0.2549299 0.13098393 0.13058741 0.22037737 -0.12550326 -0.34768063 -0.06633247 -0.2003612 -0.0065890434 -0.054503206 -0.15889122 -0.041329816 0.05198899 -0.13470794 -0.016624646 -0.21088527 0.18645139 0.18521814 0.26697502 -0.18223025 -0.03784956 -0.19736396 0.20358814 -0.045298662 0.05474833 -0.07538579 0.06580754 0.20418204 0.36818406 0.024978543 0.5255429 0.018589793 -0.0370332 0.09737781 -0.01173811 -0.008013755 0.12206685 0.16843455 0.019555988 -0.17376383 -0.07731671 -0.038715195 -0.009006435 0.14656463 -0.22567669 0.04994555 -0.03213024 -0.03848264 0.053437702 0.09830214 -0.02069724 -0.04372469 -0.011541511 -0.0600017 0.13096523 -0.1798467 -0.092066355 0.09629987 -0.2557107 -0.08604189 0.1163441 0.002953004 -0.0019518285 -0.0887764 -0.0066693877 0.113065 -0.030280247 0.016165832 -0.11810545 -0.17082186 -0.13417955 -0.18845057 0.061175752 0.09811714 0.024610067 -0.1537663 -0.35182402 -0.10735891 0.24440324 0.1425114 0.15620837 -0.07357421 -0.07662877 0.10572886 -0.1238341 0.08610403 -0.1510932 0.28952563 -0.029121052 -0.2108783 -0.0062503996 0.156922 0.20470563 -0.036210995 0.011610214 -0.027480409 0.0875543 0.16657338 -0.0038772323 0.06757721 0.11476298 0.1707169 0.23788628 0.17470369 0.23964398 -0.23242533 0.08640671 0.07008037 -0.27282858 -0.12737003 -0.07104544 0.09121116 0.02676026 0.06151146 0.17037117 0.058646042 -0.06713199 0.2019895 -0.048695523 0.13426347 0.39500025 -0.025967538 -0.04640954 -0.19458677 0.18317777 0.18283512 0.24872494 -0.17358874
3 -0.17050019 0.117782995 -0.0680013 0.0051703365 -0.0479991 -0.30873153 0.02810264 -0.17976521 -0.009073944 0.06661823 -0.10918909 -0.0061789 0.07423294 -0.115218915 0.08146439 -0.10461892 0.102481835 0.12075893 0.24392177 -0.28637457 -0.043760244 -0.039209276 0.050130147 0.108701594 -0.106158465 0.05147401 -0.019250827 0.11756432 0.21581267 -0.0006402069 0.27096194 0.039843794 -0.038201414 -0.047039516 0.10051315 0.01747753 0.026810367 0.039986495 -0.042332165 -0.27563 -0.008126924 -0.17953928 -0.028344657 0.22731067 -0.19980972 0.08390531 0.049222957 -0.006788094 -0.016192757 0.2132857 -0.062522516 -0.00683582 -0.10324843 -0.121370554 0.09764626 0.019208275 -0.0072977124 -0.103367075 -0.08522425 0.21274552 -0.055197533 -0.03817308 0.07104723 -0.03099807 0.02849079 0.17696802 -0.026881948 0.33919463 -0.009400641 -0.065016046 0.065784834 -0.1308853 0.08480439 -0.022055862 0.00688393 -0.05333417 -0.2898853 -0.200694 0.033672094 0.12600335 -0.030774852 -0.096791424 -0.111523755 -0.000547964 -0.06477963 0.16830087 -0.13535273 -0.0061343447 0.036068995 -0.11401314 0.10342188 0.091750465 0.18449442 -0.046580277 -0.02759787 -0.04129977 0.013614783 -0.06386389 0.032066148 0.069891185 -0.0238245 0.2715467 -0.023691105 0.2823421 0.13947974 0.11157495 0.03184258 -0.036014814 -0.06634318 -0.27518436 0.010597647 0.008544133 -0.04927832 0.098846026 0.25986207 0.10133142 0.041077368 0.35765767 0.15450929 0.18827285 0.45142096 0.12880781 -0.13028161 -0.34597674 0.18037479 0.11838679 0.14680824 -0.11185275
98 -0.11596315 0.12532936 0.01590326 -0.037721187 -0.107514895 -0.3710594 0.115662746 -0.09462872 0.11947899 -0.069416344 -0.042688057 -0.03351446 0.03790747 -0.10118746 -0.06023286 -0.018519266 -0.017036524 0.13827929 0.009738424 -0.20891593 -0.04737058 -0.09140152 -0.009570849 0.034143902 -0.054603275 -0.18399665 0.18679133 0.29829013 0.1065831 0.016886532 0.07466123 -0.02255457 -0.012487515 -0.0866736 -0.11705474 0.027975015 -0.010282124 -0.057692666 0.119566455 -0.024186185 0.018336732 -0.31191635 -0.08489859 0.08772953 -0.13112059 0.088636644 0.097809896 -0.16934244 0.080068395 0.11148379 0.02687694 0.19538724 -0.11408319 0.02665636 -0.057490587 0.02619173 0.004503251 -0.0019233715 -0.061315015 0.110134654 -0.09185914 -0.10914016 0.11790144 0.10538617 0.06253401 0.045106158 -0.24399054 0.3220902 -0.12838973 0.03055211 0.03298588 0.031423964 -0.021172453 0.0037313076 -0.0064986823 0.044308126 -0.15022287 -0.036789205 0.17791505 0.06160266 -0.061085887 -0.05944021 -0.04464974 -0.11073858 -0.050837763 0.2226011 0.021582082 0.12739412 0.05445358 -0.2665437 0.033485502 0.15401223 0.2804364 -0.03541505 -0.06093472 0.065561555 0.12296614 -0.14225376 -0.11937844 -0.08283623 -0.022753136 0.2822379 -0.119844906 0.25971115 -0.034203213 0.048934914 0.10158504 0.024608552 0.19754499 -0.13381194 -0.16566691 -0.02595777 -0.11479723 0.025194665 0.087275386 -0.0613378 0.20156185 0.07132283 0.14851916 0.081237674 0.35045218 -0.041660048 -0.13806121 -0.23932898 0.07785354 0.28512287 0.1522595 -0.35842067
39 -0.15914302 0.03936954 -0.001053156 0.09517559 -0.09164957 -0.005322401 -0.09690939 -0.15115821 -0.03227206 -0.09036086 -0.018883213 -0.05127716 -0.06998247 -0.011688927 -0.031794604 -0.09343209 0.04083836 0.059855834 0.2895823 0.022954399 0.026443863 0.019674256 0.11210102 -0.009543416 -0.04625405 -0.012881518 -0.08752155 -0.013069189 0.29791644 -0.04183067 0.27769464 0.12802278 -0.034609657 0.2715776 -0.15034296 0.022339987 -0.07068892 0.18213429 0.0747919 -0.20156868 -0.0036615012 0.02439024 -0.043002926 0.087501556 -0.22031395 -0.044220123 0.080979005 -0.03887421 -0.030850131 -0.053955443 -0.13572364 -0.19448677 -0.081479914 -0.19034518 0.050561775 -0.1830519 0.045608446 0.028210653 -0.14658827 0.21466243 0.05940521 0.1154519 0.024332967 -0.033684347 -0.04859945 0.121082745 0.021111064 0.041873693 -0.011663611 -0.16861308 -0.114286475 -0.1566458 -0.004436526 0.056917988 0.11011702 -0.17520039 -0.26873478 -0.025499994 0.13986222 0.08376286 0.11023296 0.04345195 -0.20144983 0.1768655 -0.05238301 0.054149438 -0.16509217 0.2465999 -0.0717508 0.06740007 -0.032516193 0.21395633 0.024590524 0.1216217 -0.07773509 -0.16172533 0.015597413 0.070808016 -0.028484814 0.1159466 0.1726552 0.27292523 0.2422466 0.21590759 0.2766659 0.016119676 0.07126493 0.020614896 -0.20638023 -0.20564449 -0.107990034 0.23345964 -0.04273306 -0.0077221477 0.10251991 0.048186615 -0.28653023 0.29444867 0.021758698 0.11636302 0.54487747 0.20781484 0.022888394 -0.41302532 0.2602679 0.015926328 0.34216946 -0.050057173
10 -0.079630576 0.028442245 0.041591927 0.083966635 -0.048509113 -0.0949467 -0.043290403 -0.15207717 -0.040421013 0.01578983 -0.0602826 0.06271848 0.11104375 -0.03762079 0.026350515 -0.10264611 0.06651566 0.12659019 0.3324485 -0.11597269 -0.03040897 -0.05856093 0.0810583 0.098762594 -0.0325488 0.011758081 -0.00040402828 0.02930885 0.31364298 -0.08506804 0.40322876 0.037980642 -0.078882925 0.038020384 0.044323176 0.12651834 0.057142425 0.16347446 0.07602738 -0.2631009 -0.06679724 -0.048760906 -0.023867214 0.18122075 -0.33435303 -0.018741919 0.08700525 -0.1882882 0.02352512 0.055142388 -0.117625214 -0.19019988 -0.058880802 -0.25760615 0.032009166 -0.073706634 0.11526282 -0.020316992 -0.117363 0.26389694 0.037796196 0.23261543 -0.021272661 -0.091133125 -0.09479278 0.08340625 0.095572114 0.106429264 -0.025970437 -0.023036256 -0.051627006 -0.17192695 0.13283016 0.01974552 0.052511383 -0.15815431 -0.30906042 -0.18805282 0.057557374 0.10422656 0.11489092 -0.07768822 -0.111935616 0.057194375 0.013670731 0.0596874 -0.19582348 0.14648387 -0.02006851 0.056948997 0.040918887 0.2732849 0.17195593 0.040573426 -0.07470347 -0.12305406 -0.039627325 0.08660118 -0.029675452 0.102593295 0.07723564 0.18599658 0.10129382 0.21072982 0.22245845 0.08998087 0.0057712514 -0.07157438 -0.17177916 -0.15220954 -0.12687303 0.104679935 0.03432088 0.07200309 0.18076688 -0.03155712 -0.2003467 0.42896333 0.06401566 0.22554632 0.5727391 0.26778445 -0.03553262 -0.42371714 0.18526128 0.0463622 0.23723565 -0.06351309
100 0.13910872 0.021165753 -0.06073932 -0.20878595 -0.16310419 -0.12977459 0.10161817 -0.018705504 0.11749982 -0.09115059 0.08376828 -0.0084278835 -0.09197487 -0.19478476 -0.04957499 -0.10834956 -0.14832473 0.15062957 -0.21921325 -0.068810284 -0.04026273 -0.2524703 0.10203714 -0.07120689 0.08202454 -0.2297102 0.29892617 0.23402654 0.12093149 -0.17003888 -0.008867448 -0.09203022 0.045394886 -0.11386788 -0.281576 -0.1953444 -0.1142458 -0.08809466 0.17352387 -0.05435778 -0.034993228 -0.29088828 -0.06536171 0.11874955 -0.17544448 0.037849635 0.20943229 0.10614968 0.18332116 -0.045142718 -0.033706117 0.059008837 -0.070545755 -0.097315356 -0.10445239 -0.04008403 0.24306569 -0.08222002 -0.07406579 0.25310495 -0.06767648 0.07812345 0.1176739 -0.079591736 -0.008730086 -0.045932323 -0.17579725 0.2872127 -0.00044886157 0.0418269 0.021884233 0.10278459 -0.12407665 -0.066279165 -0.022641195 0.056868464 0.030399958 0.018393436 0.1939578 0.009629163 -0.0965641 -0.06424136 -0.048303314 -0.14384586 -0.049371663 0.26911265 -0.08855592 0.07600855 0.24404053 -0.09348063 -0.109569326 0.13649887 0.17446424 -0.13296705 -0.13052529 -0.07388819 -0.06923216 -0.23959088 -0.2918999 -0.02354285 0.16176285 0.2589842 0.033343274 0.14222781 -0.069632106 0.20749342 0.18418258 0.040528283 0.26027378 -0.074628845 -0.13509871 0.10287061 -0.2215752 0.04449455 -0.05127219 -0.11297768 0.2575698 0.12835905 0.15127996 0.101139985 0.2507109 -0.15797321 -0.015064069 -0.26769924 0.07626819 0.22863601 0.17777893 -0.2410885
14 -0.12460288 0.030046167 0.0075894245 0.051166974 -0.13739476 -0.17594773 0.052747212 -0.058996387 0.031872865 0.046795197 -0.08376585 0.06706872 0.10426005 -0.090815745 0.3117304 -0.08169617 -0.14524493 0.20670222 0.03431263 -0.32138535 0.008701773 -0.15712874 0.24159428 -0.13175161 0.20218231 -0.023793688 -0.0059148367 0.15571667 0.17647722 -0.10525368 0.40780494 0.020593807 -0.07271353 0.0032018176 -0.09785946 -0.082966745 0.12903696 0.02319305 -0.109458104 -0.23539104 0.03255704 0.019678138 -0.001329935 0.22749068 -0.17925085 0.04606525 0.0531432 0.123648666 0.045101374 -0.06077048 -0.12291047 -0.033592526 -0.031175317 -0.24187914 0.159336 0.037783705 0.0417497 -0.053955615 -0.06695617 0.0667444 -0.05195504 0.00096843054 -0.010357998 0.0018095003 -0.17966415 0.10032165 -0.087776504 0.33122453 0.106005855 -0.07869149 0.03574071 -0.14546755 0.17030372 0.0012564408 -0.005444418 0.03839501 -0.16823743 -0.1553134 0.16113476 0.44372854 -0.07187079 -0.027591772 -0.104073204 -0.08375622 -0.1367157 0.14698987 -0.21605393 0.019034069 0.16954036 -0.047318656 0.102950916 0.15555003 0.24419722 -0.20377566 0.027635556 -0.21247861 -0.07348881 0.056161582 -0.06495058 0.14966506 -0.0068261805 0.22073764 0.12381058 0.083473325 0.23020683 -0.002750323 0.02488526 -0.07465616 -0.054519996 -0.011850343 -0.16237079 0.08406791 -0.12493488 0.038195934 0.11191873 0.05645669 0.06159978 0.23172253 -0.013790361 0.16522363 0.2859949 -0.027415566 -0.06352487 -0.09418064 0.017110601 0.05737473 0.1946544 -0.14392066
101 0.1902976 -0.08305749 -0.063468814 -0.20544922 -0.055141192 -0.026241304 0.11171639 0.02317596 0.16794735 -0.06126832 0.043776754 0.08014406 -0.06734343 -0.24604975 0.01722268 -0.16601759 -0.25437066 0.15121254 -0.19839935 -0.17485969 -0.13880348 -0.25863716 0.17369893 -0.0061791535 0.16596012 -0.15624592 0.27282718 0.20901026 0.15348765 -0.2852641 -0.013420298 -0.1247966 -0.007965408 -0.124386504 -0.36995178 -0.2536181 0.09668071 -0.096927315 0.19745268 -0.092737645 0.04308177 -0.33001524 0.038550932 0.20702712 -0.14649816 0.07423435 0.18395197 0.069393605 0.28600937 -0.22617666 -0.08772454 0.005642812 -0.06815569 -0.17611483 -0.07224775 -0.045799978 0.2666034 -0.101976074 -0.027764248 0.067709714 -0.029138047 0.08729943 0.03136978 -0.0709154 -0.088149115 -0.024823308 -0.13722895 0.34575054 0.085174434 0.03478505 0.05932058 0.057978425 -0.011195138 -0.01788992 -0.09540076 0.041470166 -0.03833433 -0.087072216 0.2506406 0.11293604 -0.1742106 -0.06643672 0.0040251035 -0.23727812 -0.00886076 0.29057366 -0.19379514 0.11924599 0.30765653 -0.07973268 -0.110132575 0.1522361 0.21595985 -0.14491802 -0.059677366 -0.17004834 -0.1559604 -0.26135236 -0.3766703 0.06663373 0.14842646 0.27869114 0.012991117 0.07554854 -0.06986819 0.2197455 0.20634602 -0.031044463 0.2222388 -0.028806511 -0.12024125 0.1681625 -0.3340166 0.0872145 -0.06916299 -0.09973179 0.36221176 0.27173802 0.17082812 0.08578419 0.17664215 -0.09748059 0.008759485 -0.19037597 0.0036945408 0.15355602 0.14484295 -0.2055114
113 0.14393054 0.00760291 -0.06423463 -0.21161872 -0.18008776 -0.029964922 -0.010944858 -0.016857993 0.15482508 -0.15760711 0.104731634 -0.04458374 -0.12104249 -0.23408015 -0.10466314 -0.12240855 -0.18615445 0.20892842 -0.22478326 -0.02310725 0.07291801 -0.2804216 0.19410352 -0.13322811 0.17254566 -0.2604175 0.38531545 0.18234591 0.15312687 -0.20787819 0.0795542 -0.06704366 -0.015268559 0.016010366 -0.38738272 -0.23040666 -0.118789315 -0.12645255 0.18368013 -0.04942536 0.030944958 -0.19630623 -0.018676488 0.15941297 -0.14037482 -0.025328537 0.17451975 0.19534594 0.18003912 -0.08298981 -0.058065303 -0.0247783 -0.0355869 -0.10080928 -0.12198161 -0.065197356 0.20230465 -0.01724984 -0.06061118 0.25103143 -0.015533893 0.082750775 0.14084803 -0.08703705 -0.007943217 -0.004180548 -0.11318256 0.19239075 0.041544262 -0.012967154 0.0020019945 0.08350697 -0.16249892 -0.007280643 0.004616222 0.010013104 0.06764074 0.074516155 0.24009657 0.03649271 -0.0937845 -0.08676195 -0.050417695 -0.07431949 -0.070448056 0.29443 -0.09477327 0.0840907 0.19865264 0.0046800696 -0.16476262 0.16656595 0.11898272 -0.08577435 -0.14888506 -0.11816931 -0.1380771 -0.216409 -0.30247343 0.02559042 0.21243733 0.21331619 0.14210291 0.16904952 -0.057788674 0.22849622 0.17942795 0.11465395 0.17799138 -0.12911299 -0.09773336 0.17930473 -0.23530142 -0.021655913 -0.08862779 -0.07357381 0.20621523 0.09837617 0.074173644 0.08060874 0.13657698 -0.14657089 0.0002638382 -0.26102057 0.08098239 0.13384078 0.22484072 -0.1713581
91 0.006295734 0.18193617 -0.0635605 -0.15063679 -0.22332494 -0.08342141 0.07461427 -0.14457339 0.11515065 -0.069737285 0.12791939 -0.12948412 -0.13478088 -0.22842766 -0.09365101 -0.087652065 -0.049566757 0.15146773 -0.067271285 0.033305738 0.05889472 -0.19746408 0.0008462527 -0.1602072 0.08373671 -0.2396829 0.25045973 0.29822725 0.17503865 -0.044849414 0.11762353 -0.049703784 0.13194351 -0.107064344 -0.18361802 -0.039772138 -0.22470187 -0.10259154 0.10808043 -0.015994547 -0.13771036 -0.29381114 -0.08180291 0.12329448 -0.23157386 -0.037089676 0.120494336 0.12926003 0.0040085125 0.07863072 -0.07104729 0.071761884 -0.079322346 0.018051334 -0.119169 -0.11810907 0.18440011 -0.14253606 -0.12824903 0.28886014 -0.09560278 0.034399185 0.14115907 -0.12527679 -0.050817233 -0.025207236 -0.1528168 0.20434463 -0.059261013 0.023586415 0.030964982 0.09941766 -0.114720084 -0.16458821 0.076100245 0.08067209 0.052150164 0.1794176 0.1261958 -0.08069166 -0.0040716487 -0.029862152 -0.083085 0.05016096 -0.06742547 0.053090364 -0.06996172 0.09853638 0.11207189 -0.12332916 0.023928534 -0.024242325 0.10954816 -0.16061343 -0.114399314 0.04398292 0.0016812967 -0.122562066 -0.14140406 -0.042688467 0.19313309 0.3662688 0.10379406 0.112486795 -0.062102973 0.10243082 0.15015344 0.16602305 0.166131 -0.2526835 -0.14490283 0.028850796 -0.08484563 0.03651786 -0.079226226 -0.15237723 0.118691914 0.017127577 0.08255654 0.12883791 0.30037445 -0.08830376 -0.050277002 -0.2708048 0.14286207 0.27480865 0.23187692 -0.15695469
107 -0.044034753 0.059593346 0.0051471903 -0.067136675 -0.13107143 -0.3100779 0.12931727 -0.084827505 0.13037336 -0.15127152 -0.023049051 -0.13829195 -0.103989325 -0.21839693 -0.17472315 -0.3284541 -0.0116026485 0.124860466 -0.10358412 -0.25865322 -0.029224545 -0.19720961 0.12274017 -0.14453089 -0.01660424 -0.13405772 0.22049224 0.31117043 0.3268085 -0.027941113 0.08183806 -0.044970192 0.0778839 0.13012151 -0.13987677 -0.17663634 -0.015437609 0.07513381 0.14098358 -0.07886022 -0.01576095 -0.23432554 -0.07935547 -0.042022664 -0.08189052 0.027009951 0.1541023 0.03601202 0.06798436 -0.19116715 -0.0028730533 0.05386013 -0.100450784 0.10939335 0.059180103 -0.10039242 0.070000105 0.014315978 -0.15444829 0.035645388 0.026244225 0.033174023 0.121509634 -0.07333932 -0.071714595 -0.047431275 -0.115003504 0.12783803 0.069905035 -0.16928469 0.0045386367 -0.04244869 -0.14275053 -0.06397597 -0.006254221 -0.045212317 0.08749483 0.11480726 0.122591406 0.0083508445 0.052050997 0.044907905 0.015448237 -0.103823744 -0.05839615 0.0434705 -0.046728343 0.24801467 0.22582848 -0.17780945 -0.048069403 -0.018388534 0.011323653 -0.16235451 -0.013355154 -0.016053302 -0.0053862976 -0.15995933 -0.093537845 0.007129479 0.19624588 0.40518895 0.023498908 -0.05006368 0.024984075 -0.006327965 0.28848046 0.009372604 0.16631165 -0.07211951 -0.071907364 0.06418213 -0.18060286 0.07637178 -0.06659684 -0.07787157 0.25606638 0.11125813 0.15236805 -0.041251324 0.30471972 -0.20155805 -0.032983836 -0.13169363 0.09233774 0.28084293 0.22335345 -0.2765068
120 0.059640095 0.16417848 -0.11384521 -0.2140729 -0.21188723 -0.09915898 0.11342585 -0.1402478 0.112322554 -0.046452485 0.136379 -0.13563791 -0.10806712 -0.18278676 -0.06938295 -0.066340335 -0.10631293 0.13263433 -0.048918594 -0.044226117 0.032540336 -0.10942423 -0.029463729 -0.083925344 0.07537939 -0.19778068 0.2170204 0.28263032 0.20303245 -0.08507891 0.06635935 -0.038911134 0.11327491 -0.07356744 -0.1322838 -0.06370026 -0.20665425 -0.05000628 0.13478273 -0.06742498 -0.12110182 -0.32973254 -0.057465438 0.09710403 -0.22665946 -0.054061234 0.20071423 0.057364523 -0.03263418 -0.028638784 -0.109207936 0.014139265 -0.13627258 -0.03311284 -0.10673727 -0.071502164 0.2199844 -0.17582728 -0.05995742 0.3488853 -0.12651856 0.07166399 0.12570852 -0.06546155 -0.13043335 -0.058927834 -0.1561116 0.2599727 0.0051797554 0.046426743 0.06405527 0.0681833 -0.122397855 -0.17000835 0.105492316 0.07333333 0.06498392 0.14410588 0.060484644 -0.06158401 -0.023505848 -0.0059009125 -0.054856367 -0.02379213 -0.011907116 0.05936801 -0.08822939 0.08763023 0.20979668 -0.0989941 0.03470744 0.027235482 0.1301455 -0.19992538 -0.11414233 0.0040277317 -0.01829347 -0.18555218 -0.13587034 -0.023122678 0.17863134 0.4485375 -0.006014074 0.10971519 -0.053646524 0.20668013 0.14249335 0.084758244 0.26187757 -0.24131419 -0.1463341 0.024754725 -0.15022822 0.046582174 -0.07913616 -0.1684104 0.17623092 0.14551926 0.1631678 0.16276258 0.3904409 -0.015306444 -0.0822788 -0.33719334 0.10288467 0.22210307 0.208589 -0.1637221
37 -0.12968937 0.0238183 0.03659043 0.015597538 -0.18871635 -0.20758507 0.09253227 -0.21066162 -0.023575183 -0.035486422 -0.003183652 0.05882694 0.037927087 -0.07391443 -0.10737454 -0.0445367 0.023405131 0.13682708 0.090340234 0.039033465 -0.111758344 -0.27636367 0.06302633 0.056006853 -0.07231005 -0.21460447 0.19276245 0.22129108 0.2627707 -0.15745085 0.23593172 -0.050626677 0.02626191 -0.09032456 -0.113766395 -0.036992334 -0.06906099 0.10911098 0.19756113 -0.10737059 -0.039098922 -0.31759182 -0.027601754 0.12411227 -0.29463843 0.10709949 0.18354084 -0.09073175 0.11630887 -0.009448646 -0.0058172434 -0.03783068 -0.10354561 -0.12549268 -0.07563372 -0.17221898 0.2675488 -0.03079781 -0.24421047 0.19228318 0.059078254 0.24969423 0.040156715 -0.027358767 0.012723588 0.03320017 -0.059394997 0.14164408 -0.12760705 0.045711525 -0.13884085 0.07118608 -0.033601835 -0.07259442 0.007974116 -0.04468726 -0.20648515 -0.14480385 0.10262159 0.04065447 0.041004818 -0.019768642 0.10136996 -0.05788571 -0.0023120116 0.07259475 -0.014940294 0.20520563 -0.0474741 -0.01569708 -0.011288449 0.10750998 0.06712428 0.050443016 -0.14388347 -0.043210547 0.17965412 -0.033786777 -0.184253 0.01719008 0.16164827 -0.014580445 0.03570029 0.20146012 0.16594312 0.033749744 0.07473585 -0.018245053 0.037832536 0.0030715382 -0.2179981 0.05476382 -0.11268717 -0.017529506 -0.019134853 0.049117867 -0.046920586 0.18296365 0.07286573 0.027752042 0.34540004 0.11081045 0.016454741 -0.27994266 0.067626886 0.20523843 0.15238743 -0.15118179
7 -0.16771522 0.11518624 0.06789572 0.12794709 -0.11241422 -0.24590981 -0.074580565 -0.16001597 0.031774893 -0.07905205 -0.11094447 -0.06999684 -0.008144982 -0.14811286 -0.05763185 -0.21196662 0.14792249 0.14192899 0.23155205 -0.14385234 -0.031414784 -0.10929377 0.16083743 -0.008286995 0.053844735 -0.058934186 0.052656423 0.17792991 0.35439605 -0.015276585 0.39449927 0.02945422 -0.014927774 0.13378245 -0.04343518 -0.028012946 0.08353183 0.16036236 0.08042315 -0.17493688 -0.07046336 -0.07522666 0.02194783 0.08640522 -0.20410417 0.03730449 -0.0040354226 -0.025594411 0.032476254 -0.001701338 -0.041133095 -0.06971917 -0.031325925 -0.05843096 0.08140685 -0.1809057 -0.08215953 0.08623134 -0.20654292 -0.04066804 0.103076786 0.034860525 0.00021573858 -0.07241338 -0.05048869 0.058670327 -0.04280458 0.012398035 -0.07688799 -0.18147309 -0.10961791 -0.14793955 0.002232957 0.09968922 0.0537291 -0.16012424 -0.2607508 -0.036047146 0.21300045 0.04727278 0.13971503 -0.0427933 -0.06057838 0.09701933 -0.086319335 0.04419224 -0.16300523 0.29419532 0.012035378 -0.17680728 -0.06434618 0.12757626 0.13197392 -0.039475948 0.020542659 -0.024418227 0.03334504 0.105150476 -0.022032794 0.075641304 0.14135915 0.23540753 0.20141555 0.11605724 0.18414962 -0.15058425 0.12037187 0.05229081 -0.20446627 -0.12901293 -0.024186362 0.12715738 0.011456013 0.051244654 0.08737175 -0.02735321 -0.008642371 0.19518782 -0.0109569905 0.11469482 0.37329674 -0.009775112 -0.033226054 -0.17797005 0.16247149 0.14896053 0.22925891 -0.14018734
130 0.058854893 0.08773425 0.0038806482 -0.03373502 0.08120633 -0.0033772239 -0.028686345 0.060645 0.13826595 -0.070241004 -0.029712373 -0.14646016 0.097034894 -0.117727354 -0.049929574 -0.28456587 0.020157536 0.13803186 0.10022273 -0.40897948 0.115661986 0.049774665 0.14977032 -0.15040301 0.053409997 0.108096644 0.099106655 0.11822754 0.3404451 -0.050334934 0.36440697 0.035733934 -0.036429934 0.25016198 0.023626177 0.067778036 0.123985894 0.110447876 0.06255518 -0.08878644 -0.019673461 0.15230894 -0.11295904 -0.065479845 -0.13418621 -0.13941406 0.037498325 -0.104143925 0.00645476 -0.24978139 -0.05352377 -0.087603815 0.0014873516 -0.05448259 0.11920366 0.04586722 -0.009030719 0.13370883 0.0926908 0.18233682 0.039154083 0.19325522 0.1275851 -0.15729147 -0.2680904 -0.12685363 0.08217837 0.091289796 0.17736444 -0.20708098 0.08706844 -0.23140246 0.008027935 -0.034613665 0.0070920144 -0.09967769 0.15682341 0.16496758 0.08770961 0.06889377 0.17689571 0.0056715314 -0.12379129 -0.028614739 -0.060368083 0.039016142 -0.25345078 0.2731861 0.3740137 -0.040571023 -0.16877446 0.20146005 0.07806583 -0.20030539 -0.0057257954 -0.07269791 -0.35209456 0.022333346 -0.1617104 0.008210829 0.107094854 0.61187476 0.15729803 -0.2174332 0.06603128 0.035140447 0.20267892 -0.042462144 -0.05381177 -0.045573033 -0.14659698 0.21008971 -0.04287269 0.07783043 -0.042843673 -0.33005857 0.14195517 0.24773836 0.12367668 0.10560378 0.48374772 -0.15143971 -0.058796495 -0.13780889 0.15684567 0.10497239 0.33587173 -0.109117895
114 0.059570283 0.14407237 -0.036348656 -0.16628367 -0.2160154 -0.14223537 0.119307764 -0.09336113 0.15848781 -0.13531473 0.12312258 -0.107172854 -0.121043496 -0.2066141 -0.15380843 -0.07304958 -0.09146304 0.18710233 -0.10650835 -0.020998754 0.023451967 -0.270571 0.08119957 -0.13054812 0.026193313 -0.30817097 0.33584508 0.29700467 0.17236067 -0.09271935 0.1229863 -0.05846103 0.09475545 -0.09288036 -0.3237697 -0.16606931 -0.22364812 -0.03915296 0.21670476 0.024507215 -0.07934426 -0.29266652 -0.12340801 0.062463578 -0.14571242 -0.027646627 0.21856183 0.0992569 0.117665164 0.014468635 0.016826661 0.04093546 -0.1192668 -0.022348618 -0.15567602 -0.0957839 0.3077828 -0.027488941 -0.09706647 0.3056027 -0.027456092 0.14688544 0.17814843 -0.047041673 0.030491645 -0.034531962 -0.16381449 0.19493549 -0.036647283 0.013259947 -0.0014051473 0.12780936 -0.16537997 -0.13120815 0.03185398 0.058263686 0.068048075 0.16382092 0.16118807 -0.07777787 -0.06994243 -0.013292384 -0.052770425 -0.034227144 -0.06420845 0.14452896 -0.010038312 0.16720295 0.13946326 -0.07827821 -0.07666796 0.08658327 0.083119676 -0.15850532 -0.11542485 -0.008579564 0.008413321 -0.18314427 -0.27962285 -0.0474861 0.20563066 0.27046758 0.056706164 0.17006211 -0.07987555 0.13283178 0.14744017 0.13232239 0.21574558 -0.1667726 -0.22313462 0.07908232 -0.19234715 -0.0026801713 -0.13081321 -0.13243702 0.13632782 0.008041765 0.105625525 0.054965004 0.26302135 -0.13947183 -0.020104213 -0.28063813 0.117952906 0.27112144 0.22902441 -0.19998418
128 0.0700296 -0.011208445 -0.017835941 -0.12446445 -0.15797392 -0.15992053 0.11503041 -0.06732895 0.068647206 -0.032646995 0.035635065 0.12474243 -0.041775372 -0.11851156 -0.059958793 -0.051620197 -0.06925016 0.15387066 -0.13658033 0.008685424 -0.12048887 -0.33959368 0.102466054 -0.001826219 -0.039297543 -0.27177373 0.26960316 0.26631865 0.15864627 -0.1910609 0.02944358 -0.10953625 0.032923426 -0.20187175 -0.28168282 -0.122816846 -0.05333035 -0.03374096 0.21842009 -0.019361526 -0.010685543 -0.35256052 -0.07784778 0.170681 -0.24556771 0.085615605 0.24002092 -0.02509172 0.19338655 0.019455213 0.007328396 0.05828141 -0.078216486 -0.11387566 -0.11633473 -0.0904496 0.2960034 -0.05230634 -0.093638785 0.19290109 -0.011102529 0.12265482 0.085108235 0.020246467 0.063637204 0.03743622 -0.13926311 0.2807822 -0.117805496 0.11360947 -0.05094756 0.14296235 -0.03526351 -0.054424554 -0.062397372 0.0515436 -0.08982646 -0.09934572 0.1767028 0.004752924 -0.04239228 -0.06938289 -0.013749406 -0.17196949 -0.014997231 0.2512106 -0.0068004276 0.112685926 0.032290775 -0.05460099 -0.04755485 0.12633659 0.17415106 0.0064369584 -0.14603221 -0.07406864 0.0925074 -0.22882919 -0.3232398 -0.049697503 0.12705407 0.08664445 0.0026946447 0.21372454 -0.011985621 0.15348794 0.11912469 0.005093289 0.2190076 -0.012413662 -0.2432717 0.069816865 -0.23357557 0.03281026 -0.024275262 -0.007480545 0.12099318 0.106966205 0.12453652 0.04931822 0.2522319 -0.017350366 -0.020944411 -0.33513692 0.0637547 0.22713561 0.12846741 -0.21808735
28 -0.22442997 0.09821583 0.10466885 0.10284815 -0.089839965 -0.43619007 0.062464595 -0.15908928 0.06793598 -0.054403752 -0.10197398 0.017685778 0.07883383 -0.11847144 -0.055496406 -0.027553163 0.055565104 0.12154353 0.15234904 -0.16426784 -0.10355394 -0.14954096 0.022263842 0.09459232 -0.024994344 -0.16375946 0.14921068 0.249186 0.14473628 0.031365644 0.22155869 -0.024871679 -0.063439794 -0.07423999 -0.04014103 0.029378673 0.08716939 0.04697878 0.102674566 -0.101028286 -0.04564494 -0.24783865 -0.04840707 0.15150143 -0.19485296 0.10949767 0.038404167 -0.1988784 0.101728454 0.1955612 0.0034074876 0.11041703 -0.099929266 -0.037510674 0.009517258 -0.047998983 -0.03795632 0.0055603306 -0.20872921 0.022482034 0.0075056106 -0.06377531 0.023836639 0.041724864 0.12173587 0.12545972 -0.16414963 0.18212987 -0.17387621 0.0036226383 -0.056945026 -0.07484706 0.05367864 0.06810248 -0.0054886118 -0.033820238 -0.3434937 -0.16409369 0.21693185 0.09967629 -0.0019129314 -0.09603023 -0.042748116 -0.028532062 -0.052117612 0.20300567 -0.004555659 0.15846866 -0.04616068 -0.2765645 0.04314442 0.19385573 0.31100658 0.03135983 -0.0691442 0.06417164 0.1756621 0.009349732 -0.020661555 -0.036787875 -0.016809056 0.13072371 -0.033048272 0.31111467 0.08895469 -0.07852818 0.037131835 0.013027894 -0.010211709 -0.11135885 -0.099268734 -0.029193297 0.006991405 0.040362943 0.18106548 0.036601562 0.044378866 0.14549847 0.06396903 0.121289894 0.35742393 0.056476727 -0.11532456 -0.22949171 0.12557213 0.2067193 0.12966627 -0.28863823
84 0.04645724 0.18018746 -0.16698343 -0.28447613 -0.2433934 -0.13306992 0.21975273 -0.17169012 0.19511755 -0.08486669 0.20697804 -0.17400992 -0.13758345 -0.25628796 -0.09757389 -0.050531857 -0.20877299 0.16322462 -0.16446209 -0.08941385 0.033597555 -0.2011412 -0.0009356793 -0.11804993 0.055430725 -0.2842958 0.3567517 0.35916567 0.17227156 -0.15933873 0.00069242786 -0.06515453 0.15960692 -0.115593806 -0.21054482 -0.16785625 -0.28475258 -0.10521945 0.17013836 -0.075741984 -0.11062341 -0.4138172 -0.13161525 0.13458997 -0.18624792 -0.01631722 0.2857438 0.1326862 0.029048061 -0.085167475 -0.10807727 0.021378718 -0.18496034 -0.015947664 -0.12097005 -0.006526655 0.36902037 -0.21828157 -0.04105079 0.4959814 -0.15316342 0.12380216 0.19242637 -0.0802854 -0.06521295 -0.03729606 -0.1900858 0.35583058 0.058417566 0.05742396 0.1334071 0.11743053 -0.16441232 -0.25722915 0.05904735 0.14147523 0.16379242 0.1626321 0.051055882 -0.06281857 -0.12078254 0.0046839155 -0.022270357 -0.08387802 -0.0064694704 0.17127235 -0.047147546 0.074432425 0.3093663 -0.06420869 0.034322716 0.023336444 0.11955834 -0.24089782 -0.17634147 -0.0155352615 -0.039661024 -0.25672197 -0.2242309 -0.070962764 0.19055963 0.45491037 -0.0367092 0.10103695 -0.09458809 0.31583226 0.19195336 0.058373466 0.3892676 -0.24265677 -0.1998987 0.036684968 -0.2201233 0.009584875 -0.11195608 -0.13709031 0.23067814 0.1432468 0.24932899 0.11656294 0.41035682 -0.08602701 -0.05830094 -0.3496401 0.11174605 0.24240606 0.20813249 -0.187183
76 -0.018177679 -0.079448454 0.0656936 -0.0071724723 -0.19850558 -0.21258229 0.004081763 -0.16621998 0.07450231 -0.17889503 -0.058908887 0.03335322 -0.024806267 -0.23534466 -0.11731328 -0.09211812 -0.11689627 0.17648488 0.0017672236 -0.014765472 -0.16972092 -0.34613624 0.214103 0.13077742 0.13470833 -0.28277025 0.28336942 0.1834853 0.22579256 -0.2407935 0.25092968 -0.03188003 -0.03175171 -0.013675388 -0.32750055 -0.33410406 0.048047572 0.0665337 0.24520509 -0.16526061 0.020524641 -0.2993863 0.16380689 0.16066943 -0.09507407 0.17595872 0.10027009 0.11741436 0.32695925 -0.14306813 -0.029884871 -0.1062386 -0.0748895 -0.19016114 -0.07300992 -0.23067327 0.23167226 0.02662242 -0.30514053 -0.025965294 0.1379926 0.20211308 -0.030525016 -0.04426825 0.12632053 0.030120777 -0.1185707 0.06100784 -0.05187048 -0.046308387 -0.16384858 0.12452953 -0.1169996 0.079605 -0.072121136 -0.16092323 -0.270505 -0.18279366 0.31258103 0.09916666 -0.17139678 -0.07991767 0.16184895 -0.044853203 -0.047049265 0.28221658 -0.08208965 0.23131599 0.05222841 -0.07220108 -0.1930144 0.18724608 0.050628558 0.005618828 -0.042764336 -0.13472475 0.08835494 -0.062495794 -0.27727675 0.12325535 0.2430709 -0.16711389 0.13649052 0.2653477 0.104751915 0.062145397 0.1470151 0.037455723 0.015949102 -0.009201481 0.009332306 0.17341729 -0.21693815 -0.021267409 -0.034422264 0.11318907 0.09440178 0.20200865 0.014740943 0.022938402 0.061158143 -0.045860045 0.1054557 -0.09576259 -0.013508176 0.0995525 0.08071214 -0.13666338
99 0.10053892 0.08154696 -0.02790379 -0.13096486 -0.18282689 0.042425312 -0.12189366 -0.010586583 0.20947626 -0.1967576 0.12341874 -0.07262108 -0.19013463 -0.37474725 -0.15953489 -0.17726247 -0.08489628 0.21825843 -0.2847927 0.13983874 0.17151804 -0.3389068 0.17582926 -0.29012844 0.19345482 -0.33388078 0.43773594 0.22044975 0.07325113 -0.106491186 0.10555497 -0.05286097 0.027278902 -0.06963849 -0.4362822 -0.11195406 -0.22175026 -0.2728805 0.101536624 -0.027744755 -0.06867337 -0.13389571 -0.121317476 0.22762015 -0.2240771 -0.02479756 0.039086293 0.31981274 0.18451677 0.16370672 -0.04578802 0.09260725 0.047368795 -0.037929423 -0.14444605 -0.10512548 0.11266724 0.0028020025 -0.124249704 0.3055399 -0.039184142 0.020749914 0.19321169 -0.25084582 0.09759379 0.009534212 -0.1304491 0.14438929 -0.077898204 -0.040443145 0.034404464 0.105026804 -0.15160555 -0.028737107 -0.049890388 0.046356793 0.10144793 0.16815007 0.31046695 -0.0551941 -0.028237974 -0.13585216 -0.20965864 0.076862775 -0.13884428 0.31062704 -0.12598906 0.047298703 0.116629 -0.030831253 -0.19950458 0.09422796 0.13727406 -0.0155969495 -0.20060088 -0.019880554 -0.20829941 -0.16267727 -0.2943358 -0.05619656 0.21587734 0.2230535 0.34206998 0.15987128 -0.117876284 0.13935672 0.22707908 0.2769767 0.07803119 -0.22355112 -0.0885651 0.21174729 -0.08774578 -0.026993427 -0.060243893 -0.16274366 0.1192197 -0.084821254 0.0050843265 0.12025301 0.09961426 -0.2733098 0.05139837 -0.2527895 0.24135873 0.2493097 0.3048745 -0.18945812
85 0.08230004 0.062337134 -0.027388431 -0.1460903 -0.06809412 -0.15470509 0.16311741 0.0055131605 0.14228643 -0.05819214 0.023902548 0.009619335 -0.080671854 -0.10964621 -0.07891169 -0.086400285 -0.08337544 0.118814886 -0.09481528 -0.16273563 -0.0764528 -0.19595262 0.07328009 -0.038574338 -0.0519196 -0.16763355 0.2180619 0.25797072 0.1460753 -0.097361766 -0.0043077287 -0.07297032 0.025898257 -0.09711899 -0.29434317 -0.09888634 -0.015101805 -0.007696452 0.20432922 -0.00067573943 -0.0091591505 -0.3141812 -0.13150376 0.09836066 -0.13162555 0.010191973 0.2107154 -0.088386185 0.15318002 -0.028522432 0.006736109 0.09403319 -0.09859029 -0.01860001 -0.08755109 -0.023919696 0.23194239 -0.016736466 0.023006374 0.15969728 -0.047585614 0.033005442 0.13021818 0.05269697 0.022413665 0.009513342 -0.15360516 0.28232136 -0.03575194 0.033393156 0.025592033 0.050805837 -0.021780834 -0.050403554 -0.04445872 0.054003283 -0.018298754 0.025504742 0.16106549 -0.020941488 -0.050207444 -0.044613007 -0.10785703 -0.15867192 -0.018401353 0.21982516 -0.04159486 0.18179019 0.13698459 -0.14826986 -0.010903085 0.15539315 0.19019376 -0.08751807 -0.07134879 -0.048766945 0.013085112 -0.2286792 -0.28864464 -0.06684247 0.08475588 0.3470487 -0.05876609 0.1407657 -0.0909681 0.12932499 0.13526589 0.009761718 0.2333789 -0.112628765 -0.25377125 0.08649366 -0.23914231 0.07088561 -0.014478881 -0.10873079 0.20222515 0.11968191 0.18395285 0.053883415 0.3459491 -0.07425131 -0.07926203 -0.31507003 0.11137859 0.23703367 0.19765262 -0.26187882
36 -0.22657374 0.06372535 0.10815221 0.21337695 0.038744777 -0.18750066 0.009870017 -0.07418636 0.01801231 0.028487759 -0.10589627 -0.05695 0.15432197 -0.041142445 0.07817822 -0.14089477 0.055067703 0.20960371 0.22638172 -0.34010288 0.07925996 -0.1691897 0.25657648 -0.18387415 0.034338158 0.0601794 0.07735893 0.0448144 0.25400555 0.035270832 0.5697104 0.011613974 -0.09989935 0.17355663 -0.11144649 0.026864521 0.16797875 0.113961354 -0.032463443 -0.10176179 0.04028367 0.13937688 -0.10289996 0.16942412 -0.13202219 -0.048291948 0.0016055685 -0.03591737 0.113453574 0.053777684 0.011459885 -0.06054931 0.010153971 -0.090062305 0.13362843 -0.0026163857 0.033784892 0.120479904 -0.08880342 0.028365402 0.07422026 0.04778368 0.0917362 -0.041295245 -0.03950702 0.16521299 0.11193119 0.15650885 0.06120179 -0.19080763 0.00268327 -0.21178333 0.11458191 -0.016300492 -0.045662966 -0.07398154 -0.15971492 -0.011835938 0.18045692 0.30167085 0.07068854 -0.052816443 -0.08080516 0.033687282 -0.15831862 0.14841889 -0.12261815 0.21981268 0.03824732 -0.074291915 0.0150732715 0.14948714 0.14050099 -0.05729556 -0.047830176 -0.102348804 -0.06887462 0.1366516 -0.110198885 0.04692348 0.054294 0.21287513 0.22068514 0.099769995 0.23450491 -0.14264035 0.052927412 0.06770569 -0.26675686 -0.062539525 -0.20639406 0.13496788 -0.06455818 0.005182642 0.13071889 0.08446117 -0.11622514 0.16673972 0.0010143964 0.06455713 0.34849116 -0.0417614 -0.064755715 -0.14917621 0.15937735 0.14354163 0.329181 -0.080245405
97 0.122267336 -0.027557654 -0.047211636 -0.20301396 -0.1794413 -0.21778356 0.08160885 -0.048317615 0.08603235 -0.102702364 0.03558138 -0.020235056 -0.014202072 -0.16619898 -0.089807674 -0.17770082 -0.13056567 0.17043446 -0.17145637 -0.16928135 -0.10263974 -0.2505893 0.15586227 0.008043405 0.10893804 -0.22444323 0.307948 0.26242968 0.25378954 -0.26101807 0.07131058 -0.09092092 0.027026247 -0.002645258 -0.23061453 -0.27842125 -0.015491949 0.015753407 0.254454 -0.08084978 0.038878515 -0.34020573 0.03699002 0.055217434 -0.16195619 0.07586057 0.25884962 0.06032567 0.17560388 -0.25424528 -0.018253244 -0.022369709 -0.087073565 -0.111380026 -0.061988473 -0.088071704 0.19344443 -0.042439047 -0.11961012 0.124999925 0.006928294 0.14871024 0.07380037 -0.04347306 -0.09671818 -0.101562805 -0.14729919 0.2529934 0.036168076 -0.005596023 -0.047214836 0.08350728 -0.16527535 -0.014819617 -0.003728563 -0.031809043 0.0009283973 -0.029258287 0.19059075 0.072970465 -0.052573536 -0.019063903 0.12330983 -0.24222256 -0.021974185 0.2329387 -0.08431137 0.18554208 0.29410195 -0.100777365 -0.1799357 0.14544901 0.11364025 -0.15495928 -0.10030101 -0.10370021 -0.02524821 -0.21148086 -0.2522894 0.050534736 0.19518739 0.22040495 -0.007467957 0.080294214 0.021881571 0.19566037 0.21432202 -0.043935522 0.263599 0.035174973 -0.09266411 0.13648418 -0.2917615 0.028941773 -0.10603081 -0.07904978 0.35770267 0.22526515 0.15484115 0.040559012 0.24324831 -0.13481316 -0.021760236 -0.2095837 -0.029385464 0.1881083 0.13203408 -0.24823798
143 0.03446295 0.16958362 -0.09212049 -0.18707007 -0.08793138 0.04842783 0.12857045 -0.07857737 0.17070986 -0.09236973 0.18700878 -0.17444058 -0.05208867 -0.16708408 -0.11409372 0.0022304729 -0.15630266 0.15762033 -0.045149513 -0.07617397 0.11333678 -0.089410305 0.0030772968 -0.14982946 0.009066625 -0.17150506 0.30011857 0.1698719 0.09425104 -0.08659197 0.092305265 -0.005873912 0.042251483 -0.0058604046 -0.18591106 -0.02166016 -0.24471678 -0.06929384 0.14040534 -0.022562945 -0.085623585 -0.16268021 -0.18879934 0.09358668 -0.15109293 -0.11663968 0.19002546 0.04560779 0.030773913 -0.024518678 -0.06967138 -0.01755369 -0.11268687 -0.040473815 -0.1138252 0.058465496 0.3380729 -0.06090472 0.059087053 0.51040405 -0.09989735 0.19945592 0.1989529 -0.09743791 -0.053896658 -0.02356472 -0.051304445 0.21429819 0.066856995 0.014372939 0.12644038 0.010836288 -0.0873186 -0.21635517 0.037964802 0.09382315 0.16902131 0.19792616 0.04654028 -0.06308945 -0.04874409 -0.016663283 -0.1299651 0.01544483 -0.03090563 0.12721944 -0.09013591 0.12783667 0.24996032 0.034197565 -0.046263777 0.1487762 0.07653136 -0.14655045 -0.19693805 -0.030238586 -0.18082052 -0.11397442 -0.26578456 -0.10375352 0.138863 0.43423396 0.040162455 0.0897425 -0.08255646 0.23482227 0.099874415 0.09939567 0.1648904 -0.20601043 -0.26676145 0.12002142 -0.11215793 -0.042831965 -0.095593505 -0.21454738 0.07228783 0.10013255 0.17617911 0.11180203 0.39925724 -0.060277596 -0.032980844 -0.3241591 0.18059514 0.16685577 0.29314294 -0.08741937
32 -0.23704575 0.0946424 0.06753217 0.16009289 -0.05668277 -0.2169772 -0.042874623 -0.13848689 0.021095233 -0.027103165 -0.11987007 -0.06511766 0.036656886 -0.15646371 0.028187832 -0.25577867 0.11515601 0.12569287 0.22193117 -0.25228018 0.014956124 -0.10186152 0.17839986 -0.093003474 0.08040622 0.03808497 0.0024168142 0.1382084 0.35230178 -0.0015792018 0.42962816 0.022495668 -0.0426589 0.17336978 0.033656046 0.00896961 0.15701894 0.17331873 -0.00811773 -0.19959804 -0.07976676 0.060209095 -0.04240156 0.10794288 -0.22129567 -0.010507027 -0.026957875 -0.040194266 -0.002994166 0.0017692709 -0.07420529 -0.07005622 -0.013648754 -0.063409045 0.17787765 -0.10521258 -0.13203362 0.07490948 -0.17633675 -0.019432947 0.07874067 0.0014680752 -0.0043530026 -0.12030589 -0.10580289 0.10786032 0.023142584 0.037466202 0.008736938 -0.21465264 -0.03850463 -0.28398672 0.097261794 0.07959237 0.051077798 -0.115155816 -0.23615767 -0.0645647 0.19694017 0.15078868 0.19884792 -0.033003043 -0.13210335 0.078541026 -0.11066042 0.04788932 -0.23422857 0.25868705 0.084620535 -0.17056033 0.00660201 0.1616286 0.19506162 -0.06555176 -0.00042790372 -0.049927052 -0.058125783 0.17636326 0.030819867 0.06295603 0.096501745 0.36380312 0.24248607 0.04437804 0.23144366 -0.20743655 0.12944235 0.019223353 -0.26570153 -0.10744961 -0.052050453 0.114803165 0.061621767 0.081555516 0.17815836 -0.005502919 -0.03257897 0.2735755 -0.003789283 0.16152903 0.48460153 0.0012433524 -0.06879001 -0.18133949 0.22115518 0.11709643 0.28778926 -0.14122587
42 -0.23267108 0.09804791 0.11274445 0.17087165 -0.09226507 -0.407572 -0.06328029 -0.17643933 0.038199626 -0.0833446 -0.18664935 -0.06890718 0.02207145 -0.19728045 0.0124250045 -0.27758405 0.12025852 0.17826185 0.18914719 -0.31782204 -0.04172423 -0.17073634 0.26978797 -0.02422596 0.11109949 -0.0016276343 0.08488504 0.1625317 0.35499665 -0.020794064 0.4789196 0.028824579 -0.10978998 0.1819085 0.023410758 -0.11253296 0.2035152 0.20899963 -0.011374613 -0.29319024 -0.05355394 0.028486628 0.032338172 0.16358498 -0.1478217 0.044334203 -0.026239878 0.034387354 0.10218177 0.026451794 -0.038017344 -0.10326917 -0.026644256 -0.071077146 0.2017373 -0.1093559 -0.13158052 0.111375295 -0.23867461 -0.07324724 0.1277221 -0.023290383 -0.03700147 -0.108170874 -0.009121875 0.14451677 -0.008828874 0.016389376 -0.0032858048 -0.25018573 -0.07899158 -0.29527745 0.07560374 0.18821038 0.041649774 -0.20148307 -0.36209187 -0.1685289 0.2488391 0.19116846 0.1330421 -0.095152274 -0.07238512 0.051195037 -0.13366258 0.14020452 -0.22627012 0.24999689 0.07609724 -0.22741656 -0.011702227 0.20226754 0.19894421 -0.102916054 0.057106934 -0.098761454 -0.020050751 0.18465216 0.08135407 0.13236918 0.07240233 0.17314318 0.18916656 0.11970295 0.2446681 -0.19451153 0.098486714 -0.01402234 -0.2774355 -0.11925118 0.0831108 0.11166033 0.08544369 0.10118273 0.23760515 0.07848179 0.04351756 0.28291765 -0.023451582 0.15297972 0.3676286 -0.056013387 -0.05449342 -0.11294036 0.14450817 0.08698613 0.19738781 -0.1498902
89 0.114263736 -0.018076885 -0.031009367 -0.15990026 -0.061888654 -0.044963427 0.12872364 0.025884831 0.13565968 -0.02018945 0.08707918 0.054464757 -0.013279421 -0.08832227 -0.014795381 0.010530981 -0.17621769 0.14993611 -0.16854027 -0.095079586 -0.02591148 -0.25134343 0.12251105 -0.085676424 0.035117995 -0.18987699 0.2785628 0.1828282 0.06312504 -0.18298338 0.032586746 -0.09272769 -0.016266333 -0.09946151 -0.30547434 -0.122471854 -0.029557236 -0.05668713 0.17529415 0.031024799 0.034377243 -0.19992818 -0.12239647 0.14215073 -0.13329977 0.0041304124 0.22106923 -0.015839707 0.19083762 -0.06594954 -0.0005661522 0.052039087 -0.06276119 -0.122505 -0.1036746 0.017559018 0.29272082 -0.023351934 0.036426138 0.24217813 -0.04882604 0.12684451 0.123959556 0.017474594 0.007818995 0.024983024 -0.10824559 0.30129278 0.0016059815 0.077082396 0.023877284 0.07036043 -0.026709203 -0.07240599 -0.06535901 0.076804616 0.016950589 -0.007753316 0.18382768 0.07874585 -0.09569348 -0.06521585 -0.060496558 -0.17288347 -0.03111016 0.31710112 -0.061754327 0.13137309 0.17973031 -0.048717637 -0.09020196 0.21796946 0.18195376 -0.054664854 -0.15365559 -0.11255637 -0.07035142 -0.19071563 -0.38198987 -0.066371165 0.10099905 0.24592921 0.032583717 0.16119097 -0.028650085 0.19054495 0.128341 0.018089255 0.20587306 -0.019780943 -0.30899426 0.1501799 -0.26403263 0.009717533 -0.04370668 -0.0764846 0.14582986 0.13191126 0.14661121 0.07300981 0.310617 -0.084293924 -0.029323857 -0.31109452 0.081339166 0.20123956 0.23603323 -0.21401125
134 0.077644564 0.02491193 0.006352521 -0.10324571 -0.16259755 0.020112345 -0.08572302 -0.011699539 0.17997824 -0.18027121 0.085940406 -7.06132e-05 -0.12751268 -0.3034143 -0.14197107 -0.12957872 -0.09695659 0.23585215 -0.2843101 0.13454376 0.12126737 -0.41628358 0.20966774 -0.26732224 0.13382052 -0.3466828 0.4370942 0.21259362 0.052821383 -0.12915242 0.13260818 -0.06952549 -0.015471976 -0.086067185 -0.5103992 -0.12437418 -0.2012212 -0.23002173 0.13609016 0.018118965 -0.005819386 -0.1457112 -0.15520029 0.24531916 -0.23106466 -0.0064758784 0.07902149 0.27186432 0.2526842 0.17561677 -0.013433243 0.110086955 0.04975046 -0.07827161 -0.16890293 -0.10984417 0.2017987 0.04890361 -0.1290809 0.3004015 -0.012844651 0.05997336 0.2052509 -0.18933555 0.14515586 0.04580394 -0.1423623 0.1793174 -0.106102936 -0.00073528796 -0.01806952 0.13201718 -0.12907091 -0.0138782095 -0.0895134 0.05239616 0.06460373 0.10010603 0.32767192 0.017838152 -0.05190873 -0.12573421 -0.18259066 0.021482868 -0.14098637 0.35443613 -0.084114335 0.066618 0.0636361 -0.008758834 -0.21152268 0.15155147 0.12500148 0.04342156 -0.2265836 -0.06345919 -0.14541632 -0.17416622 -0.38116008 -0.06674284 0.17667502 0.108453795 0.318256 0.21550933 -0.07796853 0.115218624 0.17528845 0.24153323 0.07051473 -0.13334058 -0.1771062 0.22761223 -0.14729877 -0.040274765 -0.061639216 -0.08975648 0.06992594 -0.10559187 -0.008591665 0.071280435 0.06632922 -0.25091633 0.06068775 -0.26891196 0.19900316 0.2471016 0.29480192 -0.20021895
17 -0.37525508 0.17069538 0.012767234 0.15248741 -0.036392167 -0.38067508 0.0728706 -0.26473948 0.025042985 -0.007279827 -0.10422466 -0.066847526 0.097238906 -0.18839695 0.045416433 -0.0945233 0.08406372 0.14929919 0.31354713 -0.33097696 -0.018809102 -0.15998721 0.1521917 0.022423033 -0.080248125 0.012170409 0.049074147 0.14559475 0.25868034 -0.0044898647 0.45865554 0.06739148 -0.07519173 0.065792486 0.118871555 -0.033315424 0.04691482 0.14787905 -0.06063445 -0.33199507 -0.05295278 -0.060096964 -0.11802597 0.26132324 -0.16620637 0.07959613 0.00667992 0.018381583 0.01946466 0.20587802 -0.027054157 -0.057322323 -0.091654375 -0.0899111 0.1754215 0.0201821 0.034367386 -0.016793177 -0.16000856 0.21896039 0.031690497 0.03086567 0.055192634 -0.12861808 0.13027051 0.2793175 0.060526352 0.20622136 -0.0012168824 -0.16487122 0.03615732 -0.2772592 0.12761709 -0.025004119 -0.009031344 -0.07350309 -0.3653909 -0.22494219 0.09826531 0.19771796 -0.006072704 -0.10481403 -0.16097684 0.09909373 -0.11503956 0.19613612 -0.16753031 0.1363887 0.04272712 -0.11835278 0.11557627 0.18850611 0.19407244 -0.03421669 -0.06325695 -0.0671874 0.005584642 0.1660416 0.044354174 0.048238862 -0.016162742 0.18724951 0.11452351 0.26215324 0.23761092 -0.07805238 0.003464677 -0.033631343 -0.27892184 -0.24356623 -0.04956052 0.06554778 0.065279655 0.041562736 0.31071895 0.1910058 -0.104368865 0.32934338 0.10089547 0.13819692 0.45550296 0.06873342 -0.07577213 -0.26006633 0.25544396 0.070866674 0.18320931 -0.033317395
50 0.1881359 -0.050376993 0.01402719 -0.10361819 -0.032510754 -0.16817047 -0.17791726 0.0006484834 -0.035243332 -0.04993878 -0.12434684 0.07165114 0.019718444 -0.076478265 0.012902015 -0.21703258 0.0547316 0.20920077 0.12368843 -0.21500859 0.010442784 -0.07448219 0.2280921 0.15846118 0.09847446 0.07609715 0.12733704 -0.094934456 0.24721314 -0.10598867 0.22872424 -0.01246542 -0.23355955 0.13593024 -0.07979616 -0.10250338 0.13956977 0.05282128 0.06130385 -0.3344669 0.0073523642 0.0018400422 0.10111358 0.23964864 -0.17497317 -0.070178546 0.10843541 -0.06635025 0.18150863 0.08854981 -0.101894915 -0.246112 -0.00938785 -0.24037866 0.042487968 0.0044475906 -0.04969125 0.06372867 -0.02952689 0.1777675 0.05570227 0.032946832 0.006584035 -0.07763616 -0.063526474 0.07196087 0.08539717 0.053115807 0.07811847 -0.054463364 -0.029122543 -0.23077147 -0.01755595 0.26554048 0.07432237 -0.23624155 -0.29250565 -0.21199173 0.15818477 0.03817275 0.05856216 -0.24147591 -0.09054331 -0.061398044 -0.021320224 0.29617107 -0.24034882 0.0062786695 0.07061775 0.011058549 -0.077745065 0.3528706 0.24100617 -0.011729046 -0.07589247 -0.16956809 -0.21387324 -0.071870595 0.01305726 0.14004655 0.069096185 0.15788196 0.036389947 0.3121179 0.061295517 0.24362803 0.012107038 -0.019449336 -0.0983894 -0.22538212 0.2074281 0.15795799 0.03378283 0.11310655 0.28970364 0.023130031 0.107583314 0.46583632 0.05191233 0.29306638 0.27566963 0.12092103 -0.101925716 -0.42356896 0.13870074 -0.095293716 0.13391767 -0.12081049
55 -0.3303537 0.15070207 0.06979012 0.16988775 -0.092327945 -0.40064523 0.060096174 -0.20543347 0.0362111 -0.04056626 -0.108115554 -0.07781817 0.038762167 -0.19060808 0.04410073 -0.1961387 0.102490544 0.12685688 0.18685955 -0.30858874 -0.04975074 -0.14763197 0.16572934 -0.05534564 0.014809717 -0.022091547 0.026344571 0.2184412 0.27519962 0.018388469 0.38321027 0.028857918 -0.025325999 0.102499165 0.10407983 -0.057606615 0.08944935 0.19143362 -0.04662551 -0.24248095 -0.0721792 -0.038382206 -0.10016273 0.15560734 -0.17929547 0.06758963 -0.0006148959 0.021787276 -0.007956754 0.08436537 -0.04738231 -0.007881533 -0.052380912 -0.029596522 0.21661305 -0.054358657 -0.06890164 0.027367597 -0.1932895 0.02468618 0.052595608 -0.03179351 0.0019780432 -0.11481222 0.014551484 0.16511133 -0.04494067 0.115641944 -0.01978172 -0.18503454 -0.029323887 -0.28322676 0.100048475 0.037865087 0.021219287 -0.075556114 -0.29266214 -0.14402476 0.16452222 0.19954103 0.10069417 -0.037576277 -0.15079549 0.048418485 -0.13287479 0.11454344 -0.18226992 0.21839875 0.10258183 -0.23160118 0.051172692 0.1723908 0.22580057 -0.097815305 0.0036383064 -0.053494368 0.028372241 0.18498738 0.05358444 0.037970014 0.018887918 0.2794516 0.16046081 0.12445725 0.23789251 -0.21912028 0.06958341 -0.03689884 -0.24038875 -0.11338489 -0.06022399 0.06197444 0.05886228 0.07971198 0.22428417 0.090250395 -0.0013816978 0.24459776 0.036559448 0.12389837 0.457706 -0.046790484 -0.06645668 -0.1633519 0.20079434 0.1310159 0.21386239 -0.14902505
81 0.086626425 0.11268877 -0.037012555 -0.18142793 -0.20904313 -0.21463126 0.11056438 -0.064020865 0.17107317 -0.11470534 0.04491748 0.021854026 -0.15767218 -0.21041311 -0.11750532 -0.09564948 -0.053806365 0.16992287 -0.17353748 -0.022261348 -0.06683598 -0.29546076 0.06823567 -0.048914503 -0.027053908 -0.33698377 0.30270058 0.37264955 0.16029164 -0.11220711 -0.004022147 -0.07331925 0.08517574 -0.20638905 -0.34616405 -0.13152546 -0.14319605 -0.10730535 0.21614744 0.011848548 -0.054034222 -0.4028677 -0.11896133 0.12215537 -0.16219826 0.060369607 0.2197703 0.031089414 0.1562519 0.06922969 0.00027415509 0.12522851 -0.11473014 -0.02843732 -0.14030407 -0.08964125 0.21742682 -0.06101387 -0.067966476 0.21824747 -0.061680216 0.01948051 0.13804267 0.027050098 0.10400083 0.008608796 -0.24880902 0.27247816 -0.14035344 0.08087486 -0.007288796 0.17083184 -0.09211138 -0.03908598 -0.028554415 0.07498752 -0.01045486 0.036487512 0.18769236 -0.10187135 -0.0783052 -0.058336757 -0.10135952 -0.10119082 -0.038398456 0.24541816 0.020470567 0.115736455 0.05479027 -0.13941598 -0.033549633 0.086408 0.17407459 -0.07224356 -0.08618023 -0.0144724 0.092995934 -0.28469884 -0.29191732 -0.08309297 0.12147764 0.22636269 -0.015102739 0.21222024 -0.13165036 0.16519788 0.16544706 0.061386038 0.31044897 -0.17417717 -0.20498656 0.060634583 -0.22552799 0.06724859 -0.04588966 -0.101504155 0.19672766 0.003617198 0.13772666 0.07177966 0.2633927 -0.11482707 -0.039980717 -0.33415547 0.120430276 0.28377086 0.15469289 -0.3041852
88 -0.05040349 0.10034905 -0.11055165 -0.15368892 -0.11036728 -0.34285432 0.13424347 -0.11912815 0.07538297 0.0029381893 -0.041572284 -0.037197884 -0.0019537027 -0.12369843 0.01838126 -0.07722304 -0.031259485 0.10184442 -0.00908276 -0.26977596 -0.07327996 -0.079598606 0.030677883 0.048354294 -0.07674829 -0.056281526 0.11213949 0.22946995 0.13175097 -0.069338 0.019997312 -0.0073684016 0.00196109 -0.057245705 -0.03172378 -0.112219036 -0.016912984 -0.03212628 0.05839105 -0.15389937 0.047861136 -0.3263323 -0.048116438 0.14340663 -0.10693618 0.08921322 0.15007195 0.021157393 0.031984154 0.03991034 -0.023002915 0.0908929 -0.1345628 -0.021921298 0.030354246 0.0654229 0.07194985 -0.10127903 -0.021685624 0.18101816 -0.1182872 -0.08959201 0.12306036 0.059335712 0.018624526 0.092709355 -0.15752342 0.40404686 -0.008476357 -0.03060785 0.082382165 -0.011842963 -0.04695767 -0.065166794 -0.007717298 0.039842755 -0.104613684 -0.1176609 0.06383272 0.09813692 -0.101843946 -0.062409755 -0.053440772 -0.16067189 -0.04317972 0.24195753 -0.0470237 0.035116922 0.17233975 -0.16638938 0.057637703 0.06128624 0.18441072 -0.08977717 -0.053644467 -0.030928254 0.047489528 -0.2181454 -0.087562 -0.007450413 -3.203853e-05 0.33453068 -0.1302631 0.2155602 0.016598491 0.18197753 0.09862114 -0.058493048 0.19818795 -0.15652172 -0.062985 0.013555296 -0.20254403 0.04355813 0.1141393 0.031975627 0.2646306 0.21407294 0.20303191 0.0853667 0.3257865 -0.019946618 -0.13773878 -0.29165727 0.08704385 0.18042569 0.09252627 -0.22168964
70 -0.106517434 0.16722263 0.036263734 0.025111232 -0.18048353 -0.35670185 0.014115774 -0.14474012 -0.0129619045 -0.048807457 -0.083772376 -0.06360765 -0.020644914 -0.11961864 -0.05058552 -0.214618 0.19175838 0.13488938 0.13215475 -0.16510274 -0.07468647 -0.13204502 0.057639744 -0.006835279 -0.041882522 -0.088632956 0.049244367 0.28170785 0.26792717 0.07450627 0.2083439 -0.011595324 0.03946384 -0.025759118 -0.002388713 0.00040316384 -0.060538527 0.07472576 0.05035875 -0.10475709 -0.0795587 -0.25961462 -0.064432874 0.06394674 -0.21909182 0.0724608 0.042162396 -0.018891467 -0.007105762 0.11741395 -0.011673839 0.07218856 -0.05294317 0.054855235 0.054160073 -0.13608992 -0.03870746 -0.021215217 -0.18772809 0.010000452 0.0005591585 -0.067710556 0.060583252 -0.073052555 -0.035846695 -0.005987428 -0.19035679 0.14538962 -0.12667836 -0.052642193 -0.0826682 -0.058975134 -0.064332314 0.024630286 0.06672079 -0.053563744 -0.16370155 -0.01482898 0.13552582 -0.0017899626 0.113499515 -0.029942503 -0.08691844 -0.0074326196 -0.09071041 0.025380302 -0.089329764 0.18919325 0.050022267 -0.2664437 0.011342741 0.060272094 0.1629501 -0.12047946 0.0025142403 0.046932332 0.10466291 -0.047797576 0.0009581166 -0.005438578 0.09310508 0.3250495 0.026488818 0.16377044 0.05274776 -0.08808629 0.096523695 0.051751863 0.0029861766 -0.14971301 -0.044599965 0.0075188456 -0.023267638 0.08482544 0.06826339 -0.063443564 0.16751356 0.09751401 0.04737711 0.106431775 0.34822768 -0.102162994 -0.085032046 -0.22278433 0.12921439 0.27720064 0.17113765 -0.2844527
58 -0.27988258 0.14267866 -0.022969862 0.15497376 -0.014055446 -0.21284673 -0.06221782 -0.2012157 0.023998523 -0.0051345606 -0.107212365 -0.06604028 0.020621117 -0.117397785 0.035991862 -0.1256909 0.1648725 0.10299702 0.3849182 -0.23375648 0.017742503 0.0071437815 0.13187459 0.062316712 -0.123502046 0.07975457 -0.07239012 0.032887567 0.24816552 0.040962327 0.41137594 0.13330384 -0.06783608 0.16118306 0.023478419 0.03733022 0.0057291896 0.14741579 -0.04790141 -0.3291023 -0.027798029 -0.016941903 -0.07864752 0.20444405 -0.17109452 0.02968517 0.012217744 0.02955302 -0.009527879 0.20043977 -0.092650674 -0.11963781 -0.086790696 -0.14773287 0.15046594 -0.03892724 -0.018093374 -0.0076055955 -0.12251406 0.23430032 0.039005432 0.023056976 0.06395587 -0.050810773 0.07115401 0.25663522 0.054636866 0.18407725 0.00021922754 -0.20699352 0.004678968 -0.26001993 0.08531788 0.03358213 0.02863128 -0.15497008 -0.34096608 -0.14167698 0.08651471 0.12846306 0.027328925 -0.06662564 -0.22807434 0.17029884 -0.1256198 0.14165168 -0.17902723 0.1442514 -0.061911553 -0.044974998 0.025651138 0.16614722 0.08181706 0.040894844 -0.03634001 -0.0844133 -0.023932245 0.07035835 0.023957573 0.1081623 0.038535718 0.2722315 0.17259349 0.32418787 0.2662843 0.0017128059 0.025952771 -0.007530833 -0.3264762 -0.34184438 -0.0029067507 0.15841667 0.030728152 0.03347496 0.26843575 0.13805495 -0.18482211 0.353003 0.08571444 0.17259195 0.5513209 0.16375831 -0.058825362 -0.39520133 0.31896958 0.03654537 0.27052987 -0.022714902
65 -0.19406556 0.11596393 -0.05834907 0.12786062 0.016642908 -0.090830326 -0.054201614 -0.115795605 -0.030584387 0.028822906 -0.06402989 -0.08222274 0.028553756 -0.043216947 0.10374498 -0.10299051 0.099817514 0.11386635 0.37367874 -0.26178676 0.056798074 0.049636144 0.1573727 -0.010532835 -0.06504073 0.13092157 -0.12360447 -0.024566874 0.2780372 0.021321045 0.43337247 0.15506995 -0.04546663 0.22246279 -0.05216184 0.0075785113 0.013783397 0.15463628 -0.051155902 -0.29539192 0.016310398 0.042948987 -0.048314303 0.17016922 -0.16624627 -0.026068212 0.05764413 0.040846955 -0.027640708 0.041593224 -0.09329623 -0.1660631 -0.0862997 -0.18754886 0.15291254 -0.043276325 0.02542516 -0.00210275 -0.06110132 0.2136624 0.025943955 0.048564002 0.08424915 -0.009606461 -0.071609624 0.18560417 0.07420121 0.23873213 0.081236005 -0.22348537 0.008265731 -0.22447665 0.070280306 -0.0030981628 0.0379755 -0.14983411 -0.2461609 -0.05354131 0.07584227 0.19966546 0.026795646 -0.014755647 -0.19337581 0.14513269 -0.13962092 0.12839219 -0.21186094 0.17549427 0.03610219 0.025334354 -0.0056300317 0.15257134 0.06223527 -0.029913947 -0.02229237 -0.1450532 -0.07679899 0.0333986 -0.05593188 0.15756553 0.098693386 0.3668528 0.21408768 0.23511651 0.28174636 0.052919455 0.0422307 0.010604157 -0.28644893 -0.27891824 -0.074234895 0.21278577 -0.095076576 0.005341032 0.18216743 0.08729375 -0.1576883 0.35719544 0.06629159 0.16465583 0.55871254 0.117288634 -0.046242025 -0.35860974 0.25092533 0.052123357 0.3247621 0.008230275
