1224 128
126 -0.0008398022 -0.06480158 0.005518775 0.21311405 -0.17503798 -0.09452463 0.32072154 -0.16605979 0.095848784 0.072223336 0.06557791 0.051431756 0.017803105 0.5000651 -0.038473755 0.056688942 0.1701249 0.13925819 0.16477604 0.39433017 0.10822165 -0.080915585 0.22931454 -0.20418239 -0.38180795 0.14403564 0.25344715 -0.30500808 -0.16363679 0.13283902 0.13338926 0.14521566 -0.21720545 0.24345583 -0.20918292 0.07529528 -0.12689446 0.3603111 -0.20231408 0.17226341 0.23030144 0.26120743 -0.02260923 -0.20713459 0.23389687 0.06699185 0.24374172 0.10521971 -0.010637665 0.06191993 0.33876982 0.27628314 -0.37385094 -0.089014344 0.26472098 -0.32568833 0.12916268 0.24719486 0.05204102 -0.33875567 -0.061777305 0.09589616 -0.011344943 -0.08846055 0.4877525 -0.01539139 0.101117045 -0.2606541 -0.37155133 -0.22560577 -0.032447003 0.09239643 -0.1791322 -0.01946377 -0.1017615 -0.06723786 0.006951298 -0.08309086 -0.21876854 0.04112568 -0.13960782 -0.16450873 -0.3254554 0.06917073 0.09654395 -0.34466404 0.025038073 0.12415956 -0.17494303 -0.39269313 -0.061243277 -0.18440941 0.32611504 0.39581227 0.13555339 0.1784239 0.19728683 0.14314097 0.14836802 0.04186755 -0.17142603 0.30503657 0.14392796 0.19884539 -0.2820896 -0.32135144 -0.24852535 0.103364274 -0.40401596 -0.10271049 -0.0063663074 -0.045015268 -0.15880099 -0.08559498 0.09570409 -0.016449463 -0.1614157 -0.012765844 0.13038957 0.046613388 0.04541076 -0.024002172 -0.18156318 -0.18802819 0.11589256 0.050858963 -0.29010776 0.10352348
100 0.011350693 -0.13967456 -0.12495577 -0.36746144 -0.063540526 0.05937758 -0.17861634 -0.17189321 0.19763522 -0.1489246 0.30314946 0.14388889 0.118737854 0.21691814 0.07730815 -0.3200962 -0.13993184 -0.1158107 -0.1861971 0.21587972 0.12990169 0.16084035 -0.20693047 -0.019421527 -0.15641795 0.13995789 0.032922048 -0.08440904 -0.0014699539 0.28304538 -0.027344283 0.102069505 -0.15161273 0.094873905 -0.19646604 0.16358241 -0.012428199 0.20790356 0.23477826 0.3954374 -0.13340981 0.16290095 0.041832384 0.023450883 0.18634577 -0.2458593 0.41712052 -0.16430655 -0.33003306 0.14819103 -0.07835294 -0.0047587086 0.03728004 -0.07863164 0.26001954 -0.2447067 -0.30740806 -0.13523825 0.4343505 0.03388717 0.1481907 0.21933639 0.20560949 -0.07560974 0.24234757 -0.2244166 0.053673953 -0.15772182 0.0067977863 -0.20055936 -0.2185853 -0.29377124 0.014049845 -0.10418915 0.2753926 -0.074310325 -0.11955345 0.061328962 -0.15822771 0.2949336 -0.14745137 -0.271462 0.07855902 -0.17956258 0.17018406 0.10808584 -0.24117242 -0.48301923 -0.4271064 -0.120735355 -0.20229243 -0.2801511 0.06928252 0.2657643 0.36809224 0.034313615 0.25519603 0.17892106 0.21254554 -0.2963651 -0.06489165 -0.039367523 0.04443903 -0.14342646 0.21003379 0.20450331 -0.13640025 0.30973843 0.05433734 -0.105798975 -0.21218197 -0.11950003 0.058955476 0.020377377 0.06256381 0.2600777 0.0028116992 -0.3848221 -0.09110413 -0.24975608 -0.09127486 -0.2974669 -0.069333166 -0.056218505 0.24735317 0.39479703 -0.027441455 0.39880866
47 -0.011424381 -0.02615552 0.18256842 0.051941827 -0.12970816 -0.085540056 0.1487327 -0.060516864 0.12756412 0.029495575 0.15921596 0.120193705 0.02360007 0.31912482 0.22237022 0.03212177 -0.3960018 0.024213396 0.2826805 0.3045964 -0.038199194 -0.18804255 -0.15111163 -0.104595646 -0.18178175 -0.08527697 -0.024368277 -0.15725747 -0.22861846 0.18628453 0.33394963 -0.14266828 -0.08013991 0.17044783 -0.20156088 -0.35927582 -0.12187593 0.24967013 0.017085114 -0.3815223 0.008190338 0.004011879 -0.080623895 -0.08996627 -0.1158065 -0.5221166 0.43059975 -0.1228545 0.21419178 -0.29960832 0.34314805 -0.11085907 -0.21207415 -0.24779361 0.3318937 0.061630543 -0.22604877 -0.12808871 0.021702169 -0.16628242 -0.23120366 0.41288695 0.13445304 -0.12677833 -0.17782758 0.11300243 0.10570491 -0.27429786 0.03177686 -0.1949922 0.0010694723 -0.2508005 0.4190114 -0.23007481 -0.08835799 0.13539799 0.07744225 0.015169707 0.008685469 0.23584293 0.027828531 0.060989957 -0.38649756 0.046719532 0.092933625 0.06658352 -0.25373703 0.32657713 -0.040062815 0.024734557 -0.323783 -0.25518438 -0.22611766 0.2289682 -0.16495496 -0.28843182 -0.20783038 -0.010265453 0.34089857 -0.046373013 -0.17992668 0.2198987 0.08319348 0.17557478 -0.12598671 -0.0104760965 -0.39496475 0.2632313 -0.09308102 -0.08226461 0.026569836 0.18831621 0.05562737 0.23695856 -0.16808407 -0.033769485 -0.3563914 -0.40117258 0.12555467 -0.48880202 0.006945862 -0.076537 -0.17105044 0.12750429 0.35314173 0.41127077 0.45018688 -0.23149334
1179 0.13551007 0.22737867 -0.07697561 0.03829808 -0.29243544 -0.018867206 -0.09012082 -0.035268627 0.26947537 -0.19173475 0.3112492 -0.08003606 -0.16259775 0.37484315 0.021444764 -0.46061608 0.020681456 -0.010724936 -0.30632794 0.40465686 -0.32171184 -0.15753643 0.16631797 0.06780099 0.27984726 -0.13564469 -0.10772218 -0.4525451 -0.28859195 0.07255072 -0.24645561 0.16942918 -0.14793116 0.020419551 -0.41625026 0.11913204 -0.2949958 0.15066956 -0.1700918 0.09497303 0.20217143 -0.21657112 -0.4330322 0.031118728 0.5147686 0.016021937 -0.20892517 -0.3704264 0.104623586 0.043028884 -0.31954852 -0.038462285 -0.1425698 0.23277788 0.06691812 -0.45377502 -0.33346725 -0.58586913 -0.21513875 0.24552111 -0.18122637 0.31406733 -0.022899022 0.04597149 0.11628165 0.0521682 -0.31758195 -0.25787717 -0.066486776 -0.32207724 0.2140017 -0.49696618 -0.10651952 0.14532843 0.1443367 -0.11697047 -0.18783279 0.10499795 -0.07126323 0.06435394 -0.1786546 -0.19751218 -0.08648898 -0.15971397 -0.025978982 -0.06754044 -0.056925394 0.528893 -0.10778988 -0.113394216 -0.34647158 0.06888911 0.5114643 -0.034291185 0.41865104 0.27433974 -0.3239574 0.14514676 0.059281614 -0.004173529 0.15879007 -0.28358874 -0.041961312 0.09631884 0.14989369 -0.276283 -0.17848393 0.29729015 -0.26288924 -0.28507888 0.046555135 -0.26892063 0.09692398 -0.089250505 -0.105317324 0.124965355 0.053072363 -0.084741 -0.007875975 -0.28591418 -0.028740354 0.1945319 0.072504036 -0.3577128 -0.0008329075 0.19799243 -0.16600364 0.087155245
620 -0.15156513 -0.32036602 0.10238314 0.026413491 0.021543544 0.37404925 -0.20949304 -0.07123376 -0.15081336 0.20928025 0.21894836 -0.036923077 -0.5413357 0.20012558 0.1185187 -0.17623031 0.025109692 0.42887267 0.26570737 0.27468634 -0.38097754 0.37711525 -0.17165954 0.37382436 -0.38128993 -0.083025165 -0.008700753 -0.18797164 0.38485697 0.3569562 0.13953671 0.29052284 0.05941381 0.10531062 0.05522902 -0.06601152 -0.117093064 0.14869691 -0.19556136 -0.142019 0.07217524 0.20394275 0.07819467 -0.008181815 0.0876016 -0.41473305 0.25500727 -0.40991485 0.004514278 0.3244458 0.19313906 0.26648924 0.054409113 -0.08032408 -0.24805935 -0.0648648 0.25025406 -0.060389854 0.15947735 -0.22091603 -0.058591757 0.012371963 0.25950396 0.07087302 0.51651424 -0.11517824 -0.20123813 -0.27134174 0.30303183 -0.3942684 -0.2931801 -0.21284199 -0.04764144 -0.35361284 0.024962686 -0.016841779 0.2550148 0.035661016 -0.5240411 0.10175296 0.0974719 -0.37333325 -0.23198478 -0.17243883 0.16286625 0.22549245 -0.011074924 0.10203696 0.3691709 0.08896282 -0.08669777 -0.08083895 0.17510888 0.21295787 0.23457229 0.40222022 -0.38833594 -0.09013136 -0.015551513 0.15677024 -0.10186211 -0.044748634 0.1636354 0.18665524 0.09705775 -0.3230071 0.16381083 0.1486581 0.20156528 0.021212125 0.119605556 -0.0396371 -0.13273929 0.036167573 0.3295968 0.065006964 -0.1339131 -0.31178075 0.0031899721 -0.4465535 0.037316356 -0.354739 -0.030335298 0.21223293 -0.081162795 0.005568681 0.13374065 0.010876501
497 0.088894255 -0.25095004 0.24607353 0.0013986903 -0.012260666 0.14929655 0.07276721 0.26919267 0.091986276 0.26833674 0.20711598 0.1173628 -0.06729358 0.18985307 -0.22966379 -0.20498464 0.052061822 -0.0014343058 0.29514542 0.20123044 0.15267757 -0.11890041 -0.4108449 0.2804837 -0.617595 0.21331096 0.15153863 -0.14945248 0.037589096 0.24628833 -0.10092471 0.40153643 0.08873923 0.12626824 -0.32807487 0.22440785 0.030870318 0.27504003 -0.07539389 -0.052091878 0.04019331 -0.2412339 0.21367323 0.046553098 -0.03693574 0.23764625 0.043855418 0.018110773 -0.25010788 -0.14147538 0.25447246 0.15381572 -0.2903547 0.010230387 0.38511866 0.1255442 0.10225877 -0.32832152 -0.028600685 -0.002308817 -0.18236597 0.23311952 0.0705196 -0.038724363 0.02255951 -0.21274054 0.026517125 -0.39212778 0.5163153 -0.09672998 -0.41779244 -0.17523769 -0.05052216 -0.40848666 0.36155272 0.16681308 -0.34409803 0.07134091 -0.13791417 -0.05000468 -0.16343556 0.013949957 -0.30021513 -0.11424375 -0.041351408 0.014944105 -0.28414476 -0.056574576 0.15218267 0.072133705 -0.09541184 -0.27308452 0.16133393 0.17714234 0.03616768 0.10922894 -0.057135563 0.26463282 0.2597676 -0.26419765 -0.15784465 0.14945221 0.120485924 -0.054565202 0.07965457 -0.019711178 -0.30949682 0.3654789 -0.35032228 -0.32987267 0.084338546 -0.030996107 -0.11816192 -0.023914734 0.065012306 -0.05109904 -0.17662814 -0.2717966 0.15785672 -0.065134846 -0.15325499 0.064221434 0.1678665 -0.31999618 0.032656994 0.22277783 -0.16428919 0.09986488
769 -0.040635042 -0.0010566412 0.25708538 0.279886 -0.14666316 0.062315162 0.10991442 0.13741712 0.66455203 -0.26579678 0.24548668 -0.07423376 -0.22749099 0.11209126 -0.17248775 -0.055383615 0.10327358 0.03396573 -0.14796613 -0.053650144 -0.4122097 -0.0027879986 -0.5265737 0.15765116 -0.85637075 -0.23262933 -0.40283027 -0.6377293 0.1691159 0.24567243 0.1327373 0.17580885 -0.3241477 0.03576451 -0.054638356 0.184491 -0.16614923 -0.1774823 0.16812591 0.24425167 0.17064218 -0.21006408 -0.0032156524 -0.19023398 0.04416747 -0.2222904 0.16674003 0.031227103 0.18988046 0.21004869 0.015823733 -0.2703864 -0.5317316 -0.06918365 0.04377151 -0.30428946 0.08431428 -0.48890656 -0.022982754 0.113252416 -0.09793873 -0.009903881 0.22141862 -0.12659097 0.22325595 0.009693309 -0.08048509 -0.36894172 -0.22042823 -0.15641966 0.06399899 -0.24188787 0.09882929 -0.08736929 0.06382503 0.18728438 -0.043381143 0.11598722 -0.013457135 0.50802946 -0.10660055 -0.016193701 0.22665086 -0.29180613 -0.17055814 0.41809317 0.028730238 0.22849293 0.6014696 -0.12660943 -0.12584339 -0.39506316 0.046232127 -0.024046013 0.27466848 -0.18223277 0.08670082 0.10138514 -0.047952887 0.00875542 0.21401289 -0.036388934 -0.19539551 -0.21211563 -0.018291017 -0.030080244 -0.006096032 -0.23010421 -0.28942692 0.23608893 -0.012621699 0.36656412 -0.26318043 0.0062397085 0.1576125 -0.1495605 -0.053411145 0.19266185 0.08664901 -0.03378215 -0.035094973 0.27033848 -0.13966158 0.13206394 -0.08315944 0.18554537 0.17787632 -0.16843656
215 -0.08209017 0.046566788 -0.16902949 0.11689101 -0.37353516 0.21186393 -0.43560886 -0.14160989 0.53529465 -0.44883916 0.12784122 0.028960926 -0.22819377 0.3673841 -0.1633908 0.117857754 0.22325064 -0.25920135 0.16892104 0.07696189 -0.21360025 -0.47981322 0.08707415 0.41454697 -0.22847112 0.10706301 -0.04749984 -0.21433236 0.054014362 0.26151016 0.0772209 0.12623553 -0.2082773 -0.15669605 -0.007795702 -0.17652786 -0.46032584 -0.019984333 -0.24617165 0.2097072 -0.060146354 0.22182763 0.2544413 -0.1442565 0.062799215 0.07858951 0.29412678 -0.17027275 0.05703374 0.16765042 -0.022180473 0.2597439 0.14194988 0.32887203 0.43988124 -0.26865998 -0.16461945 -0.20333537 0.29711857 -0.14824818 0.003916025 0.3042541 0.10224944 -0.092611805 0.210735 -0.11570285 -0.0359982 -0.35646364 0.08062396 -0.017199164 -0.026383152 0.016179156 0.0661481 0.097935125 -0.12835632 0.18493457 0.027119521 0.12309493 -0.23254272 -0.14620374 0.113485456 0.4409769 0.2832255 0.15623353 0.24753708 0.08914281 -0.1848476 -0.03944903 0.1544257 -0.28885016 -0.031034073 -0.24403179 0.07898805 0.117087305 -0.047396343 0.08879338 0.12006994 0.15220028 -0.017999675 0.023957288 -0.26027003 -0.099713475 -0.33055252 -0.45161366 0.35112357 0.029972836 -0.13114892 0.46299574 0.069497384 0.047861196 0.29176235 -0.28174356 0.32666576 0.162716 0.36659124 0.0038525863 0.046779417 -0.21749602 -0.06721293 0.18376096 0.2676074 0.1386038 0.19317688 0.19222471 0.012030297 0.5941295 -0.13068038 0.19208042
839 0.11351181 0.014902752 0.18913022 0.46520355 -0.02585921 0.0005096417 -0.21163356 -0.18307614 0.45065865 -0.040300805 0.042062916 -0.065024 0.11250393 -0.025365056 0.01663461 -0.20141931 0.1823134 -0.037605375 -0.122521654 0.15673679 -0.006570913 -0.08408326 -0.0952581 -0.035796273 -0.24655756 0.10956755 -0.06743687 -0.11464681 0.06741577 0.21513487 -0.04703517 -0.15020163 -0.10598746 0.074722774 -0.29444307 0.06418814 -0.36399838 -0.038031008 0.12637809 0.008244083 -0.20141134 -0.07707867 0.032315247 0.04152729 0.098357536 -0.035604298 -0.0248818 0.1766775 0.022211786 0.035119966 0.31984183 -0.16808978 -0.18073662 0.18112 0.25854313 -0.13232777 0.036761824 -0.6318462 0.2421454 -0.16942343 0.12045861 0.008501534 0.2525904 0.3037395 0.38845226 -0.02703562 -0.08956316 -0.11713277 0.01835338 -0.104321755 0.07787218 -0.32098553 -0.19455302 -0.060070265 -0.01051063 -0.1816064 0.32400766 -0.13805327 -0.10812035 -0.2716472 -0.083525404 -0.12157411 -0.025200162 -0.18757331 -0.025126603 -0.028993797 -0.20456569 -0.2105742 -0.009391425 -0.281218 -0.30110028 0.0111109335 -0.12524937 0.36081588 0.107744575 -0.18850182 -0.18595426 0.3555505 0.1218229 -0.0728275 -0.17923091 0.080401875 0.035886176 0.09451554 0.45537585 -0.11700853 -0.0056318487 0.036118545 -0.38937762 0.07657532 -0.19278115 -0.23285958 0.111018345 0.4775119 0.11649591 0.054466724 -0.26541433 -0.17986394 0.38344935 0.16981936 -0.030334456 -0.28877574 -0.027651602 0.2502854 0.53094727 0.137216 0.20907399 0.16798334
422 0.096962534 -0.26107165 0.057865266 0.21869957 0.044220425 0.23794107 -0.011186182 0.0059059723 0.51520896 0.12562884 0.09821613 0.102824084 -0.11517833 -0.1548747 -0.039392278 -0.1612749 0.12422546 -0.12548046 0.12479216 0.00894108 0.50165206 -0.06753513 -0.28859073 0.14895883 -0.09269298 -0.18676817 0.12363591 0.0058329604 0.33380365 0.2867408 0.0056877714 -0.1981452 0.17453158 0.15564886 -0.42163178 -0.3023555 -0.278269 0.124879666 0.010415795 -0.17436664 -0.20364287 0.1423846 -0.02038794 -0.43262753 0.049537513 -0.35548624 0.2731733 -0.3774114 -0.025814878 0.2789288 -0.18039648 -0.1423562 -0.01910128 0.22892575 0.50407404 -0.27123135 -0.13807216 -0.182078 0.1326231 -0.100569464 -0.44705668 -0.42224777 -0.19403061 0.07331555 0.10926543 -0.48649997 -0.3219772 -0.61001676 -0.29850522 -0.39006916 -0.20591149 -0.03295205 -0.05804727 -0.20910707 -0.067584775 0.23278321 0.16201578 -0.05419715 0.045366917 -0.018007776 -0.23477481 -0.10725894 -0.109192215 0.012175022 0.07385275 -0.0932118 0.17350347 0.27067143 -0.11667565 -0.26686347 0.007424138 -0.14232092 0.29505157 0.14747399 0.16636656 0.052161764 -0.15939431 0.32578713 0.045072034 0.22318926 -0.008593198 -0.03705272 -0.13834798 0.2310706 0.41791168 0.015409038 -0.13887282 0.016938966 0.15346831 0.13656801 0.16799226 -0.037331183 -0.029164672 -0.20565033 0.06726389 0.2678857 -0.19019207 -0.31235075 0.16999115 -0.008174654 0.46262982 0.00061215885 0.19783948 0.19628486 0.22901165 0.39898026 -0.05364409 0.082676336
1007 0.09696088 -0.052641228 0.24195603 0.3531394 -0.15257575 -0.21297973 0.05669257 0.009971168 0.23142083 0.1644416 -0.054189112 0.13293736 0.015149181 0.080250666 0.16238081 -0.5247743 -0.3189942 -0.284 -0.15439513 -0.032078523 0.023244655 -0.05782112 0.0040835636 0.14974333 -0.10567523 0.19307992 -0.105582744 0.021091964 -0.19630255 0.34473464 0.46445704 0.008353866 0.0344858 -0.019937215 -0.3222253 0.2527954 -0.2476124 0.091489546 -0.19890867 0.05401523 0.29130736 0.06543871 0.021690417 0.15204719 -0.07122806 0.017818632 -0.12720637 -0.027925253 0.019062387 -0.0020453571 0.019096661 0.18173726 -0.035354733 0.15511312 0.34285846 0.15202165 0.11454889 -0.35320872 0.15406758 -0.38671404 -0.14161238 -0.02209679 0.19542716 -0.14938535 0.3559362 -0.36084422 -0.02847525 0.03156692 -0.22882845 -0.15321021 0.066824414 -0.39783096 0.08676239 0.023513123 0.24540092 0.17401986 -0.017571537 -0.28669554 0.13757657 0.19599079 0.053883385 -0.010551036 0.10025704 -0.20124951 0.27836427 -0.015202867 -0.3253816 -0.038773693 0.11521575 -0.1459224 0.048536565 -0.08539763 -0.21235022 0.36150578 0.3814105 0.09231781 -0.014371675 0.3437186 0.12323182 -0.078883134 -0.45154935 -0.07047613 -0.310399 0.17049965 0.12602921 -0.22854455 0.12456567 0.2295511 -0.30699086 0.11592629 -0.1162223 -0.13344707 -0.07237203 0.10923738 0.51949394 0.3198491 0.2568457 -0.108915985 -0.01555343 0.023238508 0.14848426 0.10409551 -0.011144185 -0.027494049 0.25750622 0.38671565 0.119523786 -0.16167167
138 -0.3877209 -0.007640092 0.29910415 -0.18985045 0.024702696 0.2788846 -0.35029578 -0.014205392 -0.11008502 0.21378182 0.07246818 0.005997181 0.1647831 -0.1342696 0.17286564 -0.22932127 -0.34568378 0.22212613 0.099481635 0.37320608 -0.11753569 0.22144675 0.013799522 0.05995954 -0.4342261 -0.4500635 0.14529805 0.05219509 -0.34721178 0.263945 0.5223885 -0.2301138 0.06724287 -0.23538546 -0.24273157 0.38504782 -0.011060739 0.1938624 -0.03904707 -0.16021779 0.21331643 0.21979031 -0.09956319 0.107684664 0.49106327 -0.24979986 0.45387498 -0.05306215 0.1279446 -0.2851346 0.06574015 0.30154628 -0.14693254 0.17050666 0.08916483 -0.1671354 -0.040302515 -0.5058051 0.09848336 -0.23751841 -0.0349921 0.1429528 0.55465525 0.21241432 0.051668674 -0.089532554 -0.17832004 -0.20923407 -0.3170215 0.16548869 0.031434268 -0.124313444 0.017892854 0.25972486 -0.17526068 0.027166624 -0.15178682 0.4614531 0.2761959 0.27306643 -0.23283882 -0.08596272 -0.108401485 -0.5763779 0.15985002 0.3307947 0.11603013 -0.06309325 0.47835445 -0.22513787 -0.18215424 0.03969482 0.22559957 -0.19421403 0.09082183 0.06615293 -0.14273115 0.16781451 -0.07810875 -0.046494953 -0.08757168 -0.15735264 0.0931202 0.07151401 0.102458596 -0.3312145 -0.49085408 0.046694238 -0.22247724 0.14347872 0.13732655 0.17637481 -0.04994613 0.10460574 0.10466173 0.008841982 -0.1299368 -0.38177115 0.023563249 -0.09753156 0.34122887 0.29788077 0.19664074 -0.117428556 0.26027983 0.017209781 0.28466398 -0.21625932
908 -0.1983852 -0.0816846 -0.10721719 0.47079945 0.008474561 -0.20052485 -0.1259492 0.034091346 -0.038866952 0.38562647 0.28200206 -0.08873206 -0.15415403 0.26913965 0.2463083 -0.08269582 -0.1106832 -0.06711997 0.5757519 0.1775992 -0.16463688 -0.12076075 0.066266105 0.28474602 -0.17815517 0.1202857 0.1876232 -0.18902263 0.015062174 0.10541799 0.42923027 -0.06877683 0.19890939 -0.06833521 -0.39701498 0.30558604 0.24178565 0.17653628 0.056555133 0.24740228 0.37616026 -0.006798254 0.056138095 -0.16286317 0.04809288 0.063174345 0.6123168 -0.010104441 0.28065312 0.0201227 0.17910187 0.14607832 -0.11667746 0.07451743 0.45586535 -0.07895401 -0.26299432 0.06091964 -0.12611952 -0.031017434 -0.0914611 -0.11305833 0.19172221 -0.46545368 0.26282433 -0.5079482 0.20916389 0.06296445 -0.24921899 -0.1445108 -0.14094046 -0.027648954 -0.12438535 -0.03881495 0.1346756 0.06129408 -0.22935338 -0.023704635 -0.053239174 0.06881005 -0.43671256 -0.155482 -0.15394518 -0.2489597 0.09573874 0.2089999 -0.11389001 0.049576156 -0.079020545 -0.028051723 -0.51530135 -0.57022935 0.34403375 0.3469839 -0.115832046 0.028336268 0.0148876235 -0.03059195 0.13393186 0.13467786 -0.13845994 -0.06517219 -0.16933948 0.21697365 0.013893378 -0.27402264 -0.15413661 0.15270923 -0.2925245 -0.1817631 0.3255741 0.2741703 0.20418242 0.26626244 -0.14474358 -0.17538619 -0.05991236 -0.0055167703 0.17211945 -0.21854192 0.23914497 0.13367867 0.14277445 0.071715556 0.13579954 0.042981807 0.38394162 0.17202716
673 -0.25670147 0.22565886 -0.31619263 0.0015712471 -0.27122095 -0.013941171 -0.08103566 0.017159864 0.59286046 0.17334248 0.24544515 0.048533063 0.25773668 -0.18659073 0.102398105 -0.106717914 0.101871416 0.04207591 0.17593485 -0.07267526 -0.02512506 -0.2737977 -0.0748652 -0.31451693 -0.2336288 -0.029212099 0.13164423 0.009070399 0.030233871 0.475257 0.17693512 -0.015682109 -0.48293298 0.14183511 0.14812322 0.38278392 -0.109165974 -0.19202475 -0.034010302 -0.05440436 0.21353932 -0.12496765 -0.45558146 -0.49997687 -0.44206384 -0.15385842 0.3813313 0.00015089665 0.08708309 0.21240568 0.19780785 -0.1310245 0.52022797 0.058457583 0.08962461 -0.20864376 -0.29742372 -0.17670009 0.27288753 -0.39483944 -0.33327657 0.2824537 0.07013029 0.11857381 -0.1426361 -0.45615432 -0.47018513 -0.29370528 -0.10766955 -0.2746883 0.3858235 -0.22384092 -0.16471735 0.14425758 -0.23852172 -0.08112464 -0.2167646 0.049029604 -0.11596725 0.06626444 0.08986441 0.15723926 -0.10627805 -0.080601215 0.021684954 0.062713176 0.008345529 0.17204368 -0.080645055 -0.31416458 0.31622997 -0.32669032 -0.035782453 -0.1648391 0.17860204 0.054765016 -0.28677124 -0.289555 0.5342245 -0.018948706 -0.046702337 0.037283394 0.36868665 -0.04030105 0.047753744 -0.20294437 -0.1113917 -0.18680826 0.09215997 0.046753544 0.4840171 -0.030327642 -0.041173395 0.25665164 0.44673932 0.04882242 -0.19470619 -0.16353238 0.056402057 0.25890517 -0.24956702 0.12545422 -0.27962112 -0.39873514 0.1410585 0.43909734 0.27444586 0.10026726
381 0.0052896333 -0.13673693 0.15154894 0.2681639 0.058160655 0.21213995 -0.07270045 -0.37653822 0.1854432 0.32878596 0.2323595 -0.09000522 0.34515637 0.1551149 -0.17966305 -0.41469944 -0.09793175 0.037416622 0.017489482 0.10428083 -0.07692194 0.30738068 -0.25421736 0.019097093 -0.37279645 -0.25299144 -0.036502637 -0.125676 -0.22517145 0.22888978 0.13123085 0.18179047 0.11403059 -0.036103755 -0.49316773 -0.17370652 -0.026889594 0.055941395 0.021663964 0.18021905 0.040664148 0.3751254 -0.16432449 0.1800316 -0.1406931 -0.0351496 0.32684603 -0.11969312 0.05489066 -0.065560035 -0.086062476 0.081690736 0.1095365 0.34747016 0.48671862 0.13168885 -0.36831358 -0.31600723 0.30622622 -0.33635253 -0.1895006 0.081393614 -0.047834072 0.15526053 0.43473485 0.102409564 -0.31894284 -0.061928526 -0.0671363 -0.07047437 -0.21393284 -0.23267187 -0.23742454 -0.09821553 0.07139567 0.31437626 0.28465378 -0.25833443 -0.31578097 -0.03685732 0.0868197 0.29462308 -0.28675783 0.03943983 0.21468997 0.30501893 -0.43114352 0.21281229 -0.14538175 -0.1815981 -0.33638185 -0.39548382 0.08433989 0.23161477 0.42653263 0.14206001 -0.0030364245 0.24662088 0.15181701 -0.06581343 0.033647288 0.05741402 0.078839056 -0.20763248 0.040558584 -0.4418807 -0.0010899252 0.009836541 0.2645577 -0.02908891 0.34398535 -0.23032188 -0.19100885 0.08377559 -0.059164982 0.06382103 0.18220365 0.08569743 -0.11092034 -0.16440004 0.09012823 -0.1715117 -0.13031732 -0.1614223 0.054454986 -0.07646281 -0.04191514 0.09656001
567 -0.0051031364 -0.4142988 0.2940199 -0.004117429 -0.006894246 -0.32101592 0.09659102 0.00808433 0.04161541 0.17597371 0.18746445 0.092377186 0.16210568 0.191575 -0.28746602 -0.40592185 0.04868988 -0.13518226 0.39639276 0.041309725 0.104107715 0.2161 -0.4747424 -0.079034284 0.16659346 0.025683602 0.33746147 -0.283995 -0.35465798 0.21796769 0.1257149 0.31593287 -0.22856152 0.03756618 0.30934584 0.12215037 -0.0014233361 0.29092595 -0.058100283 -0.09894132 0.2274423 0.08658252 0.21508098 -0.013668448 0.33741188 -0.4188784 0.39055502 -0.14001025 -0.05050019 -0.17846896 0.1634459 0.03849314 -0.46961132 0.21275933 0.07347734 0.011905348 -0.3204415 -0.25133324 -0.008453212 -0.36237934 -0.164846 -0.473387 0.3110284 -0.2990068 0.24061583 -0.08593005 -0.10036744 -0.20760101 -0.06273124 -0.3242611 -0.013129917 0.11083451 0.15896389 -0.16687185 -0.04130022 0.08612283 -0.08934772 0.054608904 -0.18756321 -0.050997406 -0.11575197 0.041818336 0.2164944 -0.024244823 0.05096363 -0.112812616 0.09223017 0.32738015 -0.15130886 -0.06445953 -0.28514117 -0.270324 0.07763986 -0.07210525 -0.014065889 0.13766964 0.22908445 -0.19125044 0.49792278 -0.24896891 -0.2783437 0.33475688 0.060700364 0.22259997 -0.20547076 0.13680144 -0.055092957 0.09948186 -0.24129507 0.033020977 -0.0025432785 -0.1993653 -0.25464192 0.6393863 0.24968629 0.082443304 -0.000840203 -0.20234232 0.26750478 0.073497914 -0.16418494 -0.18789907 0.23886453 0.1588955 0.040266927 0.28056517 -0.17519787 -0.03613429
923 -0.07871817 0.07534943 -0.12778603 0.15323037 0.034449104 0.227751 -0.0729501 -0.037132002 0.23246095 0.15486981 0.1994001 0.08251123 -0.04175442 -0.42482403 -0.05734166 -0.29501557 -0.03610547 -0.052804608 0.1818324 0.13478003 0.029437551 -0.2851352 -0.026611786 0.30778223 0.13243656 0.42255107 -0.09675108 0.03178768 0.057381254 0.5593217 0.21217997 -0.22813132 -0.32642484 -0.06254064 -0.19759946 0.014181888 0.012667798 -0.042624958 -0.16605592 0.2344313 -0.036102805 -0.06809354 -0.16572566 0.051208384 0.10276029 -0.10867557 0.15829952 0.08973256 0.18246613 -0.29634595 0.3105102 -0.010168537 0.1383159 -0.08785617 0.15757824 -0.33504686 0.03382098 -0.38075295 0.32677183 -0.35389146 -0.26967567 0.17510441 -0.1274373 0.011167135 0.16848531 -0.26207522 -0.05112382 -0.255064 -0.17904687 -0.3455908 0.059987422 -0.34410438 0.11126747 0.22652565 -0.18113288 -0.22670583 -0.15258953 -0.18945464 -0.3262584 0.33874038 -0.21921119 -0.3846525 -0.077064134 0.036347724 0.11372029 0.2497883 -0.33842275 0.25403535 -0.13426787 -0.2822262 0.032281853 -0.019802097 -0.1734392 -0.06858257 0.38288182 0.16120493 -0.25247815 -0.02188468 0.2502684 0.17891173 0.009969047 0.22770354 0.02172743 -0.026078774 0.07555098 0.06669136 -0.14618401 -0.18771301 -0.09459664 0.15246335 0.008849942 -0.022745403 0.22783946 -0.031748667 0.39158225 0.22465074 -0.12040065 0.022089109 0.44832382 -0.09722931 0.004954628 0.032829497 0.22875127 -0.048818994 0.10113967 0.46354252 -0.0816416 0.2484616
577 -0.0031239837 -0.52134264 0.4263783 0.062791556 -0.15518244 0.12075408 -0.1252532 -0.14617756 -0.13334492 -0.007799763 0.033179495 0.11144591 -0.4083393 0.3338998 0.1738547 -0.0857129 -0.038841315 0.21931452 0.20731486 0.31923106 -0.097019166 0.25535905 0.11006308 0.020590402 -0.49960154 -0.14801902 0.1531826 0.14423674 -0.039923936 0.27601272 0.15887883 0.35872728 0.01695761 -0.03250986 -0.30156893 0.05736272 -0.023377493 -0.019143866 0.10667057 -0.33678612 0.24331208 0.14889619 -0.32832497 0.26146924 0.08097535 -0.21847501 0.41243553 -0.044014506 0.27793553 -0.26994354 0.13867737 0.12904802 -0.36358258 0.015748369 0.21994281 -0.10782364 -0.08763517 -0.13909589 -0.10612105 -0.124870636 -0.12520961 -0.09410531 0.2497948 0.31592602 -0.2989319 0.0021638973 -0.08625433 -0.4922306 0.13290483 -0.24388218 0.21213196 -0.5219079 0.0844869 -0.5823922 0.24255483 -0.057456225 0.30132866 -0.18806171 0.15229233 -0.23825037 0.1325609 -0.02056734 -0.16268066 -0.01241865 -0.17776434 0.525474 -0.29053056 0.05148048 0.053850304 -0.0024462473 -0.50401115 -0.4911059 0.15487085 -0.18492822 -0.053002942 0.04150413 0.21546076 0.18175556 0.48602885 0.27337343 -0.16208088 0.03577146 -0.38365766 -0.028458433 0.10887521 0.021280965 0.11548228 -0.17722805 -0.29205245 0.12159644 -0.4376302 -0.34029582 0.042124458 -0.094931975 0.2327827 0.14064749 0.018721584 -0.018601064 0.034889646 0.025908377 0.15162909 -0.012046251 -0.15881886 0.044001315 -0.19784369 0.38118303 -0.14225973 0.051078282
11 0.01676507 -0.023802906 0.06111082 0.3586195 -0.04917036 0.16278186 0.11230638 -0.11494009 0.31380677 0.040658854 0.12323746 0.029183878 0.049805608 0.3476269 0.41214854 -0.04538597 -0.06130734 -0.089136526 -0.011862574 0.18862759 -0.06877527 -0.17636448 -0.76735127 0.08460926 -0.36436448 0.015523236 -0.08363883 -0.20415236 -0.063189976 0.04680142 -0.017466886 0.06755053 0.046844102 -0.05344833 0.07000082 0.044337336 -0.1882557 -0.21508537 -0.10160418 0.24177632 -0.019006258 0.17838682 -0.1194705 -0.12685415 0.047081355 -0.3383781 0.5253718 -0.27316803 -0.012695978 0.14026558 0.019347148 0.14889273 -0.00703132 -0.06610754 0.27557415 -0.043779794 -0.16488248 -0.004297244 0.08533765 0.13151091 0.20585762 -0.10700936 0.14320208 -0.11297957 0.14276254 -0.07980871 -0.1893898 -0.40925327 -0.09235541 -0.0926729 0.18827106 -0.17936395 0.10255652 -0.10576126 -0.050896756 -0.23482923 0.04123177 0.13648511 0.15164189 -0.18130554 -0.0049817804 -0.1755023 -0.10510071 -0.1486926 0.14359303 0.019738078 -0.1414818 -0.18793699 -0.1523579 -0.23258123 -0.32365415 -0.032880988 0.12228815 0.04779479 0.31411648 0.30108753 -0.032880522 -0.06381774 0.008547531 -0.18385419 -0.014234161 0.01722617 -0.060407747 -0.30383378 0.26409307 -0.12328094 0.023470795 0.2930089 -0.26646015 -0.16875418 0.05718355 -0.2323125 0.16046986 0.23052967 0.16257903 0.17793816 -0.21333198 -0.07594531 0.24039717 -0.045450367 -0.10088968 -0.43573216 0.37248152 -0.09984914 0.40922198 -0.20989539 0.0792475 0.116578706
1169 0.061465662 0.20040548 0.075022765 0.14492233 0.21898946 0.10108061 0.3082031 -0.04712386 0.3456902 -0.13200651 -0.39210352 0.032245006 -0.07695289 0.23146065 -0.17083377 -0.31817666 0.0029640389 -0.022232525 0.28418157 -0.1614788 -0.29393306 -0.106889054 0.076581776 0.17751502 -0.19962625 -0.07447079 0.29221666 -0.25532684 -0.119326465 0.26783714 0.08937544 -0.022464808 0.21547441 0.055320546 0.042950444 0.18486252 -0.11753258 -0.1004091 -0.057139907 0.030738043 0.20634675 0.25698307 0.34648523 0.10154118 -0.08159265 -0.37038893 -0.05202178 -0.35404557 0.015014083 -0.25986683 0.15961827 0.27053103 -0.16075973 0.08578202 0.22410917 -0.041619197 -0.34552956 -0.121679135 0.22862746 0.019867588 0.03524807 -0.19400841 0.19867094 -0.103005536 -0.01596209 -0.17368081 0.1296737 -0.2913515 -0.089995906 -0.5315975 0.03453559 -0.34952787 -0.19538388 -0.17182854 -0.08680689 0.1916865 0.23673722 0.22096325 0.24856585 0.32463127 0.19889735 0.30050245 -0.22589323 -0.014420825 0.25747034 -0.017964918 -0.035743896 0.13278492 -0.07363512 0.18130052 -0.35599953 -0.068193406 -0.042601153 0.08681006 0.28733334 0.35772267 0.21286401 0.055465944 0.30345222 -0.14717203 0.006414223 0.26341403 0.37541103 -0.060104266 0.40830424 -0.25480884 -0.14483324 0.3078047 -0.29826367 0.24440514 -0.026837192 -0.29143378 -0.18763268 0.18342061 -0.02702765 -0.046633266 0.015622278 -0.24164139 0.07171794 0.28178957 0.107018486 -0.19127028 -0.026927505 0.23613232 0.09043173 0.3639702 0.33936048 0.25293788
947 -0.12303645 -0.07499899 0.15669098 0.1482411 0.012515975 0.5910954 -0.24606311 -0.06899064 -0.054627657 -0.08860153 0.044190988 0.15771875 0.034943506 0.16873333 -0.0040327334 -0.585632 -0.27751383 0.06544532 -0.055400115 0.4376979 0.08547433 -0.058365725 -0.53973216 0.18284538 -0.2016082 0.048930507 0.08648009 -0.01636565 -0.33680058 -0.064861834 0.14566703 0.0719782 -0.28391525 0.021661328 -0.3247484 -0.18157639 -0.04443086 -0.08428874 0.044759173 0.17764755 0.43652913 0.2721518 -0.29982302 -0.46930793 -0.04947925 -0.14887837 0.18402869 -0.20123638 -0.077807784 -0.20284925 0.48134106 0.06504855 -0.12652902 0.1163403 0.3110498 -0.2843308 0.22200847 0.062292174 0.04061749 -0.14268908 -0.53863925 0.024146145 0.059542082 0.056108203 0.12078465 -0.21778964 0.09074032 -0.11750801 -0.084018245 -0.21118262 -0.15459646 -0.30516636 0.14213826 -0.32016146 -0.1116766 -0.30299956 -0.008073043 0.066112086 -0.20398635 0.0014894078 0.21863186 -0.15178037 -0.06035321 -0.37143603 -0.0044368473 0.2099755 0.22675988 -0.03285767 0.06538384 -0.17163195 -0.49231288 -0.10620232 -0.10024016 0.08335267 0.36566612 0.3646034 0.041983277 -0.21908066 -0.048974276 0.24026348 -0.30000114 0.0392235 0.09655618 -0.004470755 -0.08777806 -0.044230588 0.019292798 -0.03041011 0.36492443 0.20645554 -0.2771606 -0.15372758 -0.05122383 0.36448207 0.30688184 0.10739346 0.2095804 -0.0921826 0.12721282 0.30912232 0.05334036 -0.16910006 0.4359088 0.15437871 0.2036345 0.09989535 -0.14117917 0.17375192
798 -0.017998079 -0.02292537 0.05443701 -0.040334094 -0.06665221 -0.072993785 -0.24993932 -0.14804175 0.16389665 -0.32868102 0.10130878 0.07023266 -0.15134665 0.15600325 -0.43844914 -0.07120165 0.22639436 -0.32497135 0.17734584 0.34471124 -0.2625576 -0.38205642 -0.28867823 0.11563469 -0.6837522 0.09789625 0.27663696 0.27481827 0.109875694 0.44087884 -0.20848598 0.023728283 -0.16513108 -0.4747697 0.08699845 -0.036776923 -0.50095767 0.13437796 0.007979963 0.0333076 0.28957486 -0.22476932 -0.20276567 -0.09056616 -0.13874084 -0.406675 0.17600213 -0.18841107 0.37333474 0.15014692 -0.06930937 0.24721946 -0.25304157 -0.030632945 0.26625147 0.0735802 -0.27612332 -0.15994738 0.2418343 -0.07687763 -0.3481762 0.10059681 0.45958415 -0.087519854 0.16099039 0.015271037 0.32592356 -0.3221168 -0.16421308 -0.29431897 0.36541858 -0.2325943 -0.16797222 0.107046895 -0.21798684 0.07783779 -0.3391864 0.08005299 -0.32610306 -0.12597775 0.30002022 0.11126516 0.10104552 -0.37155804 0.16837694 0.0063473554 0.14056024 0.26028907 -0.07838712 -0.13693897 0.060751446 -0.3023698 0.03534239 -0.08487423 -0.1822661 0.22214238 -0.07400012 -0.1387834 0.30580804 0.21797557 0.18635605 0.19027002 0.043264672 -0.08342045 0.3642691 -0.26961273 0.21468052 -0.1560781 0.093698576 -0.09897052 -0.25796258 -0.62255913 0.09907867 0.30260614 0.15987997 0.3400631 0.17800649 -0.20979661 -0.05397417 0.2473119 0.38961336 0.20304708 0.16522376 -0.2967209 0.08286847 -0.2336855 0.30409077 -0.11194336
253 -0.21362722 -0.058890574 0.1603049 0.33726996 -0.20528153 0.28508866 -0.15785222 -0.023857143 0.7007695 -0.16694662 0.17629494 0.10210023 0.12879235 0.45016184 0.03157154 -0.22464827 0.17894648 0.21950607 0.4169189 0.35328344 -0.3890138 0.038351916 0.007929218 0.23984227 0.061492056 0.19604048 0.24152528 -0.08438697 -0.10158648 0.24665599 0.15277861 0.11449406 -0.08500445 -0.08774888 -0.040068716 -0.041306812 0.0895713 -0.030866107 -0.5919902 0.059368744 0.52117485 0.08496844 -0.22685698 -0.25923556 0.18977243 -0.024808122 0.132449 0.1836736 0.1536437 -0.2012677 -0.115480706 0.2095935 0.104069896 -0.30066997 -0.04011244 -0.062118642 -0.17685181 -0.06807918 0.15339029 0.2079985 -0.26871765 -0.24468628 0.058449466 -0.00643819 0.2205143 0.00055803685 -0.14471555 -0.15025917 -0.27886367 -0.24081302 -0.1906248 -0.16921228 0.54367894 -0.5746246 0.13621323 -0.29151917 -0.06682807 0.19555235 -0.1095193 -0.09107988 0.12425742 0.1387753 -0.021354813 -0.0059056086 0.27370274 0.21320508 -0.059956443 0.20318241 -0.2460316 -0.29129866 -0.027706437 -0.036157757 0.22625281 0.3193519 -0.11889015 0.18898958 0.25418758 0.12392312 0.1872889 -0.14488047 -0.42837232 -0.10354912 -0.32285917 -0.0056100916 0.04773281 -0.20631252 -0.14501375 0.060012735 -0.2616482 -0.12035478 0.19405897 -0.04183311 -0.10888476 -0.024181642 0.15765941 -0.14216864 -0.12792733 -0.13434447 0.09358149 -0.3124551 -0.23599462 -0.07289572 0.13281316 0.19416949 0.079201095 0.24038962 0.2180555 0.047913786
831 -0.039476436 -0.16767673 0.31227893 0.37906715 0.12721293 -0.11004166 0.05327961 -0.44269967 0.19338723 -0.25679296 0.5903852 0.1044399 0.11276057 0.08626528 -0.06505971 0.019820893 -0.057046827 0.121908836 0.04850443 0.0081154555 -0.12597618 0.0634488 0.0064141243 0.18163672 -0.28856266 0.111255124 -0.01863624 -0.27010763 0.045492068 0.37836224 -0.19258463 0.36753565 -0.212674 -0.23850803 -0.18363157 0.29234996 0.2431489 0.010676754 -0.28908607 0.30030215 -0.17504399 -0.13952045 -0.26639307 -0.039378434 0.021614064 -0.347988 0.26561913 -0.23361701 0.02356824 0.3897452 -0.37806317 0.081441715 0.15867084 0.035521995 0.59525174 -0.44359946 -0.17634672 -0.11323295 0.18743573 0.025907194 -0.20463459 -0.06621143 0.0324221 0.08064614 0.19784781 -0.25742036 -0.048517656 0.13572767 -0.1910768 -0.1264029 -0.003894747 0.023644442 0.048479248 -0.1613965 -0.22306234 -0.19620855 -0.16985942 0.0021254967 0.10342909 0.15362489 0.2638584 -0.041446056 0.06433571 0.019959288 -0.039723 -0.17465614 0.16257237 -0.33790764 0.21161583 -0.22352408 -0.5151039 -0.32834074 0.051369224 0.37963542 0.16745305 -0.20885868 -0.05995866 -0.13241152 0.5144427 -0.15083982 -0.28039545 -0.21977444 0.0035901065 0.04016378 0.03553284 0.11674324 0.0585665 0.08558036 -0.3526831 -0.011197977 -0.03450956 -0.19918498 -0.08778246 -0.09736049 0.015974922 -0.10312135 0.13031943 0.0951048 0.11049113 -0.29439357 0.11134833 -0.06195282 0.3618202 -0.16145389 0.3365262 0.6023095 -0.044988327 -0.08535363
783 0.08156107 -0.2981818 0.09945587 0.07049936 0.041814987 0.051664196 -0.28182998 0.2747298 0.31365705 0.4436346 -0.030318385 -0.43615144 -0.060649283 0.022557147 0.07372907 -0.23855866 0.23921815 -0.07941656 0.16099517 0.47333926 -0.27620277 0.057654228 -0.16716851 0.22986656 1.5969363e-05 -0.27988508 0.10743792 -0.124402665 0.059457902 0.14948143 0.033982884 0.14906766 0.1343499 -0.06571508 -0.23387809 0.028052416 0.29829633 0.4712046 -0.1712158 -0.09999711 0.24393219 0.121368416 -0.14715528 -0.39661905 0.07602617 -0.1513353 0.27985892 -0.11207449 -0.20506422 0.36379135 -0.049446996 -0.17202488 -0.46803564 0.5028121 0.5803729 -0.0005315121 -0.077678196 -0.36624572 -0.17683493 0.18940407 0.1547753 0.28461567 0.32676828 -0.03847194 0.220919 0.027917478 0.23479079 0.115219004 -0.42974782 -0.009180636 -0.26898003 0.04258026 -0.2266074 0.22924247 -0.08573199 -0.20006953 -0.08749603 -0.11800854 -0.007982611 0.395846 -0.035782333 0.20830446 -0.30482724 0.28801152 0.4639562 0.4056614 -0.13905747 0.1012499 -0.45122674 -0.29568994 0.11260658 -0.16873285 -0.1608583 -0.10556648 0.3734218 0.42766988 -0.17204979 -0.16087522 -0.04979567 0.26226652 -0.11439387 -0.6405455 -0.20786536 0.14911544 -0.024053656 -0.26762396 -0.33393544 -0.01579057 -0.42167956 -0.20896591 -0.3041436 -0.39127365 0.42359337 0.27390587 0.22090231 0.0433285 -0.32593662 -0.4184804 -0.11476011 0.045223787 -0.08380473 -0.06974502 0.024788579 0.33446056 0.1982052 0.26253715 0.08757312 0.1915222
498 -0.06857828 0.096155055 0.092126854 0.4578997 0.4995889 -0.060410436 0.0344349 0.15549318 0.03547102 -0.06367859 0.191499 -0.15967557 -0.03791276 0.33246034 0.07792072 -0.3202659 -0.19310017 -0.14666109 0.27512765 -0.31236577 0.007985161 0.05035316 0.05666096 -0.22478297 0.17672673 -0.20623139 0.3592279 -0.27107054 -0.05267885 0.053623796 0.0440981 0.1440781 0.0029352834 -0.39815268 -0.16969615 0.1910858 -0.08399176 0.08534744 -0.35511744 -0.0010695488 0.12534241 0.1514155 -0.24256133 0.02228287 -0.076638415 -0.1741594 0.100519426 -0.22664389 -0.0891591 0.20619999 0.14115411 0.1991499 -0.021878501 0.24580812 0.19038616 -0.019249301 -0.4165903 -0.5040629 0.19397199 -0.07981298 -0.04456655 0.15855953 0.033801727 0.042285226 0.29211706 -0.26300755 -0.2230587 -0.3430417 -0.032625012 -0.5932863 0.0030356564 -0.31861016 -0.33591834 -0.44001743 -0.15317784 0.056805164 0.07482228 -0.0140707055 0.089877665 0.37852922 -0.13454299 -0.16642399 -0.36402646 0.013318587 0.22206645 0.0981668 0.12242112 0.05253869 -0.07219074 0.122574896 -0.59416234 -0.25253367 0.01227024 0.113832384 -0.015108794 -0.071182154 -0.2497976 -0.11686916 0.038941503 -0.3890253 0.19768308 -0.31133923 -0.18088815 -0.0445731 0.17463873 -0.26064864 -0.12236917 -0.09067552 0.03732661 -0.26037478 0.08208764 -0.02692339 -0.34425 0.13451292 0.34544802 0.29414836 -0.2968376 -0.23387173 0.055476397 0.41815433 -0.491303 -0.16359666 -0.08848577 -0.13075513 0.07553293 -0.1694768 0.17641394 0.09066502
20 -0.25444952 0.011967819 0.3027162 0.4801627 0.22448227 0.22759862 -0.25425974 0.042428 -0.12111077 0.16554733 -0.07938419 0.01387177 -0.2777216 0.41057402 -0.011732465 -0.27993086 -0.12562253 0.33792448 0.12498093 0.26636255 -0.1163336 0.16069542 -0.44987634 0.30643016 -0.27380732 0.13488172 0.2885377 -0.1884769 0.21015538 0.0459697 -0.13231389 -0.621954 0.03396346 -0.016012017 -0.19620629 0.057018742 -0.15722537 0.012615268 -0.28452638 0.010228225 -0.20177749 0.29643503 0.19999273 -0.56011695 0.29920805 -0.07012722 0.096356064 -0.24687302 -0.046877 -0.26818615 -0.2885876 0.009039263 0.24882554 0.13649873 0.58037096 0.14389735 -0.015053328 -0.023838084 -0.09492471 -0.45979834 -0.075113855 0.06102893 0.22995816 0.099625036 0.09353296 0.0025730021 0.0515388 -0.20920032 0.005598804 -0.0641904 0.10204622 -0.03799349 0.20190887 0.025520464 0.36009642 0.25164002 -0.034926046 -0.014284927 -0.31148383 0.12715745 0.3463775 -0.07995614 0.16285002 -0.14169073 0.22420238 0.0064355424 0.044658743 0.31817645 0.27224708 -0.4606178 -0.54860383 -0.22414221 0.066610225 0.12719563 0.09637838 -0.034584463 0.052901648 0.22000514 0.022631707 0.09797786 0.32039344 0.030989312 0.17819981 0.11928973 0.057408284 -0.31175965 0.08967 -0.08825815 -0.49141046 0.13537955 -0.27721143 -0.26291677 -0.31724972 -0.083725445 0.14560539 0.07973547 -0.39495927 -0.27967793 0.05049918 -0.0871534 0.011044063 0.1273 -0.011761253 0.1890176 0.31281683 0.15531704 0.12125621 -0.15623836
1031 -0.16062425 0.21726754 0.39303464 0.038488306 -0.1001546 -0.28145897 -0.044041645 -0.23131837 0.3770982 0.4036701 0.47939533 0.114845715 0.18586151 0.2072607 -0.015965462 -0.42225015 -0.0420251 0.16057447 -0.019753385 0.41093582 -0.019715277 0.14864048 0.24189149 -0.20187558 -0.07731917 0.10668074 0.17113464 -0.45310798 -0.47923377 0.16928181 0.08759753 0.33187342 0.42435125 -0.36035657 -0.03555092 -0.24157216 -0.036115654 0.09249946 -0.056777537 -0.004046901 -0.19676833 0.007732902 0.14301439 -0.3434473 0.3831692 -0.11143994 -0.08142256 -0.09339003 -0.08490052 0.23584633 0.15758114 0.06868488 0.20673299 -0.08507918 0.31332272 0.14010839 0.14878075 -0.19332309 0.31912735 -0.051406767 -0.15241465 0.0037633455 0.4157512 0.03292067 0.43932888 0.21338886 0.054321334 -0.46773273 -0.13913836 -0.085590065 -0.023320485 0.056654908 0.1487785 -0.32828128 0.11552415 -0.053250104 -0.08088116 0.11246958 -0.22703008 0.17757401 0.37934816 -0.025681024 -0.106983155 0.12476245 -0.090332784 0.26542497 -0.0023133336 0.08686558 0.08425358 0.07716093 -0.3375749 -0.43379918 0.0927479 -0.2714079 0.16872609 -0.03468796 -0.29469165 0.4004571 0.05952625 0.09428017 -0.28263995 0.1667257 0.09250085 0.021312073 0.13846618 -0.13998741 0.005781674 -0.042011 -0.1820639 -0.09068787 0.08589831 -0.44181794 0.013279354 0.051903903 0.18100086 0.35803947 0.151271 -0.3894201 0.28634158 0.14303324 0.025755 0.36842808 0.04783466 0.15377358 -0.03852255 0.20999114 -0.17737034 0.05834723
402 -0.30518183 -0.0027041486 -0.11209239 0.039457757 -0.069603205 0.21848573 -0.029142715 -0.23499478 0.25978994 -0.16926895 0.045205444 0.29985392 -0.11014306 0.2124187 -0.27210402 -0.08917001 0.19069445 -0.12668929 0.25827563 0.25265387 0.022115929 -0.33899903 -0.057044376 0.093825564 -0.1573083 0.03041548 0.14596519 -0.033650327 0.11631046 0.27848604 0.13471286 -0.13297307 0.07438815 -0.2363586 -0.2070876 0.1456191 -0.3204078 0.02750909 -0.24159741 -0.020939058 0.048818476 -0.0064402856 0.030203652 -0.0686384 0.23566243 -0.17656872 0.27923352 -0.1997429 0.2826709 0.1572039 0.15523367 -0.0071822386 -0.13171484 0.2725674 0.1383983 -0.15186872 -0.17406717 -0.32286996 0.20606376 0.0920002 -0.04234684 0.048478298 -0.0080427285 0.10426689 -0.000300729 0.042978227 0.007456444 -0.20740728 -0.11092772 0.0035451541 0.19686058 -0.4855468 0.19350505 -0.27617723 -0.17143543 0.12521592 -0.30018112 -0.065232016 -0.3488672 -0.18296278 0.25117937 0.21912228 0.07737231 -0.3449156 0.118698925 0.09185392 0.27625746 -0.18375693 0.20226015 0.15876473 -0.22750103 -0.26654196 0.012461225 0.09941918 0.06126493 0.17382863 0.126561 0.105082706 -0.041100375 0.31777734 0.078594655 0.3411575 -0.29944316 -0.08796703 0.22967611 -0.11775988 0.066488706 0.51539314 -0.23058477 -0.15099175 -0.32895175 -0.3006808 0.31035963 0.15759507 0.36612123 0.3906048 0.057681557 -0.088477924 -0.039501425 -0.004352351 0.21268333 -0.12607618 0.09498577 0.4385253 -0.06079556 0.102740064 -0.04317717 -0.13515553
245 0.26395744 0.07541261 0.16285889 -0.03794844 0.105583616 0.03997528 0.06860209 -0.0760593 0.20367338 0.13533138 -0.112868436 -0.24313472 0.1473944 0.4492606 0.08691442 0.01918978 0.099973865 -0.14802825 -0.08969743 0.40674222 0.21726637 0.17511636 -0.4070281 0.31787398 -0.37346944 0.02815333 0.023667106 -0.03934921 -0.02588288 0.20979705 0.06307885 0.13328789 -0.00013971845 -0.16795583 -0.33962163 0.12068791 0.33995995 -0.19378197 0.027085926 0.038576774 -0.13517834 -0.14144373 0.056267787 -0.17316972 0.36537525 0.11074251 0.44181007 -0.13944112 -0.22859824 -0.095656656 -0.088291846 0.34718066 0.14043233 0.015568973 0.288894 -0.14276683 0.0017957448 -0.3318023 0.18243527 0.12893212 -0.060368057 0.25064644 0.42847553 -0.075005375 -0.017347004 -0.035105046 -0.27259657 -0.2640143 -0.19221547 -0.44258955 0.16026469 -0.36609593 0.030414622 -0.085650586 -0.12931426 -0.18850833 0.08645133 -0.39506108 -0.10433684 -0.16444737 -0.0075903432 0.010089665 0.18530518 -0.088541664 0.09056504 0.12467636 -0.25576827 -0.25218636 -0.12873411 -0.61718106 -0.50439644 -0.11231093 0.26947978 0.33682835 0.064570345 0.5559899 -0.37809294 0.02370077 -0.020067781 -0.047099814 0.06210117 0.06311441 0.03742303 0.0821244 0.33186984 0.1534887 -0.21097264 0.070086926 0.06386016 0.0892004 -0.091281 -0.03417148 -0.0478523 -0.042144943 -0.027253779 0.27350196 -0.048546605 0.105645515 0.119780876 -0.19377932 -0.3115747 -0.09312467 0.34102523 -0.15540822 0.3735292 0.2704449 0.011227339 0.0746332
232 -0.21957904 -0.2726515 0.033692535 0.29700166 -0.2131756 0.25082758 0.0016773293 -0.30633694 0.3205551 -0.059979774 0.11201716 0.09244191 0.021271363 0.2825158 -0.10678988 -0.15302755 0.026119698 -0.23658156 0.068632714 -0.056225676 0.03186672 -0.09213438 -0.32448885 -0.03197389 -0.18986972 0.118073456 0.07671079 -0.37582093 0.14390907 0.31789458 0.060262315 0.21487558 0.3644742 0.18651028 -0.2227694 0.20486298 0.051550325 0.14699478 0.39225474 0.10265496 -0.014965256 -0.017591296 -0.31029686 -0.092636794 0.15420444 -0.14860024 0.024627365 0.09541804 -0.09014695 -0.104077734 0.17081529 -0.13170567 -0.054030683 0.021868993 0.2916384 -0.2749793 -0.22777887 -0.55662125 0.11975183 -0.23266394 0.097551785 0.11787412 0.07270903 0.1035515 0.0149600245 -0.26909658 -0.25048226 -0.41339853 0.12401213 -0.057406247 -0.35510093 -0.28873655 0.047863044 0.118310444 -0.18372089 0.15948048 -0.35855672 -0.11753239 0.30149245 0.40431228 -0.17556033 0.024555577 -0.16300002 0.17257033 0.36923334 0.37570277 0.058547072 -0.07320106 0.15437856 -0.14549255 -0.46478546 -0.16937587 0.16026708 -0.1263408 -0.12765309 0.1876716 0.14080392 0.12124727 0.06844162 0.37192315 -0.23086382 0.1630603 0.025910148 -0.17708936 0.043581087 -0.32289428 0.3579703 -0.032191217 0.06954969 -0.24702956 0.117060944 -0.3493945 -0.20112929 0.22053985 0.3644377 0.059710756 0.085171886 0.11876771 0.28794494 -0.14052033 -0.10231798 -0.20473152 0.21388583 0.05121348 0.20886518 0.020847429 0.0006246033 -0.11246954
301 0.02841223 0.26430777 0.14383838 0.18436737 -0.3321046 0.22263843 0.13582239 0.53049845 0.43747622 0.2859139 0.25331387 -0.16701677 0.1939781 0.11845377 0.018519703 -0.22392562 0.083458394 0.26233009 0.26003042 0.24326243 -0.49060044 0.18868464 -0.024941875 0.44075954 -0.007991278 -0.13470653 -0.1433095 0.11235954 0.14380616 0.18715684 0.14430535 0.06904671 0.3092333 0.09646903 -0.32365283 0.16972794 -0.11107988 -0.0067012636 0.14819106 0.15136969 0.015404812 0.24973674 -0.041447036 -0.15890324 0.20502605 -0.14898132 0.3578137 -0.28473666 0.13602877 -0.019164884 0.20365407 0.1409613 -0.06594133 -0.066970855 0.3505426 0.0013152107 -0.17560197 -0.077819064 -0.2780119 -0.28182864 0.19555372 0.14657724 -0.18762203 0.11728879 0.067497805 -0.0022343858 -0.25021747 -0.18841544 -0.28513637 -0.042519137 -0.05653733 -0.26623094 -0.26530528 0.086788915 -0.05280176 -0.10471964 -0.13485919 -0.38305482 -0.30231485 0.16302104 0.40052927 0.11408474 0.13495503 -0.3399885 0.15359038 -0.35282952 0.10310673 -0.1620061 -0.042115856 -0.32756487 -0.27748427 -0.070773065 -0.36333466 0.080321476 0.15926039 -0.019153247 0.26044902 -0.24773957 0.21681274 0.022018773 0.13534755 -0.15086427 -0.18952377 0.46629593 0.49258327 -0.19388066 -0.08347492 -0.025061442 -0.14657922 -0.24320492 -0.030452041 -0.22205712 0.10041447 0.16665429 0.25470623 0.077068046 0.19611654 0.1032793 0.13353279 0.09346518 -0.16047844 0.20553616 0.009196597 0.27770945 0.2779662 0.20247349 -0.1273713 -0.008365135
585 -0.13297491 -0.45164475 0.41918838 0.25098932 0.003816333 -0.24773942 0.22089598 -0.1653348 -0.030064937 0.25070658 -0.1618091 0.08692882 -0.09729075 0.09860822 0.062038586 -0.44275346 0.10903901 0.42802295 0.03586271 0.16113615 0.14708549 0.2941574 -0.21762575 0.042851806 0.037682794 -0.19189411 0.013541158 -0.18408947 0.08644124 0.08058874 -0.0942294 0.011872611 -0.02730777 -0.14561148 -0.30563018 0.04666518 -0.018969333 0.043566287 -0.090362005 0.2697334 0.22362 -0.07725083 0.10264246 -0.021451734 0.039044272 0.058204025 0.21980067 -0.15349129 0.014884654 -0.2858503 0.42534858 0.11955165 -0.17507468 -0.06128743 0.40962607 0.027644383 -0.29765147 -0.5901757 0.13586915 -0.21915564 -0.062227152 0.2700284 0.35647076 0.04231138 0.0668632 -0.22227655 0.0027655836 -0.5762153 0.17984866 0.05503844 0.12695366 -0.26042002 0.037164684 -0.21842895 -0.115713485 -0.25964895 -0.30721316 -0.13752367 -0.16077216 -0.14060122 0.07949422 -0.02426401 -0.18991986 -0.20783481 0.18533364 -0.343082 -0.09956996 0.11672828 -0.12094796 -0.173369 -0.16052836 -0.22073326 0.005210576 0.21008395 0.18622473 -0.10040752 0.23021479 -0.17140505 0.247131 0.0816045 -0.24182484 0.20668617 0.36745757 -0.08121245 0.28495678 -0.07194516 0.195251 0.07829276 0.28902635 -0.2683126 0.30026785 0.013584711 -0.026072474 0.299431 0.07275248 -0.041216183 -0.23949952 -0.6108441 0.12174669 -0.18328907 0.087364346 0.008293561 0.51516944 0.06631479 -0.13593379 0.23005237 -0.06461154 -0.10941529
792 -0.37156016 -0.118674956 -0.05224147 0.050630227 0.235891 0.08686944 0.23872837 -0.0063735475 0.37344766 0.08729265 -0.07281187 -0.35540763 -0.07691438 0.26528856 -0.14851974 -0.35698044 -0.040101185 0.53809565 0.015694266 -0.03908785 -0.09925473 0.15871905 -0.011973246 0.2347883 -0.16947764 0.20034945 -0.23002306 0.09921787 -0.013833797 -0.0017493375 0.25740367 0.041860647 -0.0773666 0.01774233 -0.115857236 -0.06897903 -0.23116527 0.022300651 -0.51796013 0.44794527 -0.032075174 -0.22869158 -0.14748776 -0.073947 0.049910367 0.029337835 0.24794902 -0.08936116 0.44060007 -0.14324628 0.11679347 -0.32109827 -0.14096455 0.3661525 0.24652234 -0.2910395 0.05891813 -0.114929534 0.01800493 -0.35223827 0.37454832 0.2498022 0.39650846 0.3609862 0.22123197 0.040577587 0.21522024 -0.2824692 -0.042441808 -0.31219098 0.028054733 -0.039383914 0.17337072 -0.4480143 0.12909429 -0.016953902 0.33396044 0.10186176 0.16872722 0.1554719 -0.4676517 -0.064533226 0.0060759126 0.040415924 0.2786576 -0.3382508 -0.08273138 0.13594757 0.1464948 -0.49979618 -0.058012333 -0.7017312 0.03336869 -0.20696956 0.5672149 0.41786838 -0.20914038 0.04887942 0.09665713 0.08357387 0.3063446 -0.03552686 -0.42485145 0.034641307 -0.28156647 0.03843158 0.24969469 0.018691128 -0.17774153 -0.44529626 0.07209037 -0.3750778 -0.30803582 0.16602033 -0.053751186 -0.120306425 0.06472091 -0.036736026 -0.13488334 0.14462781 -0.17686082 0.10957635 -0.021196106 0.26041445 0.68762004 0.6233549 0.1847673 -0.24202827
372 -0.14289169 -0.05885871 0.24089305 -0.09193927 -0.2886058 0.10548979 0.018043872 -0.1621269 0.019964475 0.109264486 0.17206007 -0.09758748 -0.0955754 -0.12505475 0.18598178 -0.09605029 -0.17369603 -0.280081 0.11996067 0.26696736 -0.12649976 0.37130326 -0.17221148 0.22877812 -0.1571477 0.06999369 -0.027067225 -0.015919741 -0.1787347 0.031242542 0.038379382 -0.030694813 0.017664062 0.049503975 0.06342332 0.34568924 -0.17195043 0.0021870488 -0.35740486 0.26152378 0.08364573 0.18996821 -0.07550403 -0.28112033 -0.07991877 -0.20486748 0.441818 -0.04615941 -0.006159102 -0.19337584 0.10616395 -0.33833832 -0.0075883176 0.28323108 0.03495538 0.07748216 -0.2688149 -0.03440702 0.016053854 -0.2518137 -0.1280282 0.49766794 0.015539392 -0.34869117 0.30283517 0.1739527 -0.3714219 -0.17449649 0.2693685 -0.3303181 0.27010512 0.074696 -0.036939662 -0.019503474 0.31594408 0.3630165 -0.19043627 -0.16616286 -0.16168663 -0.13227308 -0.3782767 0.15502149 0.06798733 -0.2530314 0.22808717 0.28616655 0.27508953 0.12776797 -0.10559256 0.10847567 -0.30219883 -0.3477256 0.10199194 0.2785531 0.099357806 0.21211728 0.17274356 0.46510226 0.7663455 -0.08740021 -0.39830208 0.099195674 -0.12750487 0.1666 0.51623553 -0.4180315 -0.111485176 -0.011310871 -0.29794392 0.28449917 0.066861235 0.07051891 0.105772845 -0.06417683 -0.07547619 -0.18437697 0.14854926 0.03012799 0.06479008 0.3197449 0.0050171493 0.1434372 0.40512672 0.13441102 0.3400764 0.18379916 -0.13845597 0.19433889
891 -0.35928106 -0.19353671 -0.02602777 0.63928056 0.02702593 -0.11716084 -0.07094768 -0.094930395 0.39223334 0.37153825 0.28218552 0.021682546 -0.19145878 -0.13737673 0.11759381 0.1549089 -0.18252277 -0.060992684 0.04928625 0.28851876 -0.07273271 -0.0014272365 -0.26219404 0.1658514 -0.50528944 0.09838815 0.07384082 -0.44532415 0.0545583 0.5528458 0.2110836 -0.106514156 0.021631079 0.13841896 -0.59999853 0.03455431 -0.23554416 0.2919907 0.10670633 0.10086315 0.1572922 0.1402249 -0.072608985 0.03971823 0.108402364 0.18492398 0.0868673 -0.2580806 0.18101607 -0.065916695 -0.18386298 0.27458254 0.03511616 0.007916318 -0.046460565 -0.24812914 0.033111572 -0.39318204 0.058501285 -0.14367837 -0.16518287 0.025359947 0.07977639 0.15872204 0.32890496 0.14865036 -0.10766985 0.05888276 -0.36950922 0.049349617 0.021112118 -0.19146897 -0.0713121 -0.07011614 0.0016072429 0.043934733 -0.3106888 0.23050652 -0.028642686 0.054742564 -0.26218984 -0.15659316 -0.42714217 -0.0810813 0.22933392 -0.44548288 -0.075870775 0.23286796 -0.05905606 -0.11918935 -0.1272711 0.10419009 0.09381979 0.10756339 0.0126781855 0.319704 -0.04828923 0.18786542 0.26473734 -0.11842134 -0.1896093 0.052065223 -0.1742878 -0.00973903 -0.1290034 0.09101672 -0.27240226 0.08034265 0.24205264 -0.020737693 -0.31887725 -0.2959862 0.24333343 0.26964927 0.21019502 0.102673665 -0.029183043 -0.1915505 -0.111059144 -0.04652471 0.3020171 0.1106207 0.14456679 0.1850191 0.097549394 0.17492686 -0.12136156 0.26662022
358 0.15970936 0.31043917 -0.006138322 -0.1635694 0.102194294 0.15746048 0.32308942 -0.039704293 0.327311 -0.12725888 0.28936726 0.24361213 -0.09379895 0.35917598 0.23310998 -0.4098984 0.03282099 -0.20611468 -0.25319043 0.25262398 0.026294615 0.057405617 -0.011201543 0.23916678 0.06605685 -0.05731787 0.27803603 -0.42834207 -0.00012851995 0.22332902 -0.10354377 0.26129216 0.08237503 0.047305748 -0.16419797 0.34647086 -0.07113633 0.17560269 0.04344117 0.41011158 0.28705096 0.096399955 -0.07671871 -0.24479799 -0.12658879 -0.038650315 0.060548384 0.02617769 -0.026013257 0.26487568 -0.060631968 0.31063765 -0.10845819 -0.2534801 0.13023134 -0.2518194 -0.48889434 -0.20407918 0.19566324 -0.08552174 0.191154 0.21042004 0.28653184 -0.12991954 0.25343424 -0.38746515 -0.013757606 -0.35158932 -0.5051694 0.03317658 0.15905052 -0.22218144 0.24944732 -0.017143562 0.044927023 0.02271443 0.07355193 0.02544569 0.13737123 0.086005524 -0.1677171 -0.022787448 -0.07232306 -0.18834294 -0.22689745 0.15157112 0.061715785 0.25698546 -0.045243993 -0.31185532 -0.36913192 0.13666604 0.14225513 0.18550403 0.42270467 0.235203 -0.43119237 -0.40891773 -0.042883117 -0.086844735 0.21790566 -0.044618726 -0.10306976 0.12174972 0.18322547 0.056216475 -0.1548737 0.15937027 -0.4577128 -0.3535413 -0.30807877 0.18480533 0.253976 -0.05762322 0.30109134 0.3006291 0.025510894 -0.0967494 0.0129971 -0.25489166 -0.18936838 -0.19586086 0.37105346 0.3469178 -0.02347994 0.0013887126 0.0372011 -0.008845343
233 -0.026353125 0.0386989 0.14540663 0.17133474 0.29217842 -0.06987376 -0.122485414 -0.079299025 0.18725841 0.03313266 -0.32305834 -0.111971356 0.015439636 0.114278406 0.10830311 -0.45826703 0.46423668 0.06654773 0.22245872 0.15874428 -0.2549292 -0.34062245 -0.25437066 0.18207414 -0.25348794 0.2354953 0.20754378 -0.31896028 0.012950604 0.43414867 -0.39250728 0.1517073 -0.059482258 -0.19026828 -0.03489487 -0.076687165 -0.19298966 0.10026744 -0.08336235 0.2854041 -0.12746616 0.2869682 0.034152687 0.19515778 0.025179964 -0.4024041 0.28136364 0.03691605 -0.24776322 0.06206175 0.12056796 -0.20732883 -0.20428905 0.0068391766 0.27484387 0.31185594 -0.24321279 -0.22876668 0.12462835 -0.59261465 0.09504712 -0.14188221 0.23504728 -0.024089202 0.08562222 -0.15623373 -0.22034153 -0.28437614 -0.31736284 -0.38326383 -0.40135735 -0.18755446 0.16090323 -0.038801696 0.10748217 0.01428275 0.09898363 0.00010826434 -0.24575329 0.043439683 -0.11848826 -0.12604465 -0.15626809 -0.09375706 0.06759522 0.010096411 -0.22565384 0.31498948 0.119195566 0.029236617 -0.5487408 -0.20809856 -0.06443641 0.07157412 0.21877168 0.07601217 0.045819465 0.33238557 -0.08536514 0.062369615 -0.036904816 0.08854034 -0.052385863 -0.11861965 0.3855781 -0.024174836 -0.11793208 -0.060825333 -0.027364042 0.04341539 0.18486562 -0.23086001 -0.09866929 -0.108772025 -0.14119837 0.17581564 -0.026110694 -0.25651166 -0.074675925 0.030314256 -0.08638321 -0.20463945 0.2532191 0.537434 -0.08151659 0.19750464 0.36035857 -0.058538392
1172 -0.12021928 -0.35545102 0.04657164 0.15678176 -0.14364514 0.33380905 0.14481522 -0.154907 0.25508198 -0.15443727 0.14930366 0.010794006 0.07735532 0.36190748 0.084410205 -0.17592098 0.20683007 -0.23283014 0.013558276 0.13963899 -0.14034157 -0.07194136 -0.2140086 0.25607732 -0.22362837 0.037240732 0.15459315 -0.29357576 0.05297103 0.4349087 -0.060554918 0.07515467 -0.16635482 0.026054088 -0.2864868 0.17657784 -0.103844754 0.021843668 -0.17593962 -0.11615427 -0.10627609 0.0808322 0.14060874 0.0044476925 0.14189345 -0.18631184 0.16949624 -0.26573178 0.37087736 -0.17906624 0.079748064 0.19986178 0.11622877 0.2468764 0.27449375 -0.24087837 -0.3154151 -0.14609383 0.18146966 -0.38056755 0.062624045 -0.03352326 0.24134706 0.27119288 0.07710409 -0.038528915 0.12199143 -0.482398 -0.011289277 -0.33319023 -0.33639476 -0.44460893 0.18071568 -0.015813518 0.1108861 -0.39248568 -0.20893937 -0.06542993 0.12174211 -0.18583412 -0.22793654 0.0063927853 -0.2085018 -0.34237447 0.19503856 0.29587594 -0.39681008 -0.007874983 -0.104902714 -0.07731384 0.07395341 -0.4968837 -0.02702005 0.23183124 -0.28160915 0.24693818 0.08477631 0.04032378 0.059311796 0.10849562 -0.09176832 0.28182012 -0.3875841 -0.0232166 0.08532065 -0.10750839 0.16096371 0.26433647 -0.030416096 -0.060827386 -0.16510418 -0.18371981 0.13574532 0.05291899 -0.2341058 0.324389 0.036005594 0.03219177 0.15128297 -0.05306526 0.17259884 -0.18953295 0.3436701 0.242396 -0.16252087 -0.15498507 -0.10081126 -0.19507729
1201 -0.12980868 -0.46115446 -0.12622876 -0.040128186 0.20029485 -0.16612425 0.07382368 -0.015844805 0.43059143 0.27023277 -0.2869858 -0.055939708 -0.13979472 0.10913735 -0.06035169 -0.21519363 0.078661874 -0.018257292 -0.07608814 0.10420847 -0.33754528 -0.13786529 -0.37314823 0.26843247 -0.1984209 0.16025853 -0.19712877 -0.01626351 -0.32887447 0.28122413 0.19079296 0.12071927 0.18258722 -0.03781688 -0.050485905 -0.10980968 0.19766642 0.09565308 -0.01191626 -0.016283963 0.1442354 0.1770959 0.0026871972 -0.101272985 0.09519906 -0.3190367 0.14979541 -0.22582085 0.17277093 0.062436048 0.19737971 0.13879952 -0.17153816 0.081068076 0.22886917 -0.3360445 -0.16543636 -0.5040117 0.48382333 -0.27704838 -0.32869217 0.19647488 0.23275514 -0.05806662 0.12760228 0.15373106 -0.35510707 -0.15563789 -0.43004164 0.108757 -0.05133723 0.18395735 -0.16892728 -0.06955225 0.45653573 -0.23418275 0.027607426 0.047060143 -0.5148202 -0.1517973 0.24668999 0.039822776 -0.23734096 0.02750279 -0.0698333 0.63563687 -0.13869947 0.080375485 -0.10634649 0.20812096 -0.50953525 -0.3141943 0.08105707 0.0018170995 0.025637647 0.052211188 0.03142699 0.44276854 0.3157801 -0.12626822 -0.1770049 0.033276245 0.07644759 0.13596733 0.21730335 -0.112123124 0.04743249 0.38334873 -0.03327753 -0.14950407 0.36020246 -0.39322758 0.12692623 0.12509446 0.12736937 -0.40183118 -0.0031552112 0.25172445 0.22744432 -0.30416167 0.14617918 -0.10233491 0.33248264 -0.102654085 0.16047956 0.13084382 -0.040513 -0.07758068
428 0.040247466 0.07091188 -0.10223979 0.37619033 -0.47017902 0.2525939 -0.096182354 -0.004655658 -0.18988365 -0.17515385 0.29116514 -0.10825333 0.12515277 0.21925631 0.112192884 -0.1573674 0.09492655 0.26253554 0.34607017 0.21926598 0.39903766 -0.036579736 -0.34753522 0.04823119 -0.18594621 0.033140738 0.31206286 -0.060921736 -0.4890596 0.46394092 0.23125596 -0.17887229 0.15685505 0.043030787 0.08491685 0.24979441 -0.0032857023 -0.013480388 -0.044058632 0.1199527 0.036420573 -0.16310376 0.17656179 0.24104409 0.26794115 -0.05463577 0.26471996 -0.06642979 0.29217336 0.09335717 -0.050904028 0.04959683 -0.059889454 0.00014461481 0.57550585 -0.2754415 0.018985381 0.04569968 0.034779094 0.16518503 0.31991902 0.1277841 0.16034646 0.06786392 0.005086227 -0.19738892 -0.23761645 -0.46716723 -0.26914 -0.16073169 0.1889097 -0.25490624 -0.040859286 -0.30013368 0.009864222 -0.24383554 0.040616546 -0.4115619 -0.11901349 0.050884794 0.29637194 -0.21371283 0.15383409 0.118805274 0.3675439 0.41575295 -0.23073082 0.24838988 -0.2651271 -0.29982477 -0.58856446 0.09835463 0.021791793 0.23098005 0.42920163 -0.096129164 0.119196974 0.25800863 0.29529023 -0.13775198 0.04169746 0.17509337 0.16731074 -0.10182306 0.04133576 0.031168014 -0.102115296 0.10629162 0.12806556 0.05184968 -0.08514156 -0.04861382 -0.09678917 0.54027 0.15897614 -0.12492624 0.13828157 -0.08162072 0.083878756 -0.14181802 -0.08639909 0.005715753 0.32014996 -0.25828788 0.14899193 -0.08456211 0.1868914 0.19223921
1214 0.015429451 -0.33796573 0.39486086 0.12755418 0.11976483 0.215627 -0.10580044 0.22491497 0.09799009 0.2327173 0.2774871 -0.15057525 0.26502758 0.44130138 0.5643603 -0.28594887 -0.082830206 -0.25143644 -0.17846116 -0.012909941 0.22847742 -0.1665034 -0.13740128 0.5295745 -0.33537787 0.21514042 -0.034470093 0.037857685 0.25087258 0.01830877 0.05344788 0.17077945 -0.15995187 0.057391424 -0.33198485 -0.06938059 -0.12170444 0.122435145 -0.0744254 -0.10517427 0.0895048 0.2771814 -0.17768706 -0.3790536 0.21567765 -0.250518 -0.13804637 -0.19409263 0.20754063 0.12869331 -0.082922116 -0.14783049 0.046873827 0.093259044 0.37549007 -0.4884944 0.022097845 -0.09499962 0.18158269 0.061995376 -0.12590781 0.14339395 0.29625368 0.15065081 0.19228029 -0.003696208 -0.4233048 -0.02464353 -0.14628527 -0.21903564 0.18906191 -0.39653757 0.022680458 0.07541435 -0.103858255 0.24128687 -0.038541827 -0.03733833 -0.21576408 0.011262034 0.052776802 0.017995615 0.051854253 -0.09343628 0.14629757 -0.16572627 -0.35561234 0.094620146 0.037915833 -0.36060134 -0.39319977 -0.034658134 -0.2616005 0.41428605 -0.049806245 0.46202508 0.3536017 0.21279144 0.50647384 0.115003705 -0.026240742 0.0018047857 0.30014545 0.18348585 -0.1633208 -0.18208212 -0.15991455 0.3354845 -0.070117876 0.061618052 -0.13582894 -0.17390577 0.057567757 -0.1852793 0.110910155 0.1985767 -0.112803735 0.045441013 -0.030285912 0.16804452 0.5090741 0.18487342 -0.22414422 -0.08157824 0.18756981 0.17093067 0.0015089896 -0.06058401
146 -0.031097163 0.07072844 0.2424159 -0.05584606 0.080286466 -0.17864053 0.2675512 -0.019744722 0.2169246 0.11821389 -0.029002415 0.0072785546 0.2775176 0.32115883 -0.25453064 -0.43700904 0.044212814 0.13930671 -0.27061105 0.02944324 -0.2418624 0.2151782 -0.032276414 0.21903294 0.021841373 -0.026401252 0.3408657 -0.13388827 -0.068359576 0.68741167 0.11651659 -0.29998395 -0.048107848 0.12191866 -0.39704695 0.27091774 -0.09079857 0.18282358 -0.107307374 0.29137266 -0.0647573 0.08045027 -0.051460825 -0.054576274 0.32172686 -0.114375405 0.053821012 0.013259064 -0.09342655 -0.15394722 0.11768972 0.25538573 0.066591084 0.4184235 0.30260015 0.3358781 -0.1498597 -0.13072981 0.014820741 0.081607215 -0.19453402 0.2928683 0.24126393 -0.23196001 0.045336608 -0.09952969 -0.24428266 -0.42024398 -0.07636006 0.05143368 0.08014955 -0.23991178 0.006738371 -0.15315658 0.22238937 -0.008915649 0.1630292 -0.29664224 -0.15140463 -0.0057791905 0.018076204 0.0069658016 -0.3560045 -0.09115511 0.20085248 -0.055747557 0.021258123 0.04047041 0.077539876 0.1968188 -0.54659283 -0.19576469 0.22192952 0.08477587 0.112854525 0.32674107 0.30478138 0.11043899 0.112768404 -0.16024168 0.12583566 -0.05892784 -0.05006597 0.049088914 0.19131619 -0.16077982 -0.17821056 -0.059112053 0.019000918 0.047544595 -0.22035185 -0.33636656 -0.24797817 0.29890236 0.21146978 -0.009543558 -0.036586016 -0.021344189 0.034266 -0.027446708 0.091467604 -0.21152958 0.008014902 0.109660365 0.21001616 0.08980379 0.22272928 -0.18537742
1200 0.29723972 -0.25255063 0.025628451 -0.06412374 -0.11359012 -0.0073446855 0.06553285 -0.055088535 0.07367646 0.26225153 0.128051 -0.064830415 0.0668736 0.50154525 0.3075714 -0.34295934 0.12870573 -0.0686973 0.13813569 0.18695325 -0.15909462 0.009036931 -0.21919337 0.24431936 -0.20954965 0.3727273 0.21547413 -0.06732335 -0.17737548 0.17743312 -0.2115642 0.12323353 -0.06659591 0.2153854 -0.008160723 -0.19979618 -0.011436411 -0.19467975 -0.19023418 0.07891865 -0.15434612 0.26410255 0.08784594 0.05360948 0.1978636 -0.137891 0.3648245 -0.10755004 -0.010919208 0.023334246 -0.034313027 -0.10597287 0.15302429 -0.04862666 0.17946345 -0.16187969 -0.38884744 -0.31753844 0.4504583 -0.10501111 -0.13211165 0.11791811 0.47775495 -0.12883434 0.0059043085 0.069979586 -0.2021236 0.10256199 0.014259041 -0.21513018 -0.19327082 0.00018747983 -0.05750493 -0.3161364 -0.047508538 0.02260924 -0.25356016 0.00419537 -0.25611302 0.21062255 -0.1244905 0.052253623 -0.13277668 -0.17176245 0.10017975 0.45173502 0.063066795 -0.20040067 -0.29708004 0.07483413 -0.22962837 -0.08640083 0.1516511 -0.08176632 0.36897254 0.10745108 -0.03690094 0.23840067 -0.039373092 0.19192104 -0.0074698324 0.0013089019 0.07464048 0.12777416 0.024003131 -0.42099667 -0.07250533 0.0056418222 0.06516782 0.2507172 -0.19603114 -0.20497933 -0.21771745 0.39145756 0.050955776 -0.05231159 -0.049201768 -0.10246901 0.46116245 0.19172868 0.041827686 -0.046766393 0.22799233 0.02775252 0.32632327 0.3448418 -0.3241032 -0.04879336
976 0.10109101 0.023594337 0.24255167 0.0861096 0.22274661 0.42878556 0.05128434 0.02136675 0.22833157 0.006951227 0.28090203 -0.0010960688 0.06042979 0.33906388 0.2942795 -0.08621746 0.14855959 -0.37154844 0.32863393 0.18887673 -0.08519113 -0.057090804 0.3355214 -0.1570409 -0.31942663 0.065588996 -0.22333507 -0.13741216 -0.22013313 0.054315895 0.10602622 0.36959746 -0.061578967 -0.2948971 0.22315165 0.3981745 -0.40907094 0.19002947 -0.1876851 -0.012081326 0.11279063 0.24397227 -0.11956717 -0.21924788 -0.32270825 -0.13826273 0.20467429 -0.28699943 -0.0063973186 0.05127857 0.013841265 0.06704338 0.033349004 -0.0684236 0.15275265 0.1780202 -0.2551402 -0.29006356 0.2894251 -0.52234924 -0.20814107 0.3868423 0.13676861 -0.07472779 0.14806825 -0.2739024 -0.5830736 -0.3456304 -0.103815876 -0.06275304 -0.062803976 -0.21699826 0.08467255 -0.26833695 0.21827845 -0.0041828156 0.14791591 -0.0071608424 -0.099671915 -0.03696976 -0.30124292 -0.18880524 -0.017994246 -0.27227932 0.3098864 0.32300586 -0.2515735 -0.1608045 -0.12453122 0.12699379 -0.1639464 -0.028587153 -0.2583272 -0.21690558 -0.05246022 -0.00060174527 0.17668754 0.10996033 0.29770866 0.04207897 -0.2970738 -0.15553361 -0.008195935 0.21781501 -0.0693614 -0.12405541 0.062636785 -0.16211602 0.08894855 -0.11818389 -0.09483749 -0.11148364 -0.24949753 0.26549476 -0.18995161 -0.21037558 0.105919324 -0.32981774 -0.10841026 -0.16939825 -0.02668799 -0.16126907 0.08893984 -0.07554541 0.39890656 0.40586075 -0.011978081 0.14971638
364 -0.07487277 0.12804095 -0.18487065 -0.11198776 -0.115461774 0.06510464 0.11732002 -0.066807285 0.4845188 0.062035315 0.49577552 0.34533846 -0.017667359 0.14808019 0.02067546 -0.12909546 -0.09925563 0.4048727 0.17893635 -0.059725232 -0.0008371518 -0.4455744 -0.027060946 -0.07017321 -0.11903933 0.006030637 -0.19459622 0.18896604 0.17204727 0.546954 0.17775649 -0.23088007 -0.31030166 -0.12167768 -0.099244885 0.45251384 0.07273513 -0.06702239 -0.15241474 0.04793225 0.13308662 0.09985455 -0.39988098 -0.27023774 -0.1711619 -0.25411543 0.27266634 -0.021928348 0.039668016 -0.23198079 0.2931145 -0.09592262 0.19530012 0.05104755 0.349881 0.0184515 0.013186299 -0.3013037 0.028329069 -0.21908395 0.08291536 0.13207817 -0.08512311 -0.06739449 -0.1627956 -0.055017482 -0.2514744 -0.377553 -0.27078038 -0.2853154 0.052732393 -0.10755663 -0.14332764 -0.18216962 -0.23378313 -0.09091316 -0.2593303 0.10674906 -0.2028314 0.031524874 0.025872897 -0.04678597 -0.19081533 -0.14642349 0.17029858 0.33520788 0.10014368 0.012360295 -0.06105858 -0.23185027 0.29839304 -0.34605235 0.0386451 -0.10292084 0.1790206 -0.13584423 -0.25356084 -0.14278087 0.17648436 -0.03946359 -0.057225727 0.19548304 0.22909205 0.22734421 0.16441381 -0.046996143 -0.10671892 -0.12189621 -0.013360886 0.115644865 0.12565815 0.03583151 0.116785854 0.3208795 0.336986 0.023030054 -0.32631052 -0.042776342 0.17442097 0.23398839 -0.2188882 -0.1685988 -0.039679497 -0.1879364 0.2867318 0.24027924 0.03591409 -0.052548975
122 -0.080245204 -0.11261858 0.08562114 -0.06343541 0.06882 -0.14160518 -0.28635943 -0.26936224 0.3350097 0.16308345 -0.04153202 0.013339176 0.13986012 0.10405783 -0.4456954 -0.4134122 -0.08537955 0.10863622 0.38610566 -0.03499996 0.08905663 -0.070740655 -0.2598408 0.5247265 -0.13327739 0.0016991999 -0.099624455 -0.109559424 -0.20479707 0.14682873 -0.259042 0.12404437 0.19750127 0.25977126 -0.05271316 0.11963536 -0.021714251 0.37277195 -0.22013143 0.100864224 0.15254752 0.29090992 0.014527579 -0.17605296 -0.05700485 -0.2798355 0.45526546 -0.05911218 0.18347079 -0.19814785 0.50747234 0.16501284 -0.07312942 -0.028708909 0.24864432 -0.084755614 -0.020175707 -0.39373317 0.068247 -0.28254062 0.15704675 -0.20604147 0.2013012 -0.45419264 -0.206773 -0.13465478 -0.45980084 -0.36843735 0.10836438 -0.12756331 -0.1503776 -0.25847265 0.4230764 -0.29708922 0.15749918 -0.23486044 -0.1945834 -0.021164492 -0.18764132 0.13782871 -0.16250266 -0.24890532 -0.15938239 -0.19523424 0.0013525788 -0.14722683 -0.17445976 0.45455337 0.24563676 0.4546112 -0.31269965 -0.25773928 0.19221829 0.22378768 -0.33275807 0.2966378 0.051763196 0.25293854 0.021761993 -0.24515802 -0.066528015 0.31833264 0.095386505 0.15954028 -0.06974923 0.05643208 -0.12835208 0.090995245 -0.110784926 -0.05562629 -0.08308721 0.0015544259 -0.09907135 0.13236216 0.30035788 -0.25940338 0.057314236 -0.0795618 0.17070886 0.048512135 -0.18308799 -0.076244295 0.22519393 -0.17380251 0.27840734 0.39277342 -0.10442907 0.40299672
1181 0.1588861 -0.50916374 -0.12677321 -0.07909867 -0.07090566 0.10959687 0.28151542 -0.22861522 -0.09153292 -0.06339493 0.4491671 -0.28437322 0.021956822 0.18160193 0.013281423 -0.29525632 -0.13710302 0.32356125 0.24015254 0.09586812 0.12041087 -0.042447347 -0.30167583 0.46637887 -0.5793247 -0.09275597 0.15325566 0.03038835 -0.116360955 0.40232497 -0.25919878 0.2661882 0.031179227 -0.043668434 -0.13196614 0.038121227 0.37504435 0.4038362 0.20452516 0.14571393 -0.04248194 0.1647556 -0.08913364 -0.15337257 -0.00067040056 -0.23487847 0.07644376 -0.025524484 0.14810131 -0.07955714 0.32661772 -0.06913828 0.0342698 -0.012875036 0.31557158 -0.31181574 -0.28945628 -0.39028868 -0.06597985 -0.29395312 -0.17264906 -0.010956322 0.041290626 0.010232822 0.08427206 -0.1501012 0.19584681 -0.40391988 -0.2369803 -0.08180275 0.2770213 -0.1465251 0.24285692 0.16400017 0.08413017 0.12876736 -0.24395639 -0.03145581 -0.032324884 0.2750026 -0.18250795 -0.082281806 0.20886064 -0.06991393 0.4325961 0.078235604 -0.04630196 0.041983813 -0.0103415465 0.21412812 -0.24509916 -0.22727858 0.18627952 0.02555675 -0.112313084 -0.20178762 0.26033887 0.13164636 -0.070469946 -0.3783001 -0.11444785 0.10506098 -0.078419946 -0.0053867595 0.15579914 0.100302555 0.36334038 0.29859534 -0.15609087 -0.0042538894 0.12344629 -0.15558754 -0.1302532 -0.12943308 0.15892735 -0.107926816 0.11163577 -0.45573983 0.08317027 0.0098242 0.1148138 -0.18391453 -0.14670224 0.07044097 0.07893639 0.2052522 0.4168044 0.24857129
695 0.074652486 -0.3582703 0.24336772 0.2043397 0.002250107 0.41538733 -0.18981592 0.11157343 0.2940822 0.074547015 -0.4774611 0.11297209 0.36595905 0.0015508397 0.16946664 -0.0099914055 0.21618064 0.18102592 0.25060153 -0.17405494 -0.11859788 -0.0633165 0.02162638 0.19675 -0.024817668 0.041761715 -0.240516 -0.006649174 -0.05854264 0.59688556 0.008021252 0.19369347 -0.15504979 -0.09427584 -0.14774072 0.21940273 -0.0006274739 0.07505825 0.010155035 -0.19308653 0.0851154 0.10938884 0.14554816 -0.38837793 0.30854577 -0.13228889 0.3242645 -0.14829876 -0.05328387 0.47192937 0.03450934 -0.05098751 -0.042349953 0.17212339 0.2997078 0.0002598114 -0.76438266 -0.18170744 0.04291791 0.07752287 -0.41195554 -0.014812143 0.18090503 0.21996938 0.13717863 -0.121558584 -0.02663236 -0.19643953 -0.11788588 0.13025068 0.06748219 -0.13658564 -0.026124327 -0.17751579 -0.01034596 0.11450862 -0.41760302 -0.0063963174 -0.08158391 -0.18886761 -0.09152039 0.1428699 -0.061202805 -0.23230974 0.16020253 0.18685485 -0.34840572 0.26339594 -0.07509397 0.054987896 -0.31205148 -0.4054179 0.3959986 -0.17160328 0.14055668 0.040046632 -0.11589026 0.16005518 -0.09353927 0.36945754 -0.38391727 -0.044479992 -0.27623817 0.046589665 0.14790225 -0.38159493 -0.2605543 0.25439408 -0.012071112 -0.11329579 0.06938803 0.095023654 0.28366774 0.23320909 0.1266909 -0.26582658 -0.1517776 -0.02741416 0.10817877 0.07934656 -0.120544314 -0.012608356 -0.1879771 -0.32234064 0.23355775 0.26247358 -0.05397977 0.51836956
340 -0.0049144863 -0.0034710085 0.22361271 0.0944396 0.034339942 0.16660613 -0.010207047 -0.31596816 -0.008882561 0.15064359 0.4783073 0.13723314 0.23554641 0.5349431 0.2100422 -0.5766608 -0.24490388 0.042331148 0.1046444 0.46448192 -0.10876662 -0.015440928 0.025771236 -0.013649331 -0.42082086 0.08325195 0.05672639 -0.19004227 -0.34752235 0.34670725 0.20467806 0.0696265 -0.0031660635 -0.03232216 -0.35643208 -0.1348793 -0.12167501 0.32487607 0.10155771 -0.23787008 0.1766174 -0.07437658 0.21979989 -0.11209738 -0.22300084 -0.055939507 -0.029861854 0.048481435 0.10773958 -0.11798691 0.031816818 0.13179466 -0.11877614 0.26911846 0.23045726 0.12988907 -0.2552387 -0.0076750712 -0.07642877 -0.19513445 -0.072740965 -0.15886821 0.19393471 -0.09447471 0.25649098 -0.20221344 0.119269274 -0.067453966 0.2646757 -0.1421454 -0.08577172 -0.06544596 0.07845111 -0.27484962 0.2730784 -0.05592647 0.21631244 -0.17681755 -0.33869976 -0.10868671 -0.11239532 0.13176306 -0.007140158 0.016718097 0.18050697 -0.0345732 0.21469268 -0.036451284 0.35560346 0.01265021 -0.34506062 -0.3853389 0.20871475 0.14198974 0.37668002 0.109644376 0.053650927 0.44983268 -0.0034384679 0.04581091 -0.059939016 0.018861143 -0.008100169 0.052252874 0.10279575 -0.04797201 -0.25143826 0.2186297 -0.071301155 -0.25879622 0.2425092 -0.3400063 -0.06499638 -0.39152938 0.27319682 0.27260146 -0.27362326 -0.26359344 0.18076724 0.032203782 -0.28860557 -0.2584721 -0.2596502 0.17683521 0.16201186 -0.0963599 0.18896686 -0.06483508
849 -0.17557432 -0.008274732 0.10021698 0.1352539 -0.31283432 0.04877992 0.0904513 0.1666163 0.018364789 -0.024510996 -0.025150783 0.08679898 0.042692382 0.25334066 0.5007649 -0.4603664 -0.024104208 -0.022581903 0.33578715 0.31362337 0.14372545 0.19297817 -0.43346626 0.06754993 -0.06668796 0.17902327 -0.21897729 -0.32294458 0.11177912 0.24101262 -0.2036813 -0.10977326 0.07002405 -0.14184165 0.116771124 0.32341304 -0.07794791 -0.16353446 0.09813188 0.19182439 -0.32098448 0.19776592 0.20139661 0.09394985 0.11536714 -0.16983685 0.17726544 -0.16251661 -0.0035378428 0.19606203 -0.032382272 -0.08749497 -0.50642335 0.29828852 0.22384472 0.078165844 -0.1996126 -0.46255732 0.06346476 -0.25725445 0.08773736 0.3193764 -0.11675429 -0.13879168 0.23815429 -0.084078476 -0.027557375 -0.06003517 0.0025792609 -0.6338345 -0.19838971 -0.14751352 0.06838758 -0.35340002 0.13730909 -0.044987045 -0.26251712 0.19381462 -0.28981122 -0.10681838 0.0050821668 -0.46705118 -0.14623985 -0.21741642 0.4670755 0.23456237 -0.021256968 0.33147085 -0.23418306 -0.08290614 -0.22869052 -0.21555242 -0.16197334 -0.21289462 0.03546577 0.19513245 -0.040841416 0.33852518 0.09004909 -0.0019134714 -0.02292699 -0.17931673 -0.2598529 0.01695323 0.14657548 -0.30218497 -0.08314852 0.2132064 0.330567 0.0738218 -0.19329168 -0.45133522 -0.44512466 -0.03601373 -0.0038156726 -0.019166153 0.2761517 -0.109026074 0.35810545 0.13752307 0.16860323 -0.47796127 0.090943955 0.3423715 0.016306015 0.23657498 -0.22074202 0.23463336
1079 -0.06714236 -0.085763425 0.043768633 0.25832683 -0.2313019 0.15176618 0.13594522 -0.07390004 0.12525119 -0.012577215 -0.1922294 -0.09743828 -0.06196218 0.19323821 -0.20317851 -0.12151275 -0.051324166 0.08183412 0.15939963 0.22887646 -0.110149875 -0.14923431 0.057888996 0.41454092 -0.35137886 0.42014247 0.12271294 0.1690444 -0.13096121 0.2296107 -0.07804557 0.089713156 0.10533278 0.16352648 0.0063026305 0.21791393 -0.5140208 0.24088143 -0.3703302 -0.1381453 -0.2768678 0.26275232 0.04715705 -0.30384213 -0.2213342 -0.3968598 0.22373532 -0.37699005 -0.10090935 -0.112236686 -0.07200604 -0.03597188 -0.13857587 0.035619896 0.42677075 -0.12085807 -0.090206675 -0.45494843 0.3616864 -0.05681472 -0.036136568 0.12417416 0.040210593 -0.02265843 -0.08046807 0.19591393 -0.32105863 0.40798888 0.09653841 -0.18535098 -0.12797236 -0.42384708 0.24124694 -0.29521242 0.06707233 0.4776247 -0.10748072 0.060486827 -0.15837152 0.12324421 -0.0040839836 -0.27033433 -0.04039909 -0.2958975 0.3799386 0.08659698 0.050506264 0.1592448 -0.03825701 -0.16843142 -0.5224352 -0.27807626 0.11017694 0.18519665 0.11059382 0.07309168 0.18155517 0.15679848 0.067794435 -0.033628616 -0.27823615 0.3345899 -0.1440456 -0.22411615 0.1903147 -0.10715693 0.026049098 -0.13128905 0.09949754 0.008037484 0.26822123 -0.12942122 0.09854957 0.20729285 0.3584757 -0.08842025 -0.15840337 0.05036466 0.28515318 -0.04142794 0.10482585 0.29151636 0.24671018 0.16987593 0.00659289 0.008179893 -0.1601406 -0.05082428
1213 -0.21105914 -0.15324627 0.19866823 -0.03522652 0.35769513 0.15975112 0.30513895 0.14877829 -0.08181063 0.23972648 -0.09251708 0.54472 -0.020794798 0.42528215 0.054806218 -0.36344358 -0.28683636 -0.14349316 -0.17324719 0.1131575 -0.0025454087 0.3289881 -0.20359065 -0.021384465 -0.49792823 -0.0077253333 0.20208743 -0.31701165 0.027659854 0.3790104 0.20935811 0.28359047 0.09347656 0.06271371 0.033534575 -0.07626362 -0.20898929 0.28922606 -0.116139494 0.090684265 -0.025773544 0.40458086 -0.13389173 0.03820441 0.38246045 0.13119799 0.40632993 -0.17919125 0.031648047 -0.035823762 -0.19840533 0.21530487 -0.2640893 0.063473925 0.16733994 -0.026500598 -0.41862804 -0.30324346 0.24449788 -0.013126713 0.3752213 -0.27500364 0.15018821 0.14188805 0.087681994 7.309809e-05 -0.11884555 -0.24295042 -0.109635524 -0.29838967 0.22316311 0.1090327 -0.030012315 -0.22258213 -0.25717977 -0.45100287 -0.2095905 -0.06552304 0.030845156 -0.051560126 -0.07149946 -0.020897437 -0.12643877 0.04364305 0.32506102 -0.009301093 0.0666878 0.29057363 -0.039126623 -0.0023499564 -0.19567814 -0.14955123 -0.31396037 0.24592395 0.30360422 0.389737 0.22741312 0.34624287 0.20301796 -0.11630029 0.2323087 -0.24217217 -0.13497448 0.251862 0.38137516 0.092795074 -0.22187218 -0.06279396 0.11889598 -0.053217147 -0.032720868 -0.26784828 0.17805296 0.008173681 -0.18884057 0.11616245 -0.27787057 -0.4495933 0.18814029 -0.26400018 -0.11441354 0.3964835 0.12146758 -0.04840007 0.06295394 0.3024089 -0.3652016 0.3560611
68 -0.11200251 0.5234257 -0.30063763 0.051681526 0.09645869 0.1931617 0.10115344 -0.1209468 0.3645321 0.3023561 0.16648537 0.30195755 -0.085838795 0.14863537 -0.026105631 -0.7133042 0.20692557 -0.34201047 -0.12486488 0.50011426 0.20011705 0.4820312 -0.14033122 0.3119124 -0.20071356 0.036820263 0.1818689 0.16294491 0.3728135 0.20064056 0.13911803 0.6988097 0.018348228 -0.029092886 -0.3311344 0.06787285 0.021787278 0.3507455 -0.112825975 0.20780557 0.14828776 0.15404521 -0.012223764 0.18148264 -0.13349515 -0.18407686 0.33809564 -0.55260104 0.51219606 -0.093608394 0.14650586 0.11385005 -0.32491523 0.15772383 0.36901018 0.2837557 -0.4949597 -0.0082501 0.10338897 -0.053243496 -0.06957614 -0.22225095 0.0020124684 0.117878504 0.39253592 0.16494548 -0.16677693 -0.07465142 -0.013626678 -0.15823637 0.17355216 -0.048549842 -0.17655255 -0.09220579 -0.2456563 -0.15441738 -0.14792141 -0.040462617 -0.22145928 0.26203364 0.32719898 0.4938065 -0.32570255 0.12126565 0.4812865 0.3348338 -0.038158193 -0.29202622 -0.116743244 -0.12903602 -0.53377664 -0.5807077 0.006421676 0.06284491 0.2616194 0.015789468 0.11091211 0.5026184 0.4512069 0.22655046 -0.039112143 0.08708365 0.19877651 -0.03196591 0.08599928 0.084914334 -0.32512605 -0.05569693 -0.18213901 0.019729007 0.30058166 -0.3557556 -0.05624704 0.099399656 0.15244289 0.025907483 -0.22401394 0.036568094 0.011341939 0.038156938 -0.18442297 0.037095863 -0.30565554 -0.13525473 0.45885903 -0.12963635 0.11689355 0.03920084
418 -0.12991896 0.02114351 0.02804448 0.37200418 -0.25963536 0.3440181 0.29849625 -0.22139789 0.2406891 0.3086169 0.40564469 -0.03338098 -0.20089208 0.3177228 -0.059268437 -0.4326371 -0.009548234 0.09059277 0.2700174 -0.015571518 -0.06161718 -0.2714536 -0.55247897 0.39788634 -0.23999104 0.21745269 0.070936866 -0.12343678 -0.28066784 0.2030979 -0.02095441 0.006881432 0.12564188 -0.11294563 -0.2552186 0.34574682 -0.33412412 0.23158444 -0.073676445 0.08867304 -0.3275658 0.11442001 -0.028773678 -0.09951207 -0.3440551 -0.5192461 0.008474659 0.069145225 0.1971622 0.17361297 -0.037124682 0.028482532 0.013821488 0.11002545 0.31991228 -0.05068433 -0.18733725 -0.34568593 0.28328338 -0.20256487 -0.16802177 0.009223214 0.29424223 0.016917635 -0.25573912 0.24113 -0.22514188 0.03303997 -0.039633393 -0.021084523 0.24431302 0.11027873 -0.15495816 -0.31473535 -0.0023374313 -0.21439558 0.05709469 0.15203004 -0.2830292 0.6127267 0.031811606 -0.110493645 -0.1776771 -0.39274266 -0.12026838 0.18836838 -0.11227772 0.5285154 -0.23138203 -0.07103776 -0.40070206 -0.26242104 -0.009534855 0.24345088 0.061236117 0.08741017 0.0028233754 0.06411783 0.0059118224 -0.084191084 -0.21202245 0.17038132 -0.15807499 0.022932885 0.37846157 -0.020493733 0.015982844 0.090980716 -0.22297268 0.10240646 0.17499375 -0.13621505 -0.11140882 -0.06693118 0.013670053 0.18417516 0.16128443 -0.21550183 -0.16223551 -0.31583998 -0.30716506 -0.07310161 0.23755804 0.15169674 -0.017088069 0.010133557 -0.3553127 -0.22250316
27 0.12740609 -0.44061092 -0.19508989 0.08878447 0.13177644 0.25091583 -0.08862172 0.122780986 -0.26916847 -0.22586612 0.21872012 0.09120744 0.16676451 0.08766156 0.116520494 -0.47866547 0.1401082 0.35725263 0.0047005536 0.2516242 -0.29673854 0.11670314 -0.22192337 -0.09661857 -0.06515852 -0.12349599 0.052934658 -0.22184232 -0.2044018 0.21252418 -0.39879748 0.20035985 -0.026758809 -0.05558816 -0.09120009 0.2606861 -0.18413503 -0.2730153 -0.01299234 0.062398132 0.12977205 0.18857726 0.12822725 -0.341344 -0.1948293 -0.43421483 0.29901975 -0.22678894 -0.003201139 -0.27131614 0.3020582 0.3962572 -0.12797411 -0.07796065 0.22227503 -0.13273205 0.066376686 -0.17585501 -0.33652303 -0.12110847 -0.009602511 0.33922684 0.11723976 0.14487717 0.1798851 0.02546762 -0.4459549 -0.4778167 -0.1517429 -0.0035674218 -0.17118283 -0.15575628 -0.005979883 -0.13994864 -0.23868242 -0.055585716 -0.03587286 -0.023294058 0.036611192 -0.31055412 0.15046974 -0.31584644 0.14878707 0.2586232 -0.03098162 0.53931034 -0.36552086 0.20020899 -0.09202682 -0.017624484 -0.20857204 -0.22969334 -0.22780885 0.027588125 0.28974354 -0.028231945 -0.19589382 0.20269874 0.31121254 0.029516613 0.033809513 0.16023114 -0.060386993 0.111466944 0.34061667 -0.050146822 0.10835705 0.3997141 -0.3697952 -0.123219304 0.4958178 -0.15849496 -0.029056394 0.27120492 0.22780505 -0.22257082 0.29519263 0.13656177 0.36256617 0.08627841 0.3750533 -0.33226874 0.30292973 0.35360628 0.2273773 0.22192463 -0.26453862 0.38304818
198 0.1736082 -0.19211127 -0.09936767 0.29620525 0.4895476 -0.044041134 -0.25322047 0.08808014 0.18852837 -0.3136962 0.056246616 -0.17950144 0.10556737 0.25856626 -0.1348545 0.070892595 -0.010886933 -0.35561946 -0.33925444 0.17410837 -0.07491647 -0.008815616 -0.02882399 0.17341642 0.21013667 0.11013558 0.061056655 0.07454868 0.11204625 0.053942267 -0.01374285 -0.26435512 -0.08054538 -0.083331585 -0.027033977 0.119141735 -0.03433709 -0.028765168 0.007666228 -0.11129271 0.14979576 0.046438094 -0.13511431 -0.44182274 -0.26983312 -0.2583137 0.19037904 -0.11364741 -0.26567483 -0.11022983 -0.216357 0.5425323 -0.0691003 -0.0324336 0.15904506 -0.2187848 -0.3519961 -0.2082272 0.09055542 0.01298246 -0.037690546 0.20395546 0.026132012 0.37631133 0.15639214 -0.18960713 -0.09420267 -0.5747329 -0.047064375 -0.31185886 0.0661971 -0.43893588 0.1252955 0.15450603 0.40048957 0.20843485 -0.2620969 -0.19663475 -0.26304683 0.023623627 -0.111136906 0.025810106 -0.097186066 -0.24205789 -0.01121439 -0.0106403185 -0.28353068 -0.05684929 0.12041085 -0.11898087 -0.48105106 -0.111582845 0.05095717 0.18355004 0.20590188 0.3850123 0.151393 0.34996068 -0.3310888 0.047879152 0.018570848 0.34603277 -0.28317463 0.42461804 -0.25726545 -0.31353617 -0.09280246 0.06684366 -0.25242358 0.5231919 0.3226321 -0.3405596 -0.14928167 0.39255598 0.38554582 0.10471743 -0.354767 -0.41224128 0.20037724 -0.09870047 -0.15278386 0.35582963 -0.008934895 -0.06649888 0.3333779 0.4233576 0.05977353 -0.03857393
376 -0.05476071 0.10884257 0.046468448 -0.12081954 0.05787792 -0.38485166 -0.1854505 0.15941775 0.2368854 -0.20955254 0.15546925 0.15979713 -0.23153198 0.21840234 -0.05158344 -0.11924745 -0.17889932 0.26541573 0.32835656 0.13700245 -0.118643664 -0.06161392 -0.11193696 0.40082207 0.06952863 -0.21258171 0.13248493 0.029100258 0.1195318 0.08222096 0.037862413 0.20388906 -0.41194692 -0.100699805 0.15970673 0.10040968 -0.0569646 0.24635123 -0.053491503 -0.07939026 0.34625128 -0.10161949 0.09275934 0.34180924 0.073912 -0.17599617 0.44089377 0.29882622 -0.09250411 -0.020297723 0.29952115 0.25673673 0.14946802 -0.18530732 0.33622745 -0.25552672 -0.29058412 -0.054270875 -0.16949575 -0.18816659 -0.22212808 0.05108586 0.0013062326 0.5610713 0.15445778 -0.06851728 0.06508839 -0.043382004 -0.18680474 -0.43754396 -0.031395942 -0.31684288 -0.3803083 0.06497365 -0.023521211 0.030896787 0.10406676 -0.16680022 0.084021755 0.18682197 0.025071882 0.1962221 -0.31089905 -0.28580335 0.010896385 0.11802758 -0.103580266 0.45565572 0.35887206 0.010495998 -0.25464416 -0.52093184 0.5809571 0.478685 0.16294684 0.023512386 0.33765662 0.13955674 0.27238417 -0.2330474 0.06525679 0.3043394 0.00621776 0.14248088 0.10136527 -0.27560267 -0.3348493 0.0027377927 -0.02177886 -0.032634255 -0.05017718 -0.051691834 -0.45620337 0.063750595 0.3458908 0.29762718 -0.5069479 -0.16966411 0.35033473 0.20566103 0.23066597 -0.314326 0.26094657 -0.12493901 0.39192754 -0.038673162 0.038378067 -0.47322994
743 -0.12087807 -0.11154195 0.14340639 0.26051345 0.050646715 -0.09867208 -0.10588776 -0.15862766 0.20687039 0.34413123 0.34546632 0.28258163 0.1633718 0.005566981 -0.3035363 -0.020265182 -0.011618259 -0.029786468 0.24894154 0.24255112 0.32857013 -0.14183523 -0.16650996 0.08182444 0.043276962 0.14401922 -0.32164738 -0.18261796 -0.24103308 0.20180683 -0.12451289 0.3053789 0.3541705 0.085826635 -0.07882646 0.40966508 0.06325432 0.011516618 -0.13174509 0.11025051 -0.1624023 0.05419227 0.16391806 -0.019207995 0.26673624 -0.21427566 0.25683844 -0.26752508 -0.20850024 0.0014598938 0.39815846 0.21656957 -0.11007879 0.34132063 0.20103852 -0.086902566 -0.013933196 -0.21343672 0.49409264 -0.08535162 -0.43611112 0.073957786 0.40691206 0.021741001 0.10787041 -0.05811617 -0.2402325 -0.39711115 -0.11760413 -0.36624816 0.3289163 -0.064342186 0.32672766 0.16241276 -0.033414427 -0.11881448 -0.419188 -0.040199943 -0.116571315 -0.13601744 0.16174446 0.14389597 0.23447928 -0.09912959 -0.0015893958 0.123595275 -0.24447653 0.08729624 -0.026341388 -0.121804096 -0.36065906 -0.16169974 0.25412422 0.050157312 -0.03809881 0.20153284 -0.011062555 -0.049102057 0.17288047 0.034463294 -0.19722755 0.15176347 -0.07141644 -0.011741238 0.04073357 0.056033224 0.024076212 0.12679239 0.035725076 -0.14529562 -0.25182503 -0.2502924 -0.023353396 0.09407809 -0.10354735 -0.26961604 -0.21403109 -0.5605171 0.25968844 0.0756031 0.23511918 -0.038815334 0.02355407 0.14783348 0.04772749 0.12122831 0.044669863 -0.14384878
283 0.1405033 -0.23215748 0.11047007 -0.13629644 0.043731403 0.030194897 0.0116648525 -0.21391013 -0.0016162376 -0.052514974 0.3750214 -0.045773502 0.12578656 0.29879212 0.23408568 0.02481905 -0.10323948 -0.015314619 0.14114726 0.416602 -0.08543666 -0.075281404 0.1977445 -0.06376302 -0.15389536 -0.41891018 0.037931662 -0.021008568 0.19563416 0.20954858 0.27280384 -0.3088655 0.026728746 0.13614316 -0.49363852 0.14675738 -0.080726914 0.23410837 -0.18101181 -0.008790895 0.008191519 0.6232778 0.21758014 -0.052826352 0.030451098 -0.13694745 0.20793158 -0.11233316 0.30960876 -0.016454104 0.4242536 0.3032653 -0.0007146483 0.101787716 0.16209367 0.08847288 -0.26914155 0.029824158 -0.0667558 0.0019977887 0.1666332 0.18419635 0.20934372 0.27531514 0.25706303 -0.46836954 -0.39062577 -0.18511386 -0.09025215 0.14147195 -0.14355949 -0.21489672 -0.0053975875 -0.07935668 -0.29539582 0.13393594 -0.08089818 0.29503664 -0.33718807 0.030762887 0.41294315 0.039688304 0.044228088 -0.106909715 0.048048995 0.25823748 0.2030818 0.07586104 -0.0043844143 -0.27448973 -0.41325003 -0.24488157 -0.17650932 0.2888606 0.09291261 0.2588829 0.07722081 0.19749153 -0.1758705 -0.44614196 0.07093956 0.25159633 -0.112576075 -0.016972601 -0.17532165 -0.23251902 -0.16829649 -0.07093153 -0.40232486 0.05845 -0.065623395 0.15225582 -0.3208707 -0.1359273 -0.17431192 -0.09697497 -0.123621576 -0.3788268 0.0896982 -0.20007329 -0.42914665 0.19028765 0.09834408 0.20126607 0.108802006 0.30700004 0.32544807 0.05401454
800 0.18562709 0.22643577 0.20483366 0.35987622 -0.51906306 -0.028081844 -0.22100887 0.2059898 0.031340327 0.08608442 0.12008056 -0.15340401 0.19276364 -0.12004197 0.08496581 0.0040076976 0.31284016 -0.12528023 -0.20284079 0.18645649 -0.44619364 -0.12839098 -0.21361782 0.05188974 -0.23218504 -0.46335825 -0.17722508 0.05972045 -0.11227138 0.42153224 -0.3412832 0.016475774 -0.39857286 0.121580265 -0.35333127 0.085246064 -0.16516855 -0.20538653 0.026618557 0.12183514 0.37460777 -0.23343098 -0.43168887 -0.120978974 0.046187367 0.22356531 0.16866659 -0.15435244 -0.081645496 0.33253413 0.23002784 -0.42645216 0.07793189 0.29361504 0.03957588 -0.44702995 -0.29054648 -0.25535032 0.15550405 -0.23457162 -0.3404184 0.58256227 -0.044408355 -0.07812984 -0.027892862 -0.08305676 -0.31973833 -0.4183367 -0.07768418 -0.44648552 0.0296451 -0.28958684 -0.025153324 0.10093364 -0.0016525636 -0.20144822 0.2481439 0.1573255 0.15557139 -0.16346017 -0.09472589 -0.05729363 -0.07978561 -0.20008191 0.29736295 -0.008329324 -0.1458195 0.018778298 -0.08715845 -0.45198572 -0.60164535 -0.22201872 0.24351273 0.25486448 0.08850909 0.27223903 -0.42679167 -0.1341189 -0.03556135 -0.088784434 0.19845934 -0.12551063 -0.019485882 0.3359816 0.171886 0.12281521 -0.49892798 0.30983981 -0.24036576 0.051624365 0.050846167 -0.5976355 0.22612745 0.16269116 0.35960728 -0.087690786 0.067614436 -0.18023723 -0.10543107 0.26573774 0.09394556 0.25050604 -0.007324016 0.008257228 -0.047839206 0.36862367 -0.55146354 0.124130905
384 -0.18819584 -0.055013377 -0.14130363 0.019935422 0.28171396 0.015345416 0.002497045 0.2347351 0.1479198 -0.14497545 -0.23971514 0.13654506 0.009621294 0.30288237 -0.27062708 -0.07151303 0.17890802 -0.26220518 0.22067142 0.19517484 -0.16298121 -0.013108026 -0.39887613 0.12121995 -0.07867428 0.006142859 0.45509186 0.021908548 -0.24989814 0.24354452 -0.038565572 -0.13067085 0.18266149 -0.38181853 -0.18161812 0.16509074 -0.17006661 0.092061214 -0.07938633 0.20213044 0.31455243 -0.24632797 0.100485295 0.002403468 0.08522272 -0.2042247 0.32292566 -0.28568527 0.10085137 -0.32063985 0.32182896 0.042423487 -0.23778354 -0.14690615 0.37374142 0.2531773 -0.18435347 -0.08002626 -0.030928046 -0.21555194 -0.22456159 0.144114 0.1959026 0.08903951 0.094637126 -0.021333976 0.0871214 -0.3375482 -0.2184877 -0.33716878 0.19902709 -0.17950304 -0.27536523 -0.22661567 -0.14281848 0.23624587 0.14054824 0.09336694 -0.35349175 0.33273047 0.2802516 -0.05667269 -0.17777373 -0.11718724 0.097915456 -0.023252835 0.072209984 0.08788665 -0.035855714 0.30462185 -0.3648917 -0.48133212 0.17082961 0.23029143 0.07975441 0.16752055 0.09218096 -0.11404231 0.24695057 -0.12558153 0.11778854 0.15728132 0.10918178 -0.02918429 0.4176464 -0.057156462 -0.08740904 -0.042828675 0.039425258 0.06348536 -0.13154227 -0.3504189 -0.28201345 -0.15338925 0.27111062 0.21747655 -0.3305886 -0.2399276 -0.042635333 0.22187887 -0.09023631 0.0867587 -0.05889698 0.04579092 -0.06921642 -0.105543144 0.20660734 0.14323716
1076 -0.3557868 -0.24795957 -0.06809794 0.1843023 0.12875338 0.33404705 -0.13045374 -0.23732118 0.16090368 0.13202201 -0.22027224 0.39388272 -0.113444544 0.13629282 0.15551248 -0.14807335 -0.1912113 0.017516533 0.13438907 0.15203759 -0.0734187 -0.013763671 0.056805894 0.23174469 -0.21552181 0.086713694 0.16711815 -0.36334684 -0.008719827 0.24739581 -0.118263304 0.56099343 -0.113427155 -0.013815304 -0.27946943 -0.13683508 -0.1824963 0.20814069 0.4172528 0.48963228 -0.13567223 0.4466457 0.016491309 -0.4236794 -0.10303658 -0.19516313 0.47414142 -0.15126432 0.048108105 -0.2209845 -0.08459676 -0.30879483 0.11561617 0.034516603 0.23063156 -0.13147318 0.12118944 -0.3802404 0.0366519 0.0029993472 -0.11063568 -0.094143294 0.49296266 -0.36505374 -0.032855455 -0.012369292 -0.006531492 -0.30242553 -0.2157838 -0.07892837 0.18222661 -0.45388058 0.1401201 -0.22435547 -0.06785431 0.019524293 -0.26042512 -0.06304354 0.08844452 -0.48284775 0.14877562 0.13488798 -0.011604676 -0.3103922 0.062369887 0.10184232 -0.015950268 0.17410901 -0.09312711 0.13074295 -0.22773266 0.035161648 -0.20810169 0.36805362 0.19650199 0.19753142 0.071809195 -0.0016345114 0.16959788 0.012927694 -0.0630116 -0.20991224 0.008334546 0.2000699 0.33506978 -0.36091664 0.117484204 0.09436984 -0.14889859 0.19454506 -0.11376586 -0.4968078 -0.03748806 0.13521037 0.043574523 0.035408176 -0.1917136 -0.19161323 -0.07953137 -0.05125621 -0.34719223 -0.32057664 0.11415528 -0.01476935 0.24448064 0.15583293 -0.017875528 0.07290297
404 -0.018202731 -0.39635342 0.22138523 -0.039646614 0.116184786 0.5403628 0.00010380969 -0.10305574 0.14867681 -0.102376215 0.2827773 -0.4287092 0.07123927 -0.12150594 0.02397746 -0.055194307 0.22795695 -0.31947714 0.16487758 0.46131068 -0.02308732 0.024516774 0.19264197 0.26700652 0.041969776 -0.0120904865 0.039859347 -0.20195933 -0.30691466 -0.1719658 0.32854316 0.021322075 0.18644433 -0.39274776 0.10340305 -0.16262756 -0.15369242 -0.06643105 0.10765347 0.0005255042 -0.15300272 -0.08607464 0.02382555 0.2491478 0.29319313 -0.22202152 0.4812462 -0.0028136673 0.29114297 -0.042877853 0.14069681 -0.11199829 0.3104595 0.28153652 0.3510154 -0.22994107 -0.28676328 0.013144521 0.05859965 -0.60266703 0.30168572 -0.24277416 0.27291825 0.49941584 0.37742776 -0.27841493 0.17793915 -0.25180453 -0.16757056 -0.029252537 0.039251268 -0.14352159 -0.099018924 -0.4244575 0.21178862 -0.0811514 -0.29319388 0.012423678 -0.2147992 0.5586372 0.16046102 -0.11048238 -0.09691694 0.1654508 0.07378599 0.3156298 -0.026462918 0.49532712 -0.21361272 0.26212236 -0.5398326 -0.3490679 -0.15337834 0.29288393 0.32876062 0.019218123 -0.10690099 -0.3648789 0.014837474 -0.03328512 -0.08997314 0.22474822 0.29275477 0.18142618 0.1267091 -0.03352961 -0.28629443 0.11543081 -0.33328816 0.29850674 0.047696445 -0.37115455 0.0911119 -0.26415673 0.2371018 0.2959452 -0.23033696 -0.4799089 -0.0043269414 -0.12715021 0.020222373 0.02161726 0.030690683 -0.16973244 0.035758078 0.04491695 -0.07146054 -0.06852762
693 0.11134874 -0.03247257 0.09451814 0.13884886 -0.1358691 0.32560703 -0.1404631 -0.1461559 0.2358873 -0.20520961 0.26641592 0.13547993 -0.10112064 0.2250368 -0.012614777 -0.13164775 -0.13492003 -0.051122338 0.105634116 -0.13128264 -0.2081333 0.09895037 -0.001783644 0.21332277 -0.11142729 0.2750214 0.35488215 0.21257193 -0.0007196351 0.2853936 0.27453628 -0.020824486 -0.0043434 0.018009193 -0.09422077 0.011998543 -0.09678304 -0.028057666 0.043448947 0.22738543 0.042795163 0.08024289 0.11111892 -0.1143895 0.184565 0.28240472 0.3321767 -0.06479982 0.033296127 0.13770127 -0.050547823 0.515229 -0.29302502 -0.08201693 0.41567498 -0.26848 0.040304758 -0.31332612 0.019567136 -0.12589642 -0.4992229 0.07909534 -0.10921936 0.0057768854 0.205369 0.2846929 -0.17713562 -0.25101689 0.06329544 -0.33543888 0.10527707 -0.10368668 0.09143721 0.031985242 -0.22857289 -0.24172825 0.32174656 -0.028222058 -0.373781 0.04976971 0.03630537 0.04831873 -0.23473595 0.065405495 0.002283509 0.3106947 -0.12632145 0.17072792 0.36708894 -0.36015296 0.019390171 -0.17303096 0.18739094 0.1447164 -0.07125114 -0.15012646 -0.0731932 0.08997642 0.16184378 0.30008423 -0.26234862 0.0030993698 0.009681172 -0.10964751 -0.0073976154 0.22863771 -0.23254313 0.057758335 0.026147472 -0.046010677 -0.058581468 -0.011859635 0.23182441 -0.037384238 0.32670006 -0.15004793 -0.2265013 -0.48167023 0.31656042 -0.19849925 0.085503675 0.019917104 -0.05188407 -0.14570072 0.3360815 0.63592 0.13216208 0.19693454
607 0.070664614 -0.15782052 0.13732119 -0.036518365 0.15831868 0.038983047 0.19248262 -0.3997666 -0.13462459 -0.31705883 0.10262732 -0.27415597 0.018031765 -0.03325819 0.0051392713 -0.02024562 0.3578977 -0.22755758 -0.089860104 0.3031312 -0.16809107 0.124068886 -0.004532663 0.32546198 -0.324615 -0.15171336 -0.113629535 -0.14683732 0.22411156 -0.07272281 -0.123192176 -0.2496181 0.0060008923 -0.08480183 -0.14313053 -0.16773987 -0.19077234 0.071342826 0.1373264 -0.006444836 0.22728685 0.121123195 -0.0012607902 0.1786217 0.33614781 -0.08906549 0.070099264 0.021503067 -0.11304075 0.3574591 -0.0066725793 0.19523247 -0.21393812 -0.0003495396 0.3151207 -0.22854239 -0.054394852 -0.4708761 0.28244478 -0.1722563 -0.105544336 0.05751913 0.1277758 0.22465004 -0.12907705 -0.15662888 -0.34033543 -0.43325466 -0.15076315 0.46604216 0.37176368 -0.22505426 0.06436396 -0.0995217 -0.2116032 0.17115967 0.0023417098 -0.34284076 0.0023404935 0.26336545 -0.12692276 0.10326849 -0.20264944 -0.046160515 0.17678088 0.36826542 -0.14911853 7.054674e-05 -0.23044766 -0.03956627 -0.02277252 -0.5500671 0.037700143 0.051213294 0.3683249 0.25378263 0.055975657 0.16874988 0.3979494 -0.12500584 -0.19559796 -0.15595494 -0.077261575 -0.11529065 0.21398951 -0.06801178 0.05484693 0.03181609 -0.40032098 0.14015 0.25194213 -0.44779852 0.02750764 -0.042126004 0.29222426 -0.15449078 -0.13338454 -0.34011102 0.5056933 0.07975962 -0.26033208 -0.37782547 0.047608044 0.41574058 0.48747543 0.07988791 0.055025425 0.041838624
1069 -0.12982453 0.27595448 0.018123506 0.058353033 0.1264311 0.07727619 0.20209546 -0.16235039 0.11552242 -0.22478539 0.35749125 0.010060289 -0.08040195 0.428874 0.1331242 -0.28968194 0.027931811 -0.03664045 -0.2540167 0.3204632 0.061312478 0.05422817 -0.22897512 0.33182925 -0.25274846 0.2430889 0.17546138 -0.1784031 0.2152855 0.08503747 0.011803485 -0.026882136 -0.12771457 0.07837583 -0.16595678 0.028188469 -0.09539759 0.12983106 0.10146595 0.1589366 0.22229287 0.18760127 -0.2899598 -0.20242296 0.10113961 -0.027080918 0.25179264 -0.0023068977 -0.2400161 0.052262943 -0.2754839 0.19585732 -0.071900636 -0.04323668 0.11734476 -0.5040885 -0.3928078 -0.22413616 0.25227255 0.031380467 -0.0179144 0.15422432 0.5323216 -0.030418416 0.34823334 -0.19962047 -0.4005926 0.057291664 -0.4191218 -0.27167127 0.04997805 -0.24735476 0.20161308 0.08583665 -0.0446267 0.116140574 0.21657623 -0.06904238 -0.15328147 -0.024883175 -0.09295374 -0.19984373 -0.009637695 -0.07212326 -0.085067116 -0.1482328 0.27762553 -0.14189929 -0.09613222 -0.13428852 -0.18886964 -0.11906088 0.27061662 -0.047177516 0.34313065 0.14308016 -0.1499771 -0.16850626 0.03788935 0.0086670155 0.005665865 0.033409763 0.070890345 -0.049847074 0.10749939 -0.042766873 -0.11845804 0.08603454 -0.21862812 -0.15467735 -0.2244079 -0.0873623 0.15604146 -0.10265348 0.034255736 0.21825299 0.02306402 -0.25292474 0.37238315 -0.17141426 -0.0881071 -0.2945958 0.20398815 0.15806669 0.22775285 0.11590344 -0.012351462 0.10210885
